{"learner":{"attributes":{"scikit_learn":"{\"_estimator_type\": \"regressor\"}"},"feature_names":["pm25_lag1","pm25_lag2","pm25_lag3","temperature_2m_mean","precipitation_sum","wind_speed_10m_max","wind_direction_10m_dominant"],"feature_types":["float","float","float","float","float","float","float"],"gradient_booster":{"model":{"gbtree_model_param":{"num_parallel_tree":"1","num_trees":"100"},"iteration_indptr":[0,1,2,3,4,5,6,7,8,9,10,11,12,13,14,15,16,17,18,19,20,21,22,23,24,25,26,27,28,29,30,31,32,33,34,35,36,37,38,39,40,41,42,43,44,45,46,47,48,49,50,51,52,53,54,55,56,57,58,59,60,61,62,63,64,65,66,67,68,69,70,71,72,73,74,75,76,77,78,79,80,81,82,83,84,85,86,87,88,89,90,91,92,93,94,95,96,97,98,99,100],"tree_info":[0,0,0,0,0,0,0,0,0,0,0,0,0,0,0,0,0,0,0,0,0,0,0,0,0,0,0,0,0,0,0,0,0,0,0,0,0,0,0,0,0,0,0,0,0,0,0,0,0,0,0,0,0,0,0,0,0,0,0,0,0,0,0,0,0,0,0,0,0,0,0,0,0,0,0,0,0,0,0,0,0,0,0,0,0,0,0,0,0,0,0,0,0,0,0,0,0,0,0,0],"trees":[{"base_weights":[-2.2385648E-6,-9.67959E0,2.7314781E1,-2.376776E1,-1.5469228E0,1.9914797E1,4.64376E1,-3.6223827E1,-1.9433044E1,-6.7409043E0,1.0958923E1,1.1160397E1,3.2763966E1,4.109152E1,7.001624E1,-3.2518795E1,-4.67112E1,-2.3878012E1,-9.173447E0,-1.3388426E1,-2.7164881E0,1.7775696E1,8.8427234E-1,4.313549E1,8.932537E0,3.923375E1,1.0030692E1,3.0907614E1,5.394078E1,1.9565166E1,7.7025444E1,-3.7302372E1,-2.3082325E1,-4.7970028E1,-4.558708E0,-2.0206068E1,-3.2414227E1,2.2802057E0,-1.8364872E1,5.446847E-1,-1.691889E1,8.5680807E-1,-7.117073E0,2.5577456E1,6.2924533E0,6.3400846E0,-1.1686202E1,8.470973E0,4.7192696E1,1.8058823E1,2.4771633E0,2.6183695E1,4.6732822E1,1.5442627E1,-1.0927592E1,4.88382E1,2.2501083E1,-3.1587083E0,5.6304653E1,9.683954E0,-4.6940312E0,1.4137639E1,8.1677025E1,-1.2256213E1,-8.774203E0,-3.8537989E0,-9.820424E0,-4.7587085E0,-1.479395E1,1.0244622E0,-6.809072E0,-1.0904302E1,-8.292478E0,2.3842528E0,-5.142192E0,-4.483763E0,-1.002463E1,-5.0756997E-1,9.683954E0,-3.1813767E0,-5.9030437E0,2.5048184E0,-1.0745236E0,-4.3003645E0,-1.180904E0,8.960747E0,1.5447026E0,2.5320468E0,-6.3733854E0,2.8155384E0,-3.8659039E0,-1.3959119E0,-7.3246293E0,5.505969E0,-1.6940312E0,1.5472558E1,3.741292E0,6.43364E0,-1.00529216E-1,-5.0946474E0,1.4950528E0,1.1084556E1,4.575797E0,1.4577271E1,-1.1910467E0,-4.145545E-1,6.0076327E0,-5.523385E0,9.089533E-1,1.7457174E1,1.0718712E1,1.1558989E1,3.8386424E0,1.796357E1,4.4266148E0,-1.9403115E-1,6.555969E0,2.5128813E1,5.055969E0],"categories":[],"categories_nodes":[],"categories_segments":[],"categories_sizes":[],"default_left":[0,0,0,0,0,0,0,0,0,0,0,0,0,0,0,0,0,0,0,0,0,0,0,0,0,0,0,0,0,0,0,0,0,0,0,0,0,0,0,0,0,0,0,0,0,0,0,0,0,0,0,0,0,0,0,0,0,0,0,0,0,0,0,0,0,0,0,0,0,0,0,0,0,0,0,0,0,0,0,0,0,0,0,0,0,0,0,0,0,0,0,0,0,0,0,0,0,0,0,0,0,0,0,0,0,0,0,0,0,0,0,0,0,0,0,0,0,0,0],"id":0,"left_children":[1,3,5,7,9,11,13,15,17,19,21,23,25,27,29,31,33,35,37,39,41,43,45,47,49,51,53,55,57,59,61,63,65,67,-1,69,71,73,75,77,79,81,83,85,87,89,91,93,95,97,99,101,103,105,107,109,111,-1,113,-1,-1,115,117,-1,-1,-1,-1,-1,-1,-1,-1,-1,-1,-1,-1,-1,-1,-1,-1,-1,-1,-1,-1,-1,-1,-1,-1,-1,-1,-1,-1,-1,-1,-1,-1,-1,-1,-1,-1,-1,-1,-1,-1,-1,-1,-1,-1,-1,-1,-1,-1,-1,-1,-1,-1,-1,-1,-1,-1],"loss_changes":[6.184219E5,1.9783323E5,8.567844E4,3.3419938E4,7.1264695E4,4.946597E4,1.8551969E4,4.7756875E3,2.126025E4,2.0696734E4,2.2098148E4,1.8492234E4,2.5933672E4,1.6783438E4,9.101641E3,4.691211E3,8.5796094E2,9.626016E3,1.5201531E4,1.4372805E4,7.616801E3,1.7040238E4,9.058354E3,1.9911309E3,1.4624748E4,1.2379359E4,4.8191714E3,1.1110547E4,9.889141E3,2.7436177E3,6.451E3,1.0938359E3,3.9269258E3,8.5653125E2,0E0,1.372743E4,8.162656E2,7.290373E3,3.6172012E3,4.313317E3,3.848875E3,8.942578E3,4.925204E3,9.840898E3,4.851481E3,5.5071094E3,3.4674644E3,5.2218195E2,1.6393242E3,6.4234336E3,7.254082E3,5.6729844E3,8.389219E3,2.572086E3,9.958618E2,9.8595703E2,8.374486E3,0E0,7.877578E3,0E0,0E0,3.5634534E2,1.8331719E3,0E0,0E0,0E0,0E0,0E0,0E0,0E0,0E0,0E0,0E0,0E0,0E0,0E0,0E0,0E0,0E0,0E0,0E0,0E0,0E0,0E0,0E0,0E0,0E0,0E0,0E0,0E0,0E0,0E0,0E0,0E0,0E0,0E0,0E0,0E0,0E0,0E0,0E0,0E0,0E0,0E0,0E0,0E0,0E0,0E0,0E0,0E0,0E0,0E0,0E0,0E0,0E0,0E0,0E0,0E0,0E0],"parents":[2147483647,0,0,1,1,2,2,3,3,4,4,5,5,6,6,7,7,8,8,9,9,10,10,11,11,12,12,13,13,14,14,15,15,16,16,17,17,18,18,19,19,20,20,21,21,22,22,23,23,24,24,25,25,26,26,27,27,28,28,29,29,30,30,31,31,32,32,33,33,35,35,36,36,37,37,38,38,39,39,40,40,41,41,42,42,43,43,44,44,45,45,46,46,47,47,48,48,49,49,50,50,51,51,52,52,53,53,54,54,55,55,56,56,58,58,61,61,62,62],"right_children":[2,4,6,8,10,12,14,16,18,20,22,24,26,28,30,32,34,36,38,40,42,44,46,48,50,52,54,56,58,60,62,64,66,68,-1,70,72,74,76,78,80,82,84,86,88,90,92,94,96,98,100,102,104,106,108,110,112,-1,114,-1,-1,116,118,-1,-1,-1,-1,-1,-1,-1,-1,-1,-1,-1,-1,-1,-1,-1,-1,-1,-1,-1,-1,-1,-1,-1,-1,-1,-1,-1,-1,-1,-1,-1,-1,-1,-1,-1,-1,-1,-1,-1,-1,-1,-1,-1,-1,-1,-1,-1,-1,-1,-1,-1,-1,-1,-1,-1,-1],"split_conditions":[9.5E1,5.4E1,1.38E2,3.6E1,1.9914821E2,1.7130151E2,1.68E2,6.2999997E0,1.8174622E2,6.6E1,5E-1,5.4E1,1.5000001E0,1.6382953E2,3.334916E0,1.6262064E2,1.34E2,2.0431387E1,3E-1,1.3684735E1,7.7E1,1.8861387E1,2.259699E1,1.0182337E1,1.5683774E1,1.09E2,2.3540806E1,1.3281023E1,1.8286667E0,1.52E2,2.1834179E1,4.8E1,3.309122E2,2.1E1,-4.558708E0,1.2219308E1,4.4E1,1.9964083E1,3.511996E2,1.3661038E1,1.6418526E1,1.5957835E1,7.3E1,3.4355173E2,3.5472473E2,3.502027E2,3.334349E2,1.11E2,2.1E0,1.39E2,9.8E1,1.693531E1,1.51E2,1.07057495E1,8.5E1,7.920334E0,1.03E2,-3.1587083E0,1.2E0,9.683954E0,-4.6940312E0,1.73E2,1.196825E1,-1.2256213E1,-8.774203E0,-3.8537989E0,-9.820424E0,-4.7587085E0,-1.479395E1,1.0244622E0,-6.809072E0,-1.0904302E1,-8.292478E0,2.3842528E0,-5.142192E0,-4.483763E0,-1.002463E1,-5.0756997E-1,9.683954E0,-3.1813767E0,-5.9030437E0,2.5048184E0,-1.0745236E0,-4.3003645E0,-1.180904E0,8.960747E0,1.5447026E0,2.5320468E0,-6.3733854E0,2.8155384E0,-3.8659039E0,-1.3959119E0,-7.3246293E0,5.505969E0,-1.6940312E0,1.5472558E1,3.741292E0,6.43364E0,-1.00529216E-1,-5.0946474E0,1.4950528E0,1.1084556E1,4.575797E0,1.4577271E1,-1.1910467E0,-4.145545E-1,6.0076327E0,-5.523385E0,9.089533E-1,1.7457174E1,1.0718712E1,1.1558989E1,3.8386424E0,1.796357E1,4.4266148E0,-1.9403115E-1,6.555969E0,2.5128813E1,5.055969E0],"split_indices":[0,0,0,0,6,6,0,4,6,0,4,1,4,6,3,6,2,5,4,5,1,5,5,5,5,0,5,5,3,1,6,1,6,2,0,6,0,3,6,5,5,3,2,6,6,6,6,0,4,1,0,5,1,3,2,3,1,0,4,0,0,0,3,0,0,0,0,0,0,0,0,0,0,0,0,0,0,0,0,0,0,0,0,0,0,0,0,0,0,0,0,0,0,0,0,0,0,0,0,0,0,0,0,0,0,0,0,0,0,0,0,0,0,0,0,0,0,0,0],"split_type":[0,0,0,0,0,0,0,0,0,0,0,0,0,0,0,0,0,0,0,0,0,0,0,0,0,0,0,0,0,0,0,0,0,0,0,0,0,0,0,0,0,0,0,0,0,0,0,0,0,0,0,0,0,0,0,0,0,0,0,0,0,0,0,0,0,0,0,0,0,0,0,0,0,0,0,0,0,0,0,0,0,0,0,0,0,0,0,0,0,0,0,0,0,0,0,0,0,0,0,0,0,0,0,0,0,0,0,0,0,0,0,0,0,0,0,0,0,0,0],"sum_hessian":[2.337E3,1.726E3,6.11E2,6.31E2,1.095E3,4.42E2,1.69E2,1.61E2,4.7E2,7.74E2,3.21E2,2.64E2,1.78E2,1.4E2,2.9E1,1.22E2,3.9E1,3.27E2,1.43E2,2.91E2,4.83E2,1.91E2,1.3E2,1.6E1,2.48E2,1.38E2,4E1,8E1,6E1,4E0,2.5E1,7.9E1,4.3E1,3.7E1,2E0,2.31E2,9.6E1,6.4E1,7.9E1,5.9E1,2.32E2,2.67E2,2.16E2,1.13E2,7.8E1,9.1E1,3.9E1,2E0,1.4E1,1.02E2,1.46E2,5.2E1,8.6E1,3.2E1,8E0,2.4E1,5.6E1,2E0,5.8E1,3E0,1E0,2E0,2.3E1,5.2E1,2.7E1,2.2E1,2.1E1,2E0,3.5E1,2.2E1,2.09E2,4.9E1,4.7E1,5E1,1.4E1,6.6E1,1.3E1,5.6E1,3E0,7.2E1,1.6E2,9.9E1,1.68E2,6.5E1,1.51E2,9.3E1,2E1,7.3E1,5E0,7.9E1,1.2E1,2.6E1,1.3E1,1E0,1E0,1.2E1,2E0,8.6E1,1.6E1,1.6E1,1.3E2,2.5E1,2.7E1,8.3E1,3E0,7E0,2.5E1,5E0,3E0,1.2E1,1.2E1,2E1,3.6E1,5.3E1,5E0,1E0,1E0,2.2E1,1E0],"tree_param":{"num_deleted":"0","num_feature":"7","num_nodes":"119","size_leaf_vector":"1"}},{"base_weights":[2.2238152E-2,-7.853402E0,1.7209318E1,-1.6797342E1,-2.0359063E0,1.0636775E1,2.903442E1,-2.2510178E1,-1.1400018E1,-5.5417814E0,6.001321E0,2.081451E1,5.3350825E0,2.1379274E1,3.8785145E1,-8.226041E0,-2.444433E1,-9.648257E0,-2.2447742E1,-3.5761473E0,-1.4294887E1,1.0724425E1,-1.2142476E0,1.6082315E1,3.4845642E1,-3.6876458E-1,1.3691651E1,1.4466878E1,4.050483E1,4.5064095E1,2.268573E1,8.772251E-1,-2.079786E1,-1.8588041E1,-2.8378942E1,1.8657451E0,-1.2176497E1,-2.5285887E1,-1.0269463E1,5.8019667E0,-5.650023E0,-2.0914265E1,-1.0123019E1,2.4985126E1,6.7039165E0,3.3294504E0,-8.148972E0,3.077952E1,1.0575832E1,4.2161934E1,1.1724344E1,1.9121504E0,-1.4566436E1,1.7953741E1,3.9727635E0,3.486928E1,1.11627245E1,9.806526E0,4.4730858E1,2.560283E1,5.4320595E1,3.4304333E1,1.0452286E1,-4.917829E0,2.3810387E0,-6.847859E0,-1.3199013E0,-7.0952697E0,-3.650399E0,-6.2037373E0,-9.743714E0,-2.330828E0,3.539922E0,-4.474392E0,-1.9306184E0,-1.07187E1,-6.7063212E0,-5.8182635E0,-2.8617862E-1,4.5108886E0,-7.541305E-1,8.5659754E-1,-2.0997298E0,-1.8197911E0,-6.7612476E0,-4.542982E0,-7.299531E-1,3.9627612E0,1.1834264E1,2.6547325E0,-4.0164323E0,1.9040221E0,-4.193931E0,-4.190053E0,1.5580833E0,1.15214405E1,2.8202686E0,-2.5304327E0,4.2425547E0,1.5683197E1,8.568418E0,8.632469E0,-2.1840792E0,7.797917E0,-2.1657252E-1,-1.7847701E0,-6.146731E0,-2.827767E0,5.9150043E0,-1.8828696E0,2.9198542E0,5.6733096E-1,1.1939214E1,1.8984259E0,7.236485E0,9.929494E0,-3.0341837E0,1.4881183E1,5.654523E0,1.3690203E1,3.5817535E0,1.7566263E1,1.0387033E1,-2.8062174E-1,1.0969584E1,6.8510294E0,7.070948E-1],"categories":[],"categories_nodes":[],"categories_segments":[],"categories_sizes":[],"default_left":[0,0,0,0,0,0,0,0,0,0,0,0,0,0,0,0,0,0,0,0,0,0,0,0,0,0,0,0,0,0,0,0,0,0,0,0,0,0,0,0,0,0,0,0,0,0,0,0,0,0,0,0,0,0,0,0,0,0,0,0,0,0,0,0,0,0,0,0,0,0,0,0,0,0,0,0,0,0,0,0,0,0,0,0,0,0,0,0,0,0,0,0,0,0,0,0,0,0,0,0,0,0,0,0,0,0,0,0,0,0,0,0,0,0,0,0,0,0,0,0,0,0,0,0,0,0,0],"id":1,"left_children":[1,3,5,7,9,11,13,15,17,19,21,23,25,27,29,31,33,35,37,39,41,43,45,47,49,51,53,55,57,59,61,63,65,67,69,71,73,75,77,79,81,83,85,87,89,91,93,95,97,99,101,103,105,107,109,111,113,115,117,119,121,123,125,-1,-1,-1,-1,-1,-1,-1,-1,-1,-1,-1,-1,-1,-1,-1,-1,-1,-1,-1,-1,-1,-1,-1,-1,-1,-1,-1,-1,-1,-1,-1,-1,-1,-1,-1,-1,-1,-1,-1,-1,-1,-1,-1,-1,-1,-1,-1,-1,-1,-1,-1,-1,-1,-1,-1,-1,-1,-1,-1,-1,-1,-1,-1,-1],"loss_changes":[3.166051E5,8.3424055E4,5.681611E4,1.9230484E4,2.7449977E4,2.5465625E4,1.8727328E4,8.253E3,6.11184E3,1.1614143E4,1.0100668E4,1.0196086E4,1.4924066E4,1.911232E4,1.0501656E4,4.367139E3,5.6708438E3,8.290002E3,1.2611328E3,1.0826998E4,3.2125664E3,1.0095516E4,3.745228E3,9.628861E3,6.27216E3,6.0836016E3,5.189365E3,7.0935723E3,4.6208906E3,1.3200859E4,4.474049E3,2.934236E3,4.3174902E2,3.3201328E3,4.347992E3,5.068896E3,3.5667695E3,2.727832E2,8.315183E2,7.7936104E3,5.2408174E3,9.960879E2,2.9743413E3,6.120953E3,6.1957456E3,3.8490654E3,3.7209329E3,5.0185566E3,6.288368E3,2.634129E3,3.7739175E3,1.0294509E4,1.2050625E3,4.43349E3,2.4224883E3,2.3625352E3,5.9245566E3,3.1186545E3,3.353375E3,7.118742E3,2.4757031E3,1.3886816E3,1.750784E3,0E0,0E0,0E0,0E0,0E0,0E0,0E0,0E0,0E0,0E0,0E0,0E0,0E0,0E0,0E0,0E0,0E0,0E0,0E0,0E0,0E0,0E0,0E0,0E0,0E0,0E0,0E0,0E0,0E0,0E0,0E0,0E0,0E0,0E0,0E0,0E0,0E0,0E0,0E0,0E0,0E0,0E0,0E0,0E0,0E0,0E0,0E0,0E0,0E0,0E0,0E0,0E0,0E0,0E0,0E0,0E0,0E0,0E0,0E0,0E0,0E0,0E0,0E0,0E0],"parents":[2147483647,0,0,1,1,2,2,3,3,4,4,5,5,6,6,7,7,8,8,9,9,10,10,11,11,12,12,13,13,14,14,15,15,16,16,17,17,18,18,19,19,20,20,21,21,22,22,23,23,24,24,25,25,26,26,27,27,28,28,29,29,30,30,31,31,32,32,33,33,34,34,35,35,36,36,37,37,38,38,39,39,40,40,41,41,42,42,43,43,44,44,45,45,46,46,47,47,48,48,49,49,50,50,51,51,52,52,53,53,54,54,55,55,56,56,57,57,58,58,59,59,60,60,61,61,62,62],"right_children":[2,4,6,8,10,12,14,16,18,20,22,24,26,28,30,32,34,36,38,40,42,44,46,48,50,52,54,56,58,60,62,64,66,68,70,72,74,76,78,80,82,84,86,88,90,92,94,96,98,100,102,104,106,108,110,112,114,116,118,120,122,124,126,-1,-1,-1,-1,-1,-1,-1,-1,-1,-1,-1,-1,-1,-1,-1,-1,-1,-1,-1,-1,-1,-1,-1,-1,-1,-1,-1,-1,-1,-1,-1,-1,-1,-1,-1,-1,-1,-1,-1,-1,-1,-1,-1,-1,-1,-1,-1,-1,-1,-1,-1,-1,-1,-1,-1,-1,-1,-1,-1,-1,-1,-1,-1,-1],"split_conditions":[8.8E1,5.4E1,1.24E2,4.3E1,1.9116483E2,1.5034041E1,1.6382953E2,1.07057495E1,1.22E1,5.4999995E0,1.9440832E1,2.1773947E2,1.6987827E2,1.59E2,1.0257834E1,6E-1,1.879255E1,8.553666E0,2.6718248E1,2.516003E1,6.4E1,5.645333E0,6E-1,1.0990322E1,3.427184E2,1.22E2,1.5000001E0,6.3E1,6.1E1,4.770333E0,1.9813087E1,4.2172146E1,2.6242987E1,1.20546E2,2E-1,5.459917E0,1.5833685E2,7.9828324E0,1.4047583E2,1.3018249E1,1.2218805E1,4.5E1,1.2736022E2,3.334916E0,3.511996E2,3.511996E2,7.4E1,1.16E2,7.297417E0,8.6E1,1.3281023E1,7.38075E0,1.89E1,3.8E1,1.8751125E1,1.1808878E1,1.603075E1,4.6E1,1.62E2,3.0865976E2,3.502027E2,1.0759917E1,1.33E2,-4.917829E0,2.3810387E0,-6.847859E0,-1.3199013E0,-7.0952697E0,-3.650399E0,-6.2037373E0,-9.743714E0,-2.330828E0,3.539922E0,-4.474392E0,-1.9306184E0,-1.07187E1,-6.7063212E0,-5.8182635E0,-2.8617862E-1,4.5108886E0,-7.541305E-1,8.5659754E-1,-2.0997298E0,-1.8197911E0,-6.7612476E0,-4.542982E0,-7.299531E-1,3.9627612E0,1.1834264E1,2.6547325E0,-4.0164323E0,1.9040221E0,-4.193931E0,-4.190053E0,1.5580833E0,1.15214405E1,2.8202686E0,-2.5304327E0,4.2425547E0,1.5683197E1,8.568418E0,8.632469E0,-2.1840792E0,7.797917E0,-2.1657252E-1,-1.7847701E0,-6.146731E0,-2.827767E0,5.9150043E0,-1.8828696E0,2.9198542E0,5.6733096E-1,1.1939214E1,1.8984259E0,7.236485E0,9.929494E0,-3.0341837E0,1.4881183E1,5.654523E0,1.3690203E1,3.5817535E0,1.7566263E1,1.0387033E1,-2.8062174E-1,1.0969584E1,6.8510294E0,7.070948E-1],"split_indices":[0,0,0,0,6,5,6,3,4,4,5,6,6,0,3,4,5,3,3,6,0,3,4,5,6,2,4,1,2,3,5,6,5,6,4,3,6,3,6,3,5,2,6,3,6,6,0,1,3,1,5,3,5,2,5,5,3,2,2,6,6,3,0,0,0,0,0,0,0,0,0,0,0,0,0,0,0,0,0,0,0,0,0,0,0,0,0,0,0,0,0,0,0,0,0,0,0,0,0,0,0,0,0,0,0,0,0,0,0,0,0,0,0,0,0,0,0,0,0,0,0,0,0,0,0,0,0],"split_type":[0,0,0,0,0,0,0,0,0,0,0,0,0,0,0,0,0,0,0,0,0,0,0,0,0,0,0,0,0,0,0,0,0,0,0,0,0,0,0,0,0,0,0,0,0,0,0,0,0,0,0,0,0,0,0,0,0,0,0,0,0,0,0,0,0,0,0,0,0,0,0,0,0,0,0,0,0,0,0,0,0,0,0,0,0,0,0,0,0,0,0,0,0,0,0,0,0,0,0,0,0,0,0,0,0,0,0,0,0,0,0,0,0,0,0,0,0,0,0,0,0,0,0,0,0,0,0],"sum_hessian":[2.337E3,1.603E3,7.34E2,6.31E2,9.72E2,4.73E2,2.61E2,3.05E2,3.26E2,6.77E2,2.95E2,1.61E2,3.12E2,1.48E2,1.13E2,3.7E1,2.68E2,2.83E2,4.3E1,5.54E2,1.23E2,1.78E2,1.17E2,1.22E2,3.9E1,1.86E2,1.26E2,1.1E2,3.8E1,8E1,3.3E1,2.2E1,1.5E1,1.1E2,1.58E2,5.1E1,2.32E2,3.4E1,9E0,1E2,4.54E2,4.6E1,7.7E1,3.8E1,1.4E2,7.1E1,4.6E1,3.2E1,9E1,2.9E1,1E1,1.61E2,2.5E1,8.7E1,3.9E1,1.4E1,9.6E1,5E0,3.3E1,2.7E1,5.3E1,1.6E1,1.7E1,6E0,1.6E1,1.3E1,2E0,6E1,5E1,5.7E1,1.01E2,2.6E1,2.5E1,1.56E2,7.6E1,5E0,2.9E1,4E0,5E0,4.7E1,5.3E1,6.2E1,3.92E2,5E0,4.1E1,4.6E1,3.1E1,2.2E1,1.6E1,1.27E2,1.3E1,6.1E1,1E1,3.2E1,1.4E1,2.3E1,9E0,1.4E1,7.6E1,1.5E1,1.4E1,5E0,5E0,1.5E1,1.46E2,1.1E1,1.4E1,5E0,8.2E1,1.4E1,2.5E1,2E0,1.2E1,7.1E1,2.5E1,2E0,3E0,2.7E1,6E0,1E1,1.7E1,4.2E1,1.1E1,1E0,1.5E1,6E0,1.1E1],"tree_param":{"num_deleted":"0","num_feature":"7","num_nodes":"127","size_leaf_vector":"1"}},{"base_weights":[5.6252856E-2,-5.8600955E0,1.1790775E1,-1.0827481E1,-6.228477E-1,8.165238E0,2.3999067E1,-3.0687969E0,-1.2986042E1,-3.5066395E0,4.572404E0,3.8843079E0,1.5049651E1,3.776651E1,2.0269037E1,2.7735848E0,-1.1080339E1,-9.608743E0,-1.7321339E1,-9.144451E-1,-7.5674787E0,1.7853085E1,1.4125504E0,1.4349031E1,9.5236367E-1,1.9016575E1,2.5368762E0,9.2649424E-1,3.8644005E1,1.869598E1,5.307118E1,-1.0266121E1,4.7936106E0,-6.452004E-1,-1.4673474E1,-8.560146E0,-1.7379517E1,-2.1591269E1,-1.2696443E1,2.7511497E0,-7.059243E0,-8.709483E0,2.037674E0,-2.4045105E0,1.9591312E1,-6.3688197E0,5.4001546E0,1.863697E1,-8.4976315E-1,2.0837975E0,-1.2469478E1,2.675358E1,1.4466265E1,6.8994036E0,-9.073313E0,4.27278E1,2.3753359E1,-6.5746737E0,2.0096508E1,4.4544697E0,1.7323837E1,-4.3211517E0,2.9120376E0,2.399979E0,-2.4893937E0,-1.5307971E0,7.894382E0,4.200773E0,-4.805937E0,-4.249973E0,-2.1688213E0,-6.507129E0,-3.8011584E0,-5.653453E0,-7.6848683E0,-4.9723663E0,-5.360044E-1,2.2575822E0,-5.1301163E-1,7.5558853E0,-2.4533405E0,-2.1272638E0,-4.807982E0,-4.882381E0,3.7068853E0,-3.436353E0,8.1648505E-1,-2.212607E0,6.2772336E0,-1.1105585E0,-5.641021E0,2.3558133E0,-1.3034452E0,1.0193001E1,2.57512E0,3.3070228E0,-2.6083195E0,9.213434E-1,-2.7826958E0,5.47664E0,-4.4087586E0,1.0250581E1,5.1632805E0,2.2105877E0,6.0557394E0,3.321513E-1,4.6056795E0,-9.2159253E-1,-5.5690637E0,1.3084086E1,2.9544697E0,1.6368462E0,1.0512642E1,-4.3957195E0,7.495409E0,8.235445E-1,6.546947E0],"categories":[],"categories_nodes":[],"categories_segments":[],"categories_sizes":[],"default_left":[0,0,0,0,0,0,0,0,0,0,0,0,0,0,0,0,0,0,0,0,0,0,0,0,0,0,0,0,0,0,0,0,0,0,0,0,0,0,0,0,0,0,0,0,0,0,0,0,0,0,0,0,0,0,0,0,0,0,0,0,0,0,0,0,0,0,0,0,0,0,0,0,0,0,0,0,0,0,0,0,0,0,0,0,0,0,0,0,0,0,0,0,0,0,0,0,0,0,0,0,0,0,0,0,0,0,0,0,0,0,0,0,0,0,0,0,0],"id":2,"left_children":[1,3,5,7,9,11,13,15,17,19,21,23,25,27,29,31,33,35,37,39,41,43,45,47,49,51,53,-1,55,57,59,61,63,65,67,69,71,73,75,77,79,81,83,85,87,89,91,93,95,97,99,101,103,105,107,109,111,113,115,-1,-1,-1,-1,-1,-1,-1,-1,-1,-1,-1,-1,-1,-1,-1,-1,-1,-1,-1,-1,-1,-1,-1,-1,-1,-1,-1,-1,-1,-1,-1,-1,-1,-1,-1,-1,-1,-1,-1,-1,-1,-1,-1,-1,-1,-1,-1,-1,-1,-1,-1,-1,-1,-1,-1,-1,-1,-1],"loss_changes":[1.6238597E5,4.044725E4,3.450515E4,1.3324719E4,1.1372408E4,1.7801387E4,8.426695E3,8.221867E3,8.969922E3,5.1300044E3,1.1347299E4,1.1492078E4,1.1467594E4,1.0065625E3,6.3865312E3,2.735947E3,2.7651523E3,2.7276152E3,5.0973203E3,6.754198E3,2.1018809E3,1.8781465E3,6.8607783E3,5.3599004E3,4.4906465E3,5.8091875E3,2.949637E3,0E0,1.1742461E3,5.016258E3,2.1471289E2,1.2968073E3,3.802231E3,2.5377178E3,2.3477031E3,2.232787E3,5.5747266E2,1.0648594E3,5.5975195E3,4.0169429E3,4.2456416E3,1.8997568E3,4.169196E3,2.6313202E2,1.8794961E3,2.4175813E3,3.5235312E3,9.578025E3,1.865515E3,3.0791626E3,1.8416052E3,3.9405E3,4.4385137E3,2.0393616E3,8.542388E2,3.56875E2,1.8743359E3,2.4055088E3,3.8648164E3,0E0,0E0,0E0,0E0,0E0,0E0,0E0,0E0,0E0,0E0,0E0,0E0,0E0,0E0,0E0,0E0,0E0,0E0,0E0,0E0,0E0,0E0,0E0,0E0,0E0,0E0,0E0,0E0,0E0,0E0,0E0,0E0,0E0,0E0,0E0,0E0,0E0,0E0,0E0,0E0,0E0,0E0,0E0,0E0,0E0,0E0,0E0,0E0,0E0,0E0,0E0,0E0,0E0,0E0,0E0,0E0,0E0,0E0],"parents":[2147483647,0,0,1,1,2,2,3,3,4,4,5,5,6,6,7,7,8,8,9,9,10,10,11,11,12,12,13,13,14,14,15,15,16,16,17,17,18,18,19,19,20,20,21,21,22,22,23,23,24,24,25,25,26,26,28,28,29,29,30,30,31,31,32,32,33,33,34,34,35,35,36,36,37,37,38,38,39,39,40,40,41,41,42,42,43,43,44,44,45,45,46,46,47,47,48,48,49,49,50,50,51,51,52,52,53,53,54,54,55,55,56,56,57,57,58,58],"right_children":[2,4,6,8,10,12,14,16,18,20,22,24,26,28,30,32,34,36,38,40,42,44,46,48,50,52,54,-1,56,58,60,62,64,66,68,70,72,74,76,78,80,82,84,86,88,90,92,94,96,98,100,102,104,106,108,110,112,114,116,-1,-1,-1,-1,-1,-1,-1,-1,-1,-1,-1,-1,-1,-1,-1,-1,-1,-1,-1,-1,-1,-1,-1,-1,-1,-1,-1,-1,-1,-1,-1,-1,-1,-1,-1,-1,-1,-1,-1,-1,-1,-1,-1,-1,-1,-1,-1,-1,-1,-1,-1,-1,-1,-1,-1,-1,-1,-1],"split_conditions":[8.6E1,5.9E1,1.36E2,1.2228665E1,1.7592705E2,1.7130151E2,1.2245293E1,3E-1,1.9083395E1,7.8E1,1.3779114E1,1.3138765E1,1.7E0,7.928178E0,1.84E2,3.8E1,5.5E1,1.42E1,5.1E1,1.8335276E1,2.4696102E1,4.2E1,6.3E1,1.23E2,1.5500001E1,1.5072783E1,2.4216522E1,9.2649424E-1,1.22E2,1.4486903E1,1.04E2,1.58E2,1.13E2,5.7E1,1.1901798E1,3.8E1,4.6E1,2.5741888E1,2.3346484E2,2E-1,2.3895054E0,1.22E2,8.7E1,2.5E1,8.699793E0,3.4779147E2,3.392243E2,1.164325E1,1.0315115E1,1.38E2,4.4E1,8.6E1,1.964558E1,1.8751125E1,3.2092548E2,1.64E2,1.54E2,2.1638964E1,3.334916E0,4.4544697E0,1.7323837E1,-4.3211517E0,2.9120376E0,2.399979E0,-2.4893937E0,-1.5307971E0,7.894382E0,4.200773E0,-4.805937E0,-4.249973E0,-2.1688213E0,-6.507129E0,-3.8011584E0,-5.653453E0,-7.6848683E0,-4.9723663E0,-5.360044E-1,2.2575822E0,-5.1301163E-1,7.5558853E0,-2.4533405E0,-2.1272638E0,-4.807982E0,-4.882381E0,3.7068853E0,-3.436353E0,8.1648505E-1,-2.212607E0,6.2772336E0,-1.1105585E0,-5.641021E0,2.3558133E0,-1.3034452E0,1.0193001E1,2.57512E0,3.3070228E0,-2.6083195E0,9.213434E-1,-2.7826958E0,5.47664E0,-4.4087586E0,1.0250581E1,5.1632805E0,2.2105877E0,6.0557394E0,3.321513E-1,4.6056795E0,-9.2159253E-1,-5.5690637E0,1.3084086E1,2.9544697E0,1.6368462E0,1.0512642E1,-4.3957195E0,7.495409E0,8.235445E-1,6.546947E0],"split_indices":[0,0,0,3,6,6,5,4,5,1,5,5,4,5,0,0,2,4,2,5,5,1,2,1,4,5,5,0,2,6,1,2,1,0,5,0,0,5,6,4,6,1,1,1,5,6,6,3,5,2,1,1,5,5,6,1,0,5,3,0,0,0,0,0,0,0,0,0,0,0,0,0,0,0,0,0,0,0,0,0,0,0,0,0,0,0,0,0,0,0,0,0,0,0,0,0,0,0,0,0,0,0,0,0,0,0,0,0,0,0,0,0,0,0,0,0,0],"split_type":[0,0,0,0,0,0,0,0,0,0,0,0,0,0,0,0,0,0,0,0,0,0,0,0,0,0,0,0,0,0,0,0,0,0,0,0,0,0,0,0,0,0,0,0,0,0,0,0,0,0,0,0,0,0,0,0,0,0,0,0,0,0,0,0,0,0,0,0,0,0,0,0,0,0,0,0,0,0,0,0,0,0,0,0,0,0,0,0,0,0,0,0,0,0,0,0,0,0,0,0,0,0,0,0,0,0,0,0,0,0,0,0,0,0,0,0,0],"sum_hessian":[2.337E3,1.554E3,7.83E2,7.97E2,7.57E2,6.05E2,1.78E2,1.74E2,6.23E2,4.87E2,2.7E2,3.74E2,2.31E2,3.6E1,1.42E2,1.01E2,7.3E1,3.52E2,2.71E2,2.98E2,1.89E2,5.1E1,2.19E2,8.1E1,2.93E2,1.75E2,5.6E1,1E0,3.5E1,1.37E2,5E0,1.3E1,8.8E1,1.9E1,5.4E1,3.12E2,4E1,1.39E2,1.32E2,1.87E2,1.11E2,1.69E2,2E1,4E0,4.7E1,7.4E1,1.45E2,6.3E1,1.8E1,2.71E2,2.2E1,6.3E1,1.12E2,4.1E1,1.5E1,2.6E1,9E0,7E0,1.3E2,1E0,4E0,1.1E1,2E0,7.1E1,1.7E1,1.7E1,2E0,2E0,5.2E1,5.8E1,2.54E2,1.9E1,2.1E1,8.6E1,5.3E1,9.7E1,3.5E1,9E1,9.7E1,3E0,1.08E2,1.4E2,2.9E1,7E0,1.3E1,1E0,3E0,2E0,4.5E1,6.2E1,1.2E1,1.16E2,2.9E1,2.4E1,3.9E1,7E0,1.1E1,2.5E2,2.1E1,1E0,2.1E1,3.4E1,2.9E1,5.1E1,6.1E1,2.5E1,1.6E1,1E1,5E0,2.5E1,1E0,4E0,5E0,6E0,1E0,1.2E1,1.18E2],"tree_param":{"num_deleted":"0","num_feature":"7","num_nodes":"117","size_leaf_vector":"1"}},{"base_weights":[6.4754695E-2,-3.317054E0,1.0986718E1,-6.828989E0,1.3576409E0,9.546358E0,2.5607027E1,-3.3576384E0,-9.789311E0,4.387856E0,-2.8889034E0,1.1349751E1,-9.4443005E-1,-1.4458338E0,2.8714075E1,-5.878121E0,9.7834665E-1,-3.6381028E0,-1.208692E1,7.381782E0,-2.049411E0,2.8343046E0,-4.8726735E0,7.834078E0,1.6350582E1,5.238189E0,-8.9719515E0,1.2224815E1,-1.1337362E1,1.5335627E1,3.3829693E1,-1.2985935E1,-4.1796765E0,5.273037E0,-1.1830353E1,-7.9515033E0,-1.0117666E0,-1.4986427E1,-8.770609E0,5.296578E0,1.6206509E1,-7.5026135E0,1.7598637E0,7.4435115E0,-6.485334E0,-5.8266516E0,2.7982874E0,1.6179272E1,5.011544E0,4.580933E0,1.9978317E1,-6.4550014E0,1.1105764E1,-1.56544E1,-8.9345026E-1,4.4425807E0,1.0585866E0,-6.0667233E0,2.297667E0,2.236496E1,-7.828949E0,2.2206594E1,4.333844E1,3.860177E0,-4.1032114E0,-2.7089918E-1,-2.084762E0,2.558662E0,-1.7917719E0,4.7811337E0,-4.0596204E0,-1.4755607E0,-4.2749047E0,4.683454E0,-5.742046E-1,-5.989888E0,-4.0689993E0,-3.300216E0,-8.0507284E-1,2.0029845E0,-2.0390053E0,3.6421616E0,8.80414E0,-6.161698E0,-1.3268898E0,-3.89516E0,1.3084055E0,-5.526623E0,2.7765563E0,-3.0856693E0,1.2902808E0,-1.2176137E0,-3.071336E0,-4.427017E-1,5.4009275E0,5.264215E0,-2.618771E0,8.318681E0,1.1619393E0,5.224491E0,-4.6829462E-1,6.164024E0,-8.428663E0,-7.5817285E0,-9.9171793E-1,-1.54812E0,5.981551E0,-6.1494474E0,1.9269878E0,-4.3465796E0,1.9809924E0,-1.0586167E-1,8.235773E0,-2.691971E-1,-4.293574E0,7.9803605E0,-1.7111291E0,1.5634704E1,9.21632E0],"categories":[],"categories_nodes":[],"categories_segments":[],"categories_sizes":[],"default_left":[0,0,0,0,0,0,0,0,0,0,0,0,0,0,0,0,0,0,0,0,0,0,0,0,0,0,0,0,0,0,0,0,0,0,0,0,0,0,0,0,0,0,0,0,0,0,0,0,0,0,0,0,0,0,0,0,0,0,0,0,0,0,0,0,0,0,0,0,0,0,0,0,0,0,0,0,0,0,0,0,0,0,0,0,0,0,0,0,0,0,0,0,0,0,0,0,0,0,0,0,0,0,0,0,0,0,0,0,0,0,0,0,0,0,0,0,0,0,0],"id":3,"left_children":[1,3,5,7,9,11,13,15,17,19,21,23,25,27,29,31,33,35,37,39,41,43,45,47,49,51,53,55,57,59,61,63,65,67,69,71,73,75,77,79,81,83,85,87,89,91,93,95,97,99,101,103,105,107,109,-1,-1,-1,-1,111,113,115,117,-1,-1,-1,-1,-1,-1,-1,-1,-1,-1,-1,-1,-1,-1,-1,-1,-1,-1,-1,-1,-1,-1,-1,-1,-1,-1,-1,-1,-1,-1,-1,-1,-1,-1,-1,-1,-1,-1,-1,-1,-1,-1,-1,-1,-1,-1,-1,-1,-1,-1,-1,-1,-1,-1,-1,-1],"loss_changes":[8.639279E4,2.933044E4,1.1400898E4,1.0448973E4,9.88239E3,9.564824E3,4.1601914E3,5.1532026E3,7.729215E3,8.649299E3,3.64694E3,7.4494453E3,3.76933E3,9.4993884E2,2.4925156E3,3.543248E3,9.634017E3,1.7025491E3,3.7148242E3,5.5449766E3,2.9837065E3,3.6136335E3,1.7579707E3,5.925337E3,7.465875E3,3.0219468E3,1.767491E3,1.5153351E1,8.3001154E2,2.4547356E3,2.463754E3,1.1949131E3,2.1898408E3,4.8473545E3,2.2947632E3,1.0187363E3,1.4547223E3,1.2315938E3,2.5361074E3,4.200976E3,2.7426143E3,2.2778564E3,3.316856E3,2.7946633E3,1.1919661E3,1.6117544E3,1.781154E3,2.3341426E3,4.858065E3,3.4166838E3,4.2663594E3,8.05375E2,4.269459E3,2.0565674E3,1.7263851E3,0E0,0E0,0E0,0E0,1.2810625E3,1.6690747E2,2.114207E3,1.7088086E2,0E0,0E0,0E0,0E0,0E0,0E0,0E0,0E0,0E0,0E0,0E0,0E0,0E0,0E0,0E0,0E0,0E0,0E0,0E0,0E0,0E0,0E0,0E0,0E0,0E0,0E0,0E0,0E0,0E0,0E0,0E0,0E0,0E0,0E0,0E0,0E0,0E0,0E0,0E0,0E0,0E0,0E0,0E0,0E0,0E0,0E0,0E0,0E0,0E0,0E0,0E0,0E0,0E0,0E0,0E0,0E0],"parents":[2147483647,0,0,1,1,2,2,3,3,4,4,5,5,6,6,7,7,8,8,9,9,10,10,11,11,12,12,13,13,14,14,15,15,16,16,17,17,18,18,19,19,20,20,21,21,22,22,23,23,24,24,25,25,26,26,27,27,28,28,29,29,30,30,31,31,32,32,33,33,34,34,35,35,36,36,37,37,38,38,39,39,40,40,41,41,42,42,43,43,44,44,45,45,46,46,47,47,48,48,49,49,50,50,51,51,52,52,53,53,54,54,59,59,60,60,61,61,62,62],"right_children":[2,4,6,8,10,12,14,16,18,20,22,24,26,28,30,32,34,36,38,40,42,44,46,48,50,52,54,56,58,60,62,64,66,68,70,72,74,76,78,80,82,84,86,88,90,92,94,96,98,100,102,104,106,108,110,-1,-1,-1,-1,112,114,116,118,-1,-1,-1,-1,-1,-1,-1,-1,-1,-1,-1,-1,-1,-1,-1,-1,-1,-1,-1,-1,-1,-1,-1,-1,-1,-1,-1,-1,-1,-1,-1,-1,-1,-1,-1,-1,-1,-1,-1,-1,-1,-1,-1,-1,-1,-1,-1,-1,-1,-1,-1,-1,-1,-1,-1,-1],"split_conditions":[9.9E1,6.6E1,1.63E2,1.8782833E1,1.8868252E1,4.1999993E0,3.334916E0,1.7757117E2,1.5328561E1,7E-1,1.4618837E1,1.7130151E2,1.9373219E1,1.3E2,7.332156E1,4.3E1,3.427184E2,4.5E1,5.8E1,1.12E2,1.0357835E1,7.8E1,1.06E2,1.2768586E1,1.09E2,1.1E2,8.3E1,1.78E2,2.7245E0,1.37E2,1.4973576E1,9.796366E0,6.2E1,2.4696102E1,2.7E1,4.6E0,8.699793E0,2.9E1,1.7592705E2,1.22E2,9.2E1,1.2854639E1,5.5E1,8.39078E0,1.2849528E1,1.985556E1,2.4407872E2,1.5538843E2,5.4E1,2.4907881E2,1.62E2,1.1521406E1,6.4E0,2.4863468E1,8.703667E0,4.4425807E0,1.0585866E0,-6.0667233E0,2.297667E0,1.0990322E1,1.73E2,1.3797912E1,8.636999E0,3.860177E0,-4.1032114E0,-2.7089918E-1,-2.084762E0,2.558662E0,-1.7917719E0,4.7811337E0,-4.0596204E0,-1.4755607E0,-4.2749047E0,4.683454E0,-5.742046E-1,-5.989888E0,-4.0689993E0,-3.300216E0,-8.0507284E-1,2.0029845E0,-2.0390053E0,3.6421616E0,8.80414E0,-6.161698E0,-1.3268898E0,-3.89516E0,1.3084055E0,-5.526623E0,2.7765563E0,-3.0856693E0,1.2902808E0,-1.2176137E0,-3.071336E0,-4.427017E-1,5.4009275E0,5.264215E0,-2.618771E0,8.318681E0,1.1619393E0,5.224491E0,-4.6829462E-1,6.164024E0,-8.428663E0,-7.5817285E0,-9.9171793E-1,-1.54812E0,5.981551E0,-6.1494474E0,1.9269878E0,-4.3465796E0,1.9809924E0,-1.0586167E-1,8.235773E0,-2.691971E-1,-4.293574E0,7.9803605E0,-1.7111291E0,1.5634704E1,9.21632E0],"split_indices":[0,0,0,3,3,4,3,6,5,4,5,6,5,1,6,0,6,0,2,2,3,1,2,5,0,0,2,0,3,2,5,5,1,5,2,4,5,0,6,1,0,6,2,5,5,5,6,6,1,6,0,5,4,5,3,0,0,0,0,5,0,5,3,0,0,0,0,0,0,0,0,0,0,0,0,0,0,0,0,0,0,0,0,0,0,0,0,0,0,0,0,0,0,0,0,0,0,0,0,0,0,0,0,0,0,0,0,0,0,0,0,0,0,0,0,0,0,0,0],"split_type":[0,0,0,0,0,0,0,0,0,0,0,0,0,0,0,0,0,0,0,0,0,0,0,0,0,0,0,0,0,0,0,0,0,0,0,0,0,0,0,0,0,0,0,0,0,0,0,0,0,0,0,0,0,0,0,0,0,0,0,0,0,0,0,0,0,0,0,0,0,0,0,0,0,0,0,0,0,0,0,0,0,0,0,0,0,0,0,0,0,0,0,0,0,0,0,0,0,0,0,0,0,0,0,0,0,0,0,0,0,0,0,0,0,0,0,0,0,0,0],"sum_hessian":[2.337E3,1.785E3,5.52E2,1.019E3,7.66E2,5.04E2,4.8E1,4.7E2,5.49E2,4.47E2,3.19E2,4.3E2,7.4E1,5E0,4.3E1,2.97E2,1.73E2,1.5E2,3.99E2,3.05E2,1.42E2,8.2E1,2.37E2,2.54E2,1.76E2,4.2E1,3.2E1,2E0,3E0,1.3E1,3E1,5.6E1,2.41E2,1.3E2,4.3E1,5.6E1,9.4E1,2.11E2,1.88E2,2.48E2,5.7E1,5.8E1,8.4E1,5.5E1,2.7E1,2.11E2,2.6E1,6.3E1,1.91E2,4.2E1,1.34E2,1.4E1,2.8E1,1.7E1,1.5E1,1E0,1E0,2E0,1E0,1E1,3E0,1.5E1,1.5E1,1E0,5.5E1,1.11E2,1.3E2,1.01E2,2.9E1,2E0,4.1E1,3.9E1,1.7E1,4E0,9E1,4.4E1,1.67E2,1.37E2,5.1E1,2.23E2,2.5E1,4.5E1,1.2E1,1E1,4.8E1,1.2E1,7.2E1,3E0,5.2E1,2E1,7E0,1.52E2,5.9E1,2.1E1,5E0,6E1,3E0,8E0,1.83E2,1.3E1,2.9E1,1.33E2,1E0,1E0,1.3E1,1E1,1.8E1,1.4E1,3E0,5E0,1E1,2E0,8E0,2E0,1E0,1.3E1,2E0,7E0,8E0],"tree_param":{"num_deleted":"0","num_feature":"7","num_nodes":"119","size_leaf_vector":"1"}},{"base_weights":[5.467484E-2,-2.3322716E0,7.7635927E0,-4.796876E0,9.483397E-1,5.277117E0,1.3149209E1,-3.1432607E0,-8.5219965E0,-1.0505097E0,5.368603E0,9.402325E0,1.963734E0,2.0626196E1,1.0381065E1,-5.1208897E0,1.2378532E0,-5.057858E0,-1.0592307E1,2.5135133E0,-2.4941304E0,3.2071393E0,1.5728669E1,2.192851E1,6.429569E0,-1.0674012E1,3.8658593E0,2.1980377E1,-6.1105323E0,7.711879E0,2.2347233E1,4.8909473E0,-5.9772024E0,1.1621716E1,-1.459135E-1,-1.0961462E0,-8.445327E0,-9.2436905E0,-1.5587104E1,-1.9534159E0,6.016277E0,-2.0865397E0,-2.1033428E1,1.0889733E1,4.8617965E-1,1.979216E1,-3.5072489E0,-1.5884518E1,2.6387945E1,7.2432733E0,-1.2679139E1,1.962056E1,-1.3759001E1,1.9436193E1,2.3776755E0,1.8899296E1,1.0669861E1,-3.6495383E0,8.9979863E-1,9.442832E0,6.238376E0,2.7283096E1,7.1676736E0,3.963902E-1,6.306173E0,-4.567245E-1,-2.2294078E0,-4.5756125E0,4.737036E0,-3.8021631E0,2.6622382E-1,3.2765293E-1,-4.3087816E0,-2.8495884E0,1.765006E0,-2.368715E0,-4.154493E0,-5.4914494E0,-1.2576524E0,3.4110948E-1,-4.534755E0,3.0960224E0,1.1319754E-2,-8.5127354E-1,1.5549136E0,-1.6586415E0,-6.737564E0,-5.1421875E-1,4.07028E0,-6.2379823E0,4.126872E-1,7.4548334E-1,7.256154E0,7.146693E0,-4.976246E0,-1.2943531E0,-5.4909053E0,5.7861853E0,1.27848835E1,1.4446396E0,4.095331E0,1.8760529E-1,-5.846317E0,8.344233E0,4.8502007E-1,-6.8422856E0,-2.003442E0,1.6681055E0,7.079434E0,7.618513E0,3.2527682E-1,6.4847836E0,-1.0061294E0,-1.9012519E0,2.7580645E0,3.816491E0,9.235488E0,-2.7027206E0,4.6320553E0],"categories":[],"categories_nodes":[],"categories_segments":[],"categories_sizes":[],"default_left":[0,0,0,0,0,0,0,0,0,0,0,0,0,0,0,0,0,0,0,0,0,0,0,0,0,0,0,0,0,0,0,0,0,0,0,0,0,0,0,0,0,0,0,0,0,0,0,0,0,0,0,0,0,0,0,0,0,0,0,0,0,0,0,0,0,0,0,0,0,0,0,0,0,0,0,0,0,0,0,0,0,0,0,0,0,0,0,0,0,0,0,0,0,0,0,0,0,0,0,0,0,0,0,0,0,0,0,0,0,0,0,0,0,0,0,0,0,0,0],"id":4,"left_children":[1,3,5,7,9,11,13,15,17,19,21,23,25,27,29,31,33,35,37,39,41,43,45,47,49,51,53,55,57,59,61,63,65,67,69,71,73,75,77,79,81,83,85,87,89,91,93,95,97,99,101,103,105,107,109,111,-1,-1,-1,-1,113,115,117,-1,-1,-1,-1,-1,-1,-1,-1,-1,-1,-1,-1,-1,-1,-1,-1,-1,-1,-1,-1,-1,-1,-1,-1,-1,-1,-1,-1,-1,-1,-1,-1,-1,-1,-1,-1,-1,-1,-1,-1,-1,-1,-1,-1,-1,-1,-1,-1,-1,-1,-1,-1,-1,-1,-1,-1],"loss_changes":[4.3039117E4,1.4445091E4,7.335949E3,6.256326E3,6.782423E3,5.1755254E3,3.3872207E3,6.1406055E3,2.191213E3,2.7280256E3,5.3014604E3,6.1521113E3,5.1374424E3,1.7998066E3,3.947913E3,4.2129863E3,3.17721E3,1.5877437E3,1.1694512E3,2.4056821E3,2.804892E3,4.1546074E3,3.2741787E3,5.8151514E3,2.2375781E3,2.8867947E3,4.2405176E3,1.1696211E3,2.0195676E2,3.5504219E3,1.5277002E3,2.2177314E3,2.9037666E3,3.1533696E3,2.5485593E3,1.6414388E3,1.02179834E3,8.589346E2,1.1619951E3,2.7832783E3,2.2124287E3,2.0348105E3,5.2598145E1,1.7783213E3,2.8297832E3,2.526126E3,3.2549692E3,3.2959595E1,2.5197734E3,2.0033423E3,5.5569507E2,3.9757764E2,1.5135591E3,7.927881E2,5.033555E3,2.3697344E3,0E0,0E0,0E0,0E0,3.8489817E3,4.752334E2,1.0758575E3,0E0,0E0,0E0,0E0,0E0,0E0,0E0,0E0,0E0,0E0,0E0,0E0,0E0,0E0,0E0,0E0,0E0,0E0,0E0,0E0,0E0,0E0,0E0,0E0,0E0,0E0,0E0,0E0,0E0,0E0,0E0,0E0,0E0,0E0,0E0,0E0,0E0,0E0,0E0,0E0,0E0,0E0,0E0,0E0,0E0,0E0,0E0,0E0,0E0,0E0,0E0,0E0,0E0,0E0,0E0,0E0],"parents":[2147483647,0,0,1,1,2,2,3,3,4,4,5,5,6,6,7,7,8,8,9,9,10,10,11,11,12,12,13,13,14,14,15,15,16,16,17,17,18,18,19,19,20,20,21,21,22,22,23,23,24,24,25,25,26,26,27,27,28,28,29,29,30,30,31,31,32,32,33,33,34,34,35,35,36,36,37,37,38,38,39,39,40,40,41,41,42,42,43,43,44,44,45,45,46,46,47,47,48,48,49,49,50,50,51,51,52,52,53,53,54,54,55,55,60,60,61,61,62,62],"right_children":[2,4,6,8,10,12,14,16,18,20,22,24,26,28,30,32,34,36,38,40,42,44,46,48,50,52,54,56,58,60,62,64,66,68,70,72,74,76,78,80,82,84,86,88,90,92,94,96,98,100,102,104,106,108,110,112,-1,-1,-1,-1,114,116,118,-1,-1,-1,-1,-1,-1,-1,-1,-1,-1,-1,-1,-1,-1,-1,-1,-1,-1,-1,-1,-1,-1,-1,-1,-1,-1,-1,-1,-1,-1,-1,-1,-1,-1,-1,-1,-1,-1,-1,-1,-1,-1,-1,-1,-1,-1,-1,-1,-1,-1,-1,-1,-1,-1,-1,-1],"split_conditions":[9.9E1,6.6E1,1.37E2,2.0969807E1,2.1004405E2,8.6E1,1.3039754E1,1.6673466E2,1.7972418E1,6.2E1,1.13E2,5.3474164E0,5.645333E0,1.8E2,1.67E2,1.2219308E1,6.5620003E0,4E-1,2.9882166E1,5.4E1,3.91E1,1.5072783E1,1.32E2,3.8E1,2.22E1,8.7E1,1.1043261E1,1.2429127E1,1.81E2,6.2E1,2.134803E1,8.9E1,1.3684735E1,2.3369997E0,1.0041354E1,3.4443384E2,1.3E2,6.9E1,2.7553665E1,1.985556E1,7.7E1,1.26E2,6.9E1,7.5E1,3.6E1,5.3474164E0,1.5379206E1,1.03E2,1.07E2,1.21E2,1.1E2,1.04E2,1.8830942E2,7.6911674E0,6.501583E0,1.2245293E1,1.0669861E1,-3.6495383E0,8.9979863E-1,9.442832E0,1.4512064E1,3.391942E1,6.105751E0,3.963902E-1,6.306173E0,-4.567245E-1,-2.2294078E0,-4.5756125E0,4.737036E0,-3.8021631E0,2.6622382E-1,3.2765293E-1,-4.3087816E0,-2.8495884E0,1.765006E0,-2.368715E0,-4.154493E0,-5.4914494E0,-1.2576524E0,3.4110948E-1,-4.534755E0,3.0960224E0,1.1319754E-2,-8.5127354E-1,1.5549136E0,-1.6586415E0,-6.737564E0,-5.1421875E-1,4.07028E0,-6.2379823E0,4.126872E-1,7.4548334E-1,7.256154E0,7.146693E0,-4.976246E0,-1.2943531E0,-5.4909053E0,5.7861853E0,1.27848835E1,1.4446396E0,4.095331E0,1.8760529E-1,-5.846317E0,8.344233E0,4.8502007E-1,-6.8422856E0,-2.003442E0,1.6681055E0,7.079434E0,7.618513E0,3.2527682E-1,6.4847836E0,-1.0061294E0,-1.9012519E0,2.7580645E0,3.816491E0,9.235488E0,-2.7027206E0,4.6320553E0],"split_indices":[0,0,0,5,6,1,5,6,3,1,2,3,3,0,0,6,3,4,5,2,4,5,1,2,4,1,5,5,0,1,5,2,5,3,5,6,1,1,3,5,0,2,0,0,1,3,5,0,2,0,0,0,6,3,3,5,0,0,0,0,5,6,3,0,0,0,0,0,0,0,0,0,0,0,0,0,0,0,0,0,0,0,0,0,0,0,0,0,0,0,0,0,0,0,0,0,0,0,0,0,0,0,0,0,0,0,0,0,0,0,0,0,0,0,0,0,0,0,0],"split_type":[0,0,0,0,0,0,0,0,0,0,0,0,0,0,0,0,0,0,0,0,0,0,0,0,0,0,0,0,0,0,0,0,0,0,0,0,0,0,0,0,0,0,0,0,0,0,0,0,0,0,0,0,0,0,0,0,0,0,0,0,0,0,0,0,0,0,0,0,0,0,0,0,0,0,0,0,0,0,0,0,0,0,0,0,0,0,0,0,0,0,0,0,0,0,0,0,0,0,0,0,0,0,0,0,0,0,0,0,0,0,0,0,0,0,0,0,0,0,0],"sum_hessian":[2.337E3,1.785E3,5.52E2,1.019E3,7.66E2,3.79E2,1.73E2,7.07E2,3.12E2,5.28E2,2.38E2,1.68E2,2.11E2,4.5E1,1.28E2,4.87E2,2.2E2,1.18E2,1.94E2,1.52E2,3.76E2,1.98E2,4E1,3.1E1,1.37E2,2.7E1,1.84E2,4.3E1,2E0,1.06E2,2.2E1,3.8E1,4.49E2,2.5E1,1.95E2,5.5E1,6.3E1,1.55E2,3.9E1,6.7E1,8.5E1,3.69E2,7E0,5.1E1,1.47E2,3.3E1,7E0,3E0,2.8E1,1.32E2,5E0,2E0,2.5E1,1.5E1,1.69E2,3.7E1,6E0,1E0,1E0,5E0,1.01E2,1.6E1,6E0,3.2E1,6E0,1.11E2,3.38E2,3E0,2.2E1,1.4E1,1.81E2,4.8E1,7E0,5.9E1,4E0,1.22E2,3.3E1,3.1E1,8E0,5.5E1,1.2E1,4.9E1,3.6E1,3.35E2,3.4E1,1E0,6E0,9E0,4.2E1,5E0,1.42E2,7E0,2.6E1,2E0,5E0,1E0,2E0,2.1E1,7E0,9.7E1,3.5E1,2E0,3E0,1E0,1E0,1E1,1.5E1,4E0,1.1E1,8E0,1.61E2,3.3E1,4E0,1.9E1,8.2E1,4E0,1.2E1,2E0,4E0],"tree_param":{"num_deleted":"0","num_feature":"7","num_nodes":"119","size_leaf_vector":"1"}},{"base_weights":[5.8994524E-2,-2.516265E0,3.8577805E0,-6.001435E0,-1.2970556E0,7.402217E0,1.53352E0,-3.752132E0,-8.621084E0,-7.285618E-1,-7.3251243E0,9.202054E0,-5.0133853E0,1.9516348E0,-1.1443548E1,-4.898626E0,4.2858305E0,-1.3151609E1,-6.8274875E0,6.80889E-1,-2.8670402E0,-1.8641262E1,-4.7794037E0,5.7260375E0,1.2750456E1,-9.62727E0,1.604981E1,2.180762E0,-1.6297293E1,-1.6106874E1,2.671445E0,-7.1619086E0,4.6206343E-1,1.16726055E1,-2.3518214E0,-2.576252E0,-1.3573756E1,-6.0351334E0,-1.5019109E1,-1.0242424E1,1.1997997E0,3.3084776E0,-4.120606E0,-2.306433E0,-2.0577518E1,7.629414E0,-6.3991E0,5.0857406E0,1.1710107E1,7.5656147E0,1.7905537E1,-2.877451E0,-1.277061E1,5.5226555E0,-4.2337877E-1,1.3736312E1,1.8526984E0,-2.3667744E1,1.4192225E0,-2.9333467E0,-1.9155811E1,-2.3292742E0,2.5095572E0,4.3662076E0,-4.0402246E-1,1.079447E0,5.077814E0,-2.1848822E0,3.5390134E0,-1.8844792E0,7.251658E-1,-2.7275345E0,-4.4911137E0,2.0411675E0,-1.9720956E0,-4.859696E0,-6.6003114E-1,-1.7546234E0,-6.3997774E0,-6.407267E-2,1.4901216E0,4.870343E-1,6.860143E0,-1.3030621E0,6.1091304E0,-6.5704913E0,-2.6589744E0,2.2827911E-1,4.807436E0,5.0870667E0,-2.218178E0,2.1899278E0,-5.3650737E-1,7.564246E0,1.3428615E0,3.4938982E0,7.256133E0,-3.6775856E0,1.7072256E0,5.5424124E-1,-4.204187E0,7.4549537E0,-2.1226876E0,-4.8699178E-2,1.2399895E0,-7.8428493E0,-2.0651093E0,-8.1721E-1,1.4558601E0,-2.9219847E0,2.6229687E0,-6.3346114E0,3.5989952E-1],"categories":[],"categories_nodes":[],"categories_segments":[],"categories_sizes":[],"default_left":[0,0,0,0,0,0,0,0,0,0,0,0,0,0,0,0,0,0,0,0,0,0,0,0,0,0,0,0,0,0,0,0,0,0,0,0,0,0,0,0,0,0,0,0,0,0,0,0,0,0,0,0,0,0,0,0,0,0,0,0,0,0,0,0,0,0,0,0,0,0,0,0,0,0,0,0,0,0,0,0,0,0,0,0,0,0,0,0,0,0,0,0,0,0,0,0,0,0,0,0,0,0,0,0,0,0,0,0,0,0,0,0,0],"id":5,"left_children":[1,3,5,7,9,11,13,15,17,19,21,23,25,27,29,31,33,35,37,39,41,43,45,47,49,51,53,55,57,59,-1,61,63,65,67,69,71,73,75,77,79,81,83,-1,85,87,89,91,-1,93,95,97,99,-1,-1,101,103,105,107,109,111,-1,-1,-1,-1,-1,-1,-1,-1,-1,-1,-1,-1,-1,-1,-1,-1,-1,-1,-1,-1,-1,-1,-1,-1,-1,-1,-1,-1,-1,-1,-1,-1,-1,-1,-1,-1,-1,-1,-1,-1,-1,-1,-1,-1,-1,-1,-1,-1,-1,-1,-1,-1],"loss_changes":[2.2882035E4,5.915533E3,7.773741E3,2.0948027E3,3.5380986E3,8.403559E3,3.1259507E3,1.8272275E3,1.2591133E3,2.8532717E3,2.474793E3,3.9603105E3,4.8193066E3,2.356177E3,1.851468E3,2.090143E3,1.2532229E3,1.7039062E2,6.94728E2,3.2488447E3,2.9244058E3,1.8112793E2,1.5361115E3,3.3630586E3,4.167783E3,8.119321E2,3.9670215E2,2.0557852E3,9.476406E2,5.4628784E2,0E0,1.1966099E3,1.34506E3,4.481211E2,1.062668E3,7.06916E1,1.393164E2,8.1910034E2,1.15609375E2,1.1421238E3,2.9082756E3,2.0721206E3,1.7969312E3,0E0,7.523926E0,5.0677753E2,1.658898E3,2.524252E3,0E0,4.358069E3,2.8637227E3,1.1950771E3,5.16624E2,0E0,0E0,3.64524E3,2.4592505E3,2.7750488E1,5.5898773E1,4.0306976E2,5.0398438E2,0E0,0E0,0E0,0E0,0E0,0E0,0E0,0E0,0E0,0E0,0E0,0E0,0E0,0E0,0E0,0E0,0E0,0E0,0E0,0E0,0E0,0E0,0E0,0E0,0E0,0E0,0E0,0E0,0E0,0E0,0E0,0E0,0E0,0E0,0E0,0E0,0E0,0E0,0E0,0E0,0E0,0E0,0E0,0E0,0E0,0E0,0E0,0E0,0E0,0E0,0E0,0E0],"parents":[2147483647,0,0,1,1,2,2,3,3,4,4,5,5,6,6,7,7,8,8,9,9,10,10,11,11,12,12,13,13,14,14,15,15,16,16,17,17,18,18,19,19,20,20,21,21,22,22,23,23,24,24,25,25,26,26,27,27,28,28,29,29,31,31,32,32,33,33,34,34,35,35,36,36,37,37,38,38,39,39,40,40,41,41,42,42,44,44,45,45,46,46,47,47,49,49,50,50,51,51,52,52,55,55,56,56,57,57,58,58,59,59,60,60],"right_children":[2,4,6,8,10,12,14,16,18,20,22,24,26,28,30,32,34,36,38,40,42,44,46,48,50,52,54,56,58,60,-1,62,64,66,68,70,72,74,76,78,80,82,84,-1,86,88,90,92,-1,94,96,98,100,-1,-1,102,104,106,108,110,112,-1,-1,-1,-1,-1,-1,-1,-1,-1,-1,-1,-1,-1,-1,-1,-1,-1,-1,-1,-1,-1,-1,-1,-1,-1,-1,-1,-1,-1,-1,-1,-1,-1,-1,-1,-1,-1,-1,-1,-1,-1,-1,-1,-1,-1,-1,-1,-1,-1,-1,-1,-1],"split_conditions":[7.9E1,4.5E1,1.0257834E1,8E-1,1.42E1,3.5E0,3.1100002E1,8.1E1,2.9E1,2.008283E1,1.603075E1,2.1137427E2,1.58E2,3.5676456E2,2.4743248E1,1.7592705E2,9.4E1,1.6E1,3.65E1,1.8286667E0,1.3551501E1,5.5E1,1.8301584E1,3.1999998E0,4.8849163E0,9.2E1,1.64E2,9.693296E0,8.8E1,6.9E1,2.671445E0,7E-1,2.4E1,8.5E1,1.26E2,1.7E1,1.8E0,2.4E1,2.7364082E1,1.07E2,2.7726764E2,1.3084402E1,1.28E2,-2.306433E0,2.7438046E1,6.4E1,9.796366E0,1E-1,1.1710107E1,2.8049463E2,1.23E2,1.964558E1,1.3551501E1,5.5226555E0,-4.2337877E-1,3E-1,1.4809778E2,1.3972416E1,8.7E1,4.7E1,1.23E2,-2.3292742E0,2.5095572E0,4.3662076E0,-4.0402246E-1,1.079447E0,5.077814E0,-2.1848822E0,3.5390134E0,-1.8844792E0,7.251658E-1,-2.7275345E0,-4.4911137E0,2.0411675E0,-1.9720956E0,-4.859696E0,-6.6003114E-1,-1.7546234E0,-6.3997774E0,-6.407267E-2,1.4901216E0,4.870343E-1,6.860143E0,-1.3030621E0,6.1091304E0,-6.5704913E0,-2.6589744E0,2.2827911E-1,4.807436E0,5.0870667E0,-2.218178E0,2.1899278E0,-5.3650737E-1,7.564246E0,1.3428615E0,3.4938982E0,7.256133E0,-3.6775856E0,1.7072256E0,5.5424124E-1,-4.204187E0,7.4549537E0,-2.1226876E0,-4.8699178E-2,1.2399895E0,-7.8428493E0,-2.0651093E0,-8.1721E-1,1.4558601E0,-2.9219847E0,2.6229687E0,-6.3346114E0,3.5989952E-1],"split_indices":[0,0,3,4,4,4,4,1,0,3,3,6,0,6,3,6,1,1,4,3,5,1,3,4,3,0,2,5,2,1,0,4,1,2,2,0,4,2,3,2,6,5,1,0,5,1,5,4,0,6,0,5,5,0,0,4,6,3,0,2,0,0,0,0,0,0,0,0,0,0,0,0,0,0,0,0,0,0,0,0,0,0,0,0,0,0,0,0,0,0,0,0,0,0,0,0,0,0,0,0,0,0,0,0,0,0,0,0,0,0,0,0,0],"split_type":[0,0,0,0,0,0,0,0,0,0,0,0,0,0,0,0,0,0,0,0,0,0,0,0,0,0,0,0,0,0,0,0,0,0,0,0,0,0,0,0,0,0,0,0,0,0,0,0,0,0,0,0,0,0,0,0,0,0,0,0,0,0,0,0,0,0,0,0,0,0,0,0,0,0,0,0,0,0,0,0,0,0,0,0,0,0,0,0,0,0,0,0,0,0,0,0,0,0,0,0,0,0,0,0,0,0,0,0,0,0,0,0,0],"sum_hessian":[2.337E3,1.393E3,9.44E2,3.6E2,1.033E3,3.73E2,5.71E2,1.95E2,1.65E2,9.45E2,8.8E1,3.26E2,4.7E1,5.54E2,1.7E1,1.71E2,2.4E1,4.5E1,1.2E2,5.7E2,3.75E2,1.5E1,7.3E1,1.66E2,1.6E2,3.9E1,8E0,5.48E2,6E0,1.4E1,3E0,1.2E2,5.1E1,1.1E1,1.3E1,2E0,4.3E1,1.11E2,9E0,2.5E1,5.45E2,6.3E1,3.12E2,3E0,1.2E1,8E0,6.5E1,1.64E2,2E0,8.1E1,7.9E1,1.3E1,2.6E1,7E0,1E0,1.4E1,5.34E2,4E0,2E0,3E0,1.1E1,1.16E2,4E0,5E0,4.6E1,5E0,6E0,1E1,3E0,1E0,1E0,1.2E1,3.1E1,4E0,1.07E2,8E0,1E0,1.9E1,6E0,3.97E2,1.48E2,5.9E1,4E0,3.1E2,2E0,1E1,2E0,5E0,3E0,2E0,6.3E1,1.24E2,4E1,1.1E1,7E1,4.1E1,3.8E1,6E0,7E0,2E0,2.4E1,9E0,5E0,2.84E2,2.5E2,3E0,1E0,1E0,1E0,2E0,1E0,1E1,1E0],"tree_param":{"num_deleted":"0","num_feature":"7","num_nodes":"113","size_leaf_vector":"1"}},{"base_weights":[5.231829E-2,-1.2156341E0,4.147274E0,4.374711E-1,-2.948863E0,4.4721155E0,-1.0870337E1,1.9803591E0,-2.877795E0,-1.052107E0,-4.5028777E0,5.2060976E0,-1.6248242E0,-6.1158576E0,-6.928547E0,2.7307093E0,-5.2641997E0,-1.0755573E1,-2.1615844E0,1.0347306E1,-1.4993151E0,-5.510605E0,-1.0315955E0,4.647524E0,1.4488349E1,-5.878194E0,1.7469717E1,-1.3355431E1,-4.1805267E-1,1.8585632E0,1.1332569E1,-1.1244277E1,-1.4045784E0,-3.8590486E0,-1.5406016E1,-1.1648757E0,-7.9841847E0,-6.625021E0,1.5142473E1,-3.0612683E0,1.5279891E0,-5.132712E0,-1.8639278E1,8.667654E0,-2.6715572E0,9.383548E0,3.315351E0,2.964708E0,1.918437E1,1.0544326E0,-1.1115322E1,2.4349224E1,-6.5672684E-1,-1.7231042E0,-4.954612E0,-2.0157166E0,4.4122124E0,1.0122145E0,-3.189116E-1,5.989586E0,1.3009202E0,-4.1078725E0,1.1429844E0,8.499143E0,-1.17395E0,-1.361435E-1,-3.8365233E0,-5.966021E0,-1.8351802E0,1.4342265E0,-6.6619575E-1,-3.7758644E0,-3.8647562E-1,-5.61937E-1,-2.2753837E0,6.786285E0,-1.6409141E0,-4.7416344E0,-7.565999E-1,2.2702675E0,-2.5966293E-1,-2.2834277E0,-1.1132909E0,-1.6018072E0,-5.857136E0,3.5286027E-1,5.4394484E0,-2.3976114E0,7.133105E-1,8.8771715E0,2.5360594E0,-1.6098081E0,1.2898645E0,2.1912575E0,-2.444697E0,6.4943576E0,1.3602986E0,-3.5311983E0,1.6556731E0,-4.5495195E0,-1.0433966E0,7.774056E0,2.0098734E0,2.0951326E0,-3.5367348E0,1.5609422E0,3.059143E-1],"categories":[],"categories_nodes":[],"categories_segments":[],"categories_sizes":[],"default_left":[0,0,0,0,0,0,0,0,0,0,0,0,0,0,0,0,0,0,0,0,0,0,0,0,0,0,0,0,0,0,0,0,0,0,0,0,0,0,0,0,0,0,0,0,0,0,0,0,0,0,0,0,0,0,0,0,0,0,0,0,0,0,0,0,0,0,0,0,0,0,0,0,0,0,0,0,0,0,0,0,0,0,0,0,0,0,0,0,0,0,0,0,0,0,0,0,0,0,0,0,0,0,0,0,0,0,0],"id":6,"left_children":[1,3,5,7,9,11,13,15,17,19,21,23,25,-1,27,29,31,33,35,37,39,41,43,45,47,49,51,53,55,57,59,61,63,65,67,69,71,73,75,77,79,81,83,85,87,89,91,93,95,97,99,101,103,-1,-1,-1,105,-1,-1,-1,-1,-1,-1,-1,-1,-1,-1,-1,-1,-1,-1,-1,-1,-1,-1,-1,-1,-1,-1,-1,-1,-1,-1,-1,-1,-1,-1,-1,-1,-1,-1,-1,-1,-1,-1,-1,-1,-1,-1,-1,-1,-1,-1,-1,-1,-1,-1],"loss_changes":[1.2144426E4,5.1185547E3,2.746337E3,4.686001E3,2.5655571E3,2.4339326E3,3.088672E2,3.411848E3,1.6186167E3,2.0240906E3,1.6699092E3,2.4421191E3,4.894443E3,0E0,4.1283856E2,4.2326167E3,1.345976E3,7.102727E2,1.5460203E3,1.3210964E3,1.8015105E3,1.7449492E3,1.7569536E3,2.8585059E3,1.4042363E3,1.7907657E3,1.3877014E3,2.5404419E1,2.1225897E2,2.2882515E3,3.0540112E3,9.0000073E2,2.8708022E3,3.2866898E2,4.610315E2,1.4543857E3,1.1855662E3,4.032608E0,1.9735022E3,1.6851458E3,1.8858171E3,1.2474756E3,1.3394043E1,1.1130404E3,2.5442644E3,1.6291426E3,3.0904343E3,4.9357114E2,5.875547E2,1.3246228E3,8.132749E2,4.726465E1,4.225607E2,0E0,0E0,0E0,5.42717E0,0E0,0E0,0E0,0E0,0E0,0E0,0E0,0E0,0E0,0E0,0E0,0E0,0E0,0E0,0E0,0E0,0E0,0E0,0E0,0E0,0E0,0E0,0E0,0E0,0E0,0E0,0E0,0E0,0E0,0E0,0E0,0E0,0E0,0E0,0E0,0E0,0E0,0E0,0E0,0E0,0E0,0E0,0E0,0E0,0E0,0E0,0E0,0E0,0E0,0E0],"parents":[2147483647,0,0,1,1,2,2,3,3,4,4,5,5,6,6,7,7,8,8,9,9,10,10,11,11,12,12,14,14,15,15,16,16,17,17,18,18,19,19,20,20,21,21,22,22,23,23,24,24,25,25,26,26,27,27,28,28,29,29,30,30,31,31,32,32,33,33,34,34,35,35,36,36,37,37,38,38,39,39,40,40,41,41,42,42,43,43,44,44,45,45,46,46,47,47,48,48,49,49,50,50,51,51,52,52,56,56],"right_children":[2,4,6,8,10,12,14,16,18,20,22,24,26,-1,28,30,32,34,36,38,40,42,44,46,48,50,52,54,56,58,60,62,64,66,68,70,72,74,76,78,80,82,84,86,88,90,92,94,96,98,100,102,104,-1,-1,-1,106,-1,-1,-1,-1,-1,-1,-1,-1,-1,-1,-1,-1,-1,-1,-1,-1,-1,-1,-1,-1,-1,-1,-1,-1,-1,-1,-1,-1,-1,-1,-1,-1,-1,-1,-1,-1,-1,-1,-1,-1,-1,-1,-1,-1,-1,-1,-1,-1,-1,-1],"split_conditions":[9.9E1,1.8782833E1,2.22E1,9.0000004E-1,1.701738E1,2.4336637E1,1.03E2,1.23E2,1.0154214E1,1.9522417E1,8.2E1,1.68E2,1.53E2,-6.1158576E0,2.79E1,1.08E2,1.5328561E1,4.825916E0,1.07E2,5.7E1,1.5706557E2,3.4657175E2,5.4E1,7.2E1,7.332156E1,9.7E1,1.62E2,7E1,7.5E1,7.4E1,8.8995E0,1E-1,1.5459054E1,1.42E1,7E1,2.868158E1,1.9813087E1,4.6E1,8.5E1,1.9799498E1,1.830725E2,1.1489901E2,1.7E1,4.6E1,1.5617447E2,6.623881E0,2.1834179E1,1.57E2,1.7E2,2.4979176E1,2.8551426E1,2.9882166E1,1.83E2,-1.7231042E0,-4.954612E0,-2.0157166E0,1.17E2,1.0122145E0,-3.189116E-1,5.989586E0,1.3009202E0,-4.1078725E0,1.1429844E0,8.499143E0,-1.17395E0,-1.361435E-1,-3.8365233E0,-5.966021E0,-1.8351802E0,1.4342265E0,-6.6619575E-1,-3.7758644E0,-3.8647562E-1,-5.61937E-1,-2.2753837E0,6.786285E0,-1.6409141E0,-4.7416344E0,-7.565999E-1,2.2702675E0,-2.5966293E-1,-2.2834277E0,-1.1132909E0,-1.6018072E0,-5.857136E0,3.5286027E-1,5.4394484E0,-2.3976114E0,7.133105E-1,8.8771715E0,2.5360594E0,-1.6098081E0,1.2898645E0,2.1912575E0,-2.444697E0,6.4943576E0,1.3602986E0,-3.5311983E0,1.6556731E0,-4.5495195E0,-1.0433966E0,7.774056E0,2.0098734E0,2.0951326E0,-3.5367348E0,1.5609422E0,3.059143E-1],"split_indices":[0,3,4,4,5,5,0,1,6,3,2,0,0,0,4,1,5,6,1,0,6,6,1,1,6,1,1,1,1,1,3,4,5,4,0,6,5,0,0,3,6,6,0,1,6,6,6,2,1,5,5,5,0,0,0,0,0,0,0,0,0,0,0,0,0,0,0,0,0,0,0,0,0,0,0,0,0,0,0,0,0,0,0,0,0,0,0,0,0,0,0,0,0,0,0,0,0,0,0,0,0,0,0,0,0,0,0],"split_type":[0,0,0,0,0,0,0,0,0,0,0,0,0,0,0,0,0,0,0,0,0,0,0,0,0,0,0,0,0,0,0,0,0,0,0,0,0,0,0,0,0,0,0,0,0,0,0,0,0,0,0,0,0,0,0,0,0,0,0,0,0,0,0,0,0,0,0,0,0,0,0,0,0,0,0,0,0,0,0,0,0,0,0,0,0,0,0,0,0,0,0,0,0,0,0,0,0,0,0,0,0,0,0,0,0,0,0],"sum_hessian":[2.337E3,1.785E3,5.52E2,9.14E2,8.71E2,5.41E2,1.1E1,6.24E2,2.9E2,3.93E2,4.78E2,4.83E2,5.8E1,2E0,9E0,5.66E2,5.8E1,2.3E1,2.67E2,1.4E1,3.79E2,3.7E2,1.08E2,4.57E2,2.6E1,4.8E1,1E1,4E0,5E0,5.15E2,5.1E1,2.2E1,3.6E1,1E1,1.3E1,2.29E2,3.8E1,3E0,1.1E1,2.5E2,1.29E2,3.61E2,9E0,1.5E1,9.3E1,9.9E1,3.58E2,8E0,1.8E1,2.1E1,2.7E1,7E0,3E0,2E0,2E0,2E0,3E0,3.39E2,1.76E2,2.2E1,2.9E1,1.9E1,3E0,2E0,3.4E1,8E0,2E0,8E0,5E0,3.4E1,1.95E2,2.2E1,1.6E1,1E0,2E0,8E0,3E0,9E0,2.41E2,3.6E1,9.3E1,1.3E2,2.31E2,1E0,8E0,9E0,6E0,4.5E1,4.8E1,3E0,9.6E1,3.6E1,3.22E2,6E0,2E0,1.5E1,3E0,5E0,1.6E1,1.7E1,1E1,6E0,1E0,2E0,1E0,2E0,1E0],"tree_param":{"num_deleted":"0","num_feature":"7","num_nodes":"107","size_leaf_vector":"1"}},{"base_weights":[3.4858514E-2,-1.9145911E0,1.7071148E0,-1.544372E0,-7.968442E0,2.8510094E0,-1.295583E0,-2.50616E0,1.0030123E0,-3.3890405E0,-1.1404293E1,-1.12300746E-1,4.1040034E0,-6.3195086E0,7.556755E-1,-6.2718964E0,-1.907964E0,4.747784E0,-1.5217628E0,2.2127936E0,-8.391483E0,-1.5068182E0,-1.3003645E1,-3.971679E0,2.614087E0,6.6536913E0,2.3802445E0,-9.409439E0,9.61283E-1,1.1527417E1,-1.8838789E-1,-3.1504834E0,-8.027237E0,-1.4960443E0,-6.6358986E0,-3.908596E0,6.321399E0,-1.0016806E1,-6.2344617E-1,-1.7736192E0,1.2622231E1,-1.0147734E1,2.4294045E0,-9.218974E0,4.654003E0,-1.3815978E1,-1.0873235E0,-9.8971605E-1,-1.0070043E1,2.5802376E1,1.061127E0,4.5563903E0,1.3073014E1,8.613096E0,7.633311E-1,-3.166858E0,-1.5739898E1,4.532941E0,-1.0942656E0,2.4987583E1,-1.7570443E0,3.614988E-1,-4.6272583E0,1.6715719E0,-1.2171943E0,-3.1815088E0,-1.3002543E0,6.3502607E-3,-7.6314217E-1,-2.5400918E0,-8.42563E-1,3.3597503E0,-2.7075124E0,-9.6464086E-1,2.48069E0,-1.1568961E0,-5.215958E0,-1.0823382E0,4.8656982E-1,-1.6372994E0,1.8113629E0,4.777621E0,4.069073E-1,-3.8497062E0,-8.246846E-1,-5.980099E-1,-3.5505285E0,1.9249505E0,-9.502373E-2,-5.372742E-1,-4.401631E0,-4.3152583E-1,-5.776978E-2,-9.272784E-1,5.2558804E0,2.923427E0,-3.6315055E0,1.0154776E1,1.5809246E0,-5.4841068E-2,4.283997E0,3.585794E0,8.4525865E-1,6.525056E0,2.0936687E-1,4.578247E0,8.077965E-1,-4.569578E0,4.0655124E-1,-3.9370542E0,3.020544E-1,-5.023776E0,-1.1270237E0,-1.3077554E0,2.2838788E0,8.526197E0,-8.865143E-1,4.957878E0,-2.2968757E0,-4.4300082E-1,1.5072373E0],"categories":[],"categories_nodes":[],"categories_segments":[],"categories_sizes":[],"default_left":[0,0,0,0,0,0,0,0,0,0,0,0,0,0,0,0,0,0,0,0,0,0,0,0,0,0,0,0,0,0,0,0,0,0,0,0,0,0,0,0,0,0,0,0,0,0,0,0,0,0,0,0,0,0,0,0,0,0,0,0,0,0,0,0,0,0,0,0,0,0,0,0,0,0,0,0,0,0,0,0,0,0,0,0,0,0,0,0,0,0,0,0,0,0,0,0,0,0,0,0,0,0,0,0,0,0,0,0,0,0,0,0,0,0,0,0,0,0,0,0,0],"id":7,"left_children":[1,3,5,7,9,11,13,15,17,19,21,23,25,27,29,31,33,35,37,39,41,43,45,47,49,51,53,55,57,59,61,63,65,67,69,71,73,75,77,79,81,83,-1,85,87,89,91,93,95,97,99,101,103,105,107,109,111,-1,113,115,117,119,-1,-1,-1,-1,-1,-1,-1,-1,-1,-1,-1,-1,-1,-1,-1,-1,-1,-1,-1,-1,-1,-1,-1,-1,-1,-1,-1,-1,-1,-1,-1,-1,-1,-1,-1,-1,-1,-1,-1,-1,-1,-1,-1,-1,-1,-1,-1,-1,-1,-1,-1,-1,-1,-1,-1,-1,-1,-1,-1],"loss_changes":[7.625101E3,2.408245E3,4.3280684E3,2.4991084E3,9.3686743E2,3.3867266E3,3.5910444E3,1.6549937E3,2.6545427E3,8.032085E2,5.3443994E2,2.8724102E3,2.8013867E3,2.281256E3,2.5241348E3,5.28104E2,1.236491E3,1.5639722E3,1.2758031E3,6.0333545E2,5.165719E2,3.279844E2,2.7537842E2,2.0449491E3,5.7342983E3,3.413954E3,3.8633706E3,2.7559595E3,9.1810614E2,3.6201255E3,1.9241304E3,3.231768E2,5.633115E2,9.3796387E2,3.3363696E2,1.4924375E3,1.8096628E3,6.59369E2,1.031088E3,3.4950964E2,1.2725183E2,2.4280554E2,0E0,3.3117508E1,3.7076134E1,2.6198145E2,6.65447E-1,3.0488354E3,1.6098975E3,1.4738574E3,2.4855557E3,2.4870918E3,6.749829E3,3.068148E3,2.9174297E3,1.550791E3,3.590254E2,0E0,8.291781E2,1.0432764E3,1.3129563E3,1.910112E3,0E0,0E0,0E0,0E0,0E0,0E0,0E0,0E0,0E0,0E0,0E0,0E0,0E0,0E0,0E0,0E0,0E0,0E0,0E0,0E0,0E0,0E0,0E0,0E0,0E0,0E0,0E0,0E0,0E0,0E0,0E0,0E0,0E0,0E0,0E0,0E0,0E0,0E0,0E0,0E0,0E0,0E0,0E0,0E0,0E0,0E0,0E0,0E0,0E0,0E0,0E0,0E0,0E0,0E0,0E0,0E0,0E0,0E0,0E0],"parents":[2147483647,0,0,1,1,2,2,3,3,4,4,5,5,6,6,7,7,8,8,9,9,10,10,11,11,12,12,13,13,14,14,15,15,16,16,17,17,18,18,19,19,20,20,21,21,22,22,23,23,24,24,25,25,26,26,27,27,28,28,29,29,30,30,31,31,32,32,33,33,34,34,35,35,36,36,37,37,38,38,39,39,40,40,41,41,43,43,44,44,45,45,46,46,47,47,48,48,49,49,50,50,51,51,52,52,53,53,54,54,55,55,56,56,58,58,59,59,60,60,61,61],"right_children":[2,4,6,8,10,12,14,16,18,20,22,24,26,28,30,32,34,36,38,40,42,44,46,48,50,52,54,56,58,60,62,64,66,68,70,72,74,76,78,80,82,84,-1,86,88,90,92,94,96,98,100,102,104,106,108,110,112,-1,114,116,118,120,-1,-1,-1,-1,-1,-1,-1,-1,-1,-1,-1,-1,-1,-1,-1,-1,-1,-1,-1,-1,-1,-1,-1,-1,-1,-1,-1,-1,-1,-1,-1,-1,-1,-1,-1,-1,-1,-1,-1,-1,-1,-1,-1,-1,-1,-1,-1,-1,-1,-1,-1,-1,-1,-1,-1,-1,-1,-1,-1],"split_conditions":[6.8E1,3.4443384E2,2.023908E1,1.7757117E2,1.8359999E1,6.4E1,2.2909912E1,3.5E1,1E-1,3E-1,4.6599174E0,9.396989E1,9E1,8.8E1,4.7E1,4E1,1.57E1,3.8E1,6.197417E0,2E-1,2.4947416E1,2.56825E0,6.5E1,4.7537067E1,1.0641959E2,1.09E2,1.2620554E1,3E-1,6.1E1,2.6566168E1,3.2672174E2,1.139842E1,4.8E1,5.933742E1,7.6E1,2.5E1,3.11825E0,3.2953214E2,1.7643673E1,1.4830076E1,1.62745E1,5.4E1,2.4294045E0,4.4E1,6E1,2.6E1,6.6E1,3.765291E1,1.0446206E1,1.51745E1,1.5E2,6.9E1,1.164325E1,9.7E1,9.2E1,1.4458382E1,1.16E2,4.532941E0,9.9E1,8.5E1,1.3039754E1,1.8593141E2,-4.6272583E0,1.6715719E0,-1.2171943E0,-3.1815088E0,-1.3002543E0,6.3502607E-3,-7.6314217E-1,-2.5400918E0,-8.42563E-1,3.3597503E0,-2.7075124E0,-9.6464086E-1,2.48069E0,-1.1568961E0,-5.215958E0,-1.0823382E0,4.8656982E-1,-1.6372994E0,1.8113629E0,4.777621E0,4.069073E-1,-3.8497062E0,-8.246846E-1,-5.980099E-1,-3.5505285E0,1.9249505E0,-9.502373E-2,-5.372742E-1,-4.401631E0,-4.3152583E-1,-5.776978E-2,-9.272784E-1,5.2558804E0,2.923427E0,-3.6315055E0,1.0154776E1,1.5809246E0,-5.4841068E-2,4.283997E0,3.585794E0,8.4525865E-1,6.525056E0,2.0936687E-1,4.578247E0,8.077965E-1,-4.569578E0,4.0655124E-1,-3.9370542E0,3.020544E-1,-5.023776E0,-1.1270237E0,-1.3077554E0,2.2838788E0,8.526197E0,-8.865143E-1,4.957878E0,-2.2968757E0,-4.4300082E-1,1.5072373E0],"split_indices":[0,6,3,6,5,2,3,0,4,4,3,6,1,2,1,2,4,0,3,4,3,3,0,6,6,2,5,4,1,3,6,5,1,6,2,0,3,6,5,5,3,0,0,0,1,2,0,6,5,3,0,2,3,2,1,5,1,0,0,2,5,6,0,0,0,0,0,0,0,0,0,0,0,0,0,0,0,0,0,0,0,0,0,0,0,0,0,0,0,0,0,0,0,0,0,0,0,0,0,0,0,0,0,0,0,0,0,0,0,0,0,0,0,0,0,0,0,0,0,0,0],"split_type":[0,0,0,0,0,0,0,0,0,0,0,0,0,0,0,0,0,0,0,0,0,0,0,0,0,0,0,0,0,0,0,0,0,0,0,0,0,0,0,0,0,0,0,0,0,0,0,0,0,0,0,0,0,0,0,0,0,0,0,0,0,0,0,0,0,0,0,0,0,0,0,0,0,0,0,0,0,0,0,0,0,0,0,0,0,0,0,0,0,0,0,0,0,0,0,0,0,0,0,0,0,0,0,0,0,0,0,0,0,0,0,0,0,0,0,0,0,0,0,0,0],"sum_hessian":[2.337E3,1.079E3,1.258E3,1.018E3,6.1E1,9.11E2,3.47E2,7.39E2,2.79E2,2.7E1,3.4E1,2.71E2,6.4E2,1E2,2.47E2,1E2,6.39E2,1.12E2,1.67E2,1.3E1,1.4E1,5E0,2.9E1,1.12E2,1.59E2,2.57E2,3.83E2,7E1,3E1,1.9E1,2.28E2,3.7E1,6.3E1,5.89E2,5E1,1.7E1,9.5E1,1.5E1,1.52E2,1E1,3E0,1.3E1,1E0,2E0,3E0,2.7E1,2E0,7.6E1,3.6E1,9E0,1.5E2,1.95E2,6.2E1,7.8E1,3.05E2,3.6E1,3.4E1,3E0,2.7E1,9E0,1E1,2.21E2,7E0,3E0,3.4E1,3.6E1,2.7E1,2.41E2,3.48E2,3.3E1,1.7E1,4E0,1.3E1,1.6E1,7.9E1,9E0,6E0,6.5E1,8.7E1,7E0,3E0,2E0,1E0,9E0,4E0,1E0,1E0,2E0,1E0,2E0,2.5E1,1E0,1E0,6.9E1,7E0,3E0,3.3E1,6E0,3E0,1.38E2,1.2E1,3.6E1,1.59E2,3.6E1,2.6E1,3.6E1,4.2E1,1E1,2.95E2,1E1,2.6E1,3.1E1,3E0,2E1,7E0,8E0,1E0,2E0,8E0,1.59E2,6.2E1],"tree_param":{"num_deleted":"0","num_feature":"7","num_nodes":"121","size_leaf_vector":"1"}},{"base_weights":[3.1601347E-2,-1.5532581E0,1.0813934E0,-1.2684482E0,-5.9858465E0,3.5566618E0,4.4114852E-1,-2.3499222E0,3.98062E-1,-2.3227808E0,-8.660559E0,2.2906184E0,1.2390506E1,2.4073662E-1,9.980743E0,5.053524E-1,-3.341512E0,1.4469396E0,-7.228265E0,1.931712E0,-7.092791E0,-9.70431E0,1.0717807E0,7.2651205E0,-1.2318563E-1,6.8942733E0,2.1584282E1,1.9444772E0,-6.361406E-1,2.3625866E1,5.86462E0,4.925099E0,-3.9857721E0,-2.9208543E0,-8.54978E0,2.975621E0,-2.8896723E0,-4.5789883E-1,-8.34394E0,-1.22571E0,1.0131695E1,-8.989101E0,2.0649939E0,-5.8210464E0,-1.5529555E1,-7.2596943E-1,9.126919E-1,9.452547E0,-3.2813842E0,-6.8402925E0,2.9259484E0,1.0656214E1,-6.8974147E0,1.4517123E0,2.612395E1,4.841904E0,-7.2518396E-1,-3.5702713E0,2.6903507E-1,7.394234E-1,8.489988E0,2.3743744E0,1.5162433E1,1.698194E-1,2.8571692E0,3.47004E0,-1.6144646E0,-1.1019859E0,3.208063E-1,1.3255204E0,-2.9022093E0,6.841996E-1,4.553684E0,-9.763624E-1,3.890244E0,1.6059569E0,-1.8463538E0,-4.832791E0,-2.0609562E0,1.6906587E0,-1.3509347E0,3.822097E0,3.4587136E-1,-2.987663E0,1.0629731E-1,-2.254278E0,7.221205E-1,6.180828E-1,-5.24837E0,1.6545874E0,5.4568076E0,2.3263373E0,-5.1004667E0,3.11666E0,-2.8882132E0,2.3858836E0,1.6820467E-1,3.519516E-2,5.0010185E0,2.4618073E-1,8.653276E0,-3.3743808E0,1.6686355E0,-4.0421396E-1,3.684972E0,-1.218266E0,3.1795382E0,-1.9665159E0,2.3498736E-1,-3.6871263E-1,2.0004427E0,6.6260653E0,9.551514E-1],"categories":[],"categories_nodes":[],"categories_segments":[],"categories_sizes":[],"default_left":[0,0,0,0,0,0,0,0,0,0,0,0,0,0,0,0,0,0,0,0,0,0,0,0,0,0,0,0,0,0,0,0,0,0,0,0,0,0,0,0,0,0,0,0,0,0,0,0,0,0,0,0,0,0,0,0,0,0,0,0,0,0,0,0,0,0,0,0,0,0,0,0,0,0,0,0,0,0,0,0,0,0,0,0,0,0,0,0,0,0,0,0,0,0,0,0,0,0,0,0,0,0,0,0,0,0,0,0,0,0,0,0,0],"id":8,"left_children":[1,3,5,7,9,11,13,15,17,19,21,23,25,27,29,31,33,35,37,39,41,43,45,47,49,51,53,55,57,59,61,63,65,67,69,71,73,75,77,79,81,83,-1,85,87,-1,-1,89,91,93,95,97,-1,-1,99,101,103,105,107,-1,-1,109,111,-1,-1,-1,-1,-1,-1,-1,-1,-1,-1,-1,-1,-1,-1,-1,-1,-1,-1,-1,-1,-1,-1,-1,-1,-1,-1,-1,-1,-1,-1,-1,-1,-1,-1,-1,-1,-1,-1,-1,-1,-1,-1,-1,-1,-1,-1,-1,-1,-1,-1],"loss_changes":[3.8915806E3,1.1690054E3,2.2282136E3,1.5815414E3,5.2855164E2,3.203803E3,2.1369556E3,1.5079197E3,2.7781416E3,5.2105054E2,3.3546167E2,3.050793E3,1.6703125E3,1.6401234E3,1.1532388E3,2.7588794E3,8.4043164E2,2.0305344E3,3.134275E2,3.7488983E2,3.7991113E2,5.656096E2,3.488384E1,1.9458032E3,3.5428079E3,2.9432744E3,8.618164E2,2.8887214E3,1.9264906E3,4.2479297E2,5.8058E2,1.3978514E3,1.560093E3,1.1057944E3,4.6554883E2,1.8820371E3,5.0506555E2,2.6467093E2,3.0141675E2,2.727351E2,7.9000946E1,1.0319989E2,0E0,2.8279443E2,4.1625E2,0E0,0E0,2.2732153E3,2.4030422E3,2.69305E3,1.410473E3,1.3923889E3,0E0,0E0,6.646592E2,2.1368374E3,1.5948387E3,1.2317275E3,1.9528119E3,0E0,0E0,2.4027892E2,3.444049E2,0E0,0E0,0E0,0E0,0E0,0E0,0E0,0E0,0E0,0E0,0E0,0E0,0E0,0E0,0E0,0E0,0E0,0E0,0E0,0E0,0E0,0E0,0E0,0E0,0E0,0E0,0E0,0E0,0E0,0E0,0E0,0E0,0E0,0E0,0E0,0E0,0E0,0E0,0E0,0E0,0E0,0E0,0E0,0E0,0E0,0E0,0E0,0E0,0E0,0E0],"parents":[2147483647,0,0,1,1,2,2,3,3,4,4,5,5,6,6,7,7,8,8,9,9,10,10,11,11,12,12,13,13,14,14,15,15,16,16,17,17,18,18,19,19,20,20,21,21,22,22,23,23,24,24,25,25,26,26,27,27,28,28,29,29,30,30,31,31,32,32,33,33,34,34,35,35,36,36,37,37,38,38,39,39,40,40,41,41,43,43,44,44,47,47,48,48,49,49,50,50,51,51,54,54,55,55,56,56,57,57,58,58,61,61,62,62],"right_children":[2,4,6,8,10,12,14,16,18,20,22,24,26,28,30,32,34,36,38,40,42,44,46,48,50,52,54,56,58,60,62,64,66,68,70,72,74,76,78,80,82,84,-1,86,88,-1,-1,90,92,94,96,98,-1,-1,100,102,104,106,108,-1,-1,110,112,-1,-1,-1,-1,-1,-1,-1,-1,-1,-1,-1,-1,-1,-1,-1,-1,-1,-1,-1,-1,-1,-1,-1,-1,-1,-1,-1,-1,-1,-1,-1,-1,-1,-1,-1,-1,-1,-1,-1,-1,-1,-1,-1,-1,-1,-1,-1,-1,-1,-1],"split_conditions":[6.3E1,3.4443384E2,1.3281023E1,1.4388057E2,1.8359999E1,3.045847E2,1.67E2,1.4512064E1,2.7438046E1,3E-1,3.244996E1,7.223055E1,1.2429127E1,7E1,8.4E1,6.573381E1,1.15E2,2.7649498E1,2.1474168E0,2E-1,2.4947416E1,4.9E1,1.8E1,1.37E2,1.1489901E2,1.2245293E1,3.016166E0,1.6099499E1,6.6E1,1.5034041E1,1.57E2,5.3E1,8.699793E0,8.6E1,4.825916E0,2.6868254E1,1.09E2,5.7E1,5.645333E0,3.9E1,1.62745E1,1.7114204E1,2.0649939E0,4.4E1,3.2E1,-7.2596943E-1,9.126919E-1,1.06E2,1.6686607E1,5.1244993E0,1.4159409E2,8.4E1,-6.8974147E0,1.4517123E0,4.1E1,1.4003029E1,6.9E1,1.56E2,3.334916E0,7.394234E-1,8.489988E0,1E-1,1.49E2,1.698194E-1,2.8571692E0,3.47004E0,-1.6144646E0,-1.1019859E0,3.208063E-1,1.3255204E0,-2.9022093E0,6.841996E-1,4.553684E0,-9.763624E-1,3.890244E0,1.6059569E0,-1.8463538E0,-4.832791E0,-2.0609562E0,1.6906587E0,-1.3509347E0,3.822097E0,3.4587136E-1,-2.987663E0,1.0629731E-1,-2.254278E0,7.221205E-1,6.180828E-1,-5.24837E0,1.6545874E0,5.4568076E0,2.3263373E0,-5.1004667E0,3.11666E0,-2.8882132E0,2.3858836E0,1.6820467E-1,3.519516E-2,5.0010185E0,2.4618073E-1,8.653276E0,-3.3743808E0,1.6686355E0,-4.0421396E-1,3.684972E0,-1.218266E0,3.1795382E0,-1.9665159E0,2.3498736E-1,-3.6871263E-1,2.0004427E0,6.6260653E0,9.551514E-1],"split_indices":[0,6,5,6,5,6,0,5,5,4,5,6,5,1,2,6,2,3,3,4,3,0,0,1,6,5,3,3,2,5,2,0,5,2,6,3,1,1,3,2,3,5,0,0,1,0,0,2,6,3,6,0,0,0,1,5,1,0,3,0,0,4,1,0,0,0,0,0,0,0,0,0,0,0,0,0,0,0,0,0,0,0,0,0,0,0,0,0,0,0,0,0,0,0,0,0,0,0,0,0,0,0,0,0,0,0,0,0,0,0,0,0,0],"split_type":[0,0,0,0,0,0,0,0,0,0,0,0,0,0,0,0,0,0,0,0,0,0,0,0,0,0,0,0,0,0,0,0,0,0,0,0,0,0,0,0,0,0,0,0,0,0,0,0,0,0,0,0,0,0,0,0,0,0,0,0,0,0,0,0,0,0,0,0,0,0,0,0,0,0,0,0,0,0,0,0,0,0,0,0,0,0,0,0,0,0,0,0,0,0,0,0,0,0,0,0,0,0,0,0,0,0,0,0,0,0,0,0,0],"sum_hessian":[2.337E3,9.31E2,1.406E3,8.76E2,5.5E1,2.88E2,1.118E3,5.31E2,3.45E2,2.4E1,3.1E1,2.53E2,3.5E1,1.096E3,2.2E1,1.37E2,3.94E2,3.04E2,4.1E1,1.3E1,1.1E1,2.8E1,3E0,8.2E1,1.71E2,2.3E1,1.2E1,3.72E2,7.24E2,4E0,1.8E1,6.9E1,6.8E1,3.66E2,2.8E1,2.25E2,7.9E1,6E0,3.5E1,1E1,3E0,1E1,1E0,1.8E1,1E1,1E0,2E0,6.8E1,1.4E1,5.3E1,1.18E2,2.1E1,2E0,3E0,9E0,1.78E2,1.94E2,1.7E2,5.54E2,1E0,3E0,1.4E1,4E0,3.6E1,3.3E1,5E0,6.3E1,3.08E2,5.8E1,2E0,2.6E1,2.14E2,1.1E1,7.8E1,1E0,3E0,3E0,4E0,3.1E1,3E0,7E0,2E0,1E0,9E0,1E0,1.5E1,3E0,1E0,9E0,4.8E1,2E1,8E0,6E0,7E0,4.6E1,3.7E1,8.1E1,8E0,1.3E1,1E0,8E0,7E0,1.71E2,1.86E2,8E0,1.65E2,5E0,3.8E1,5.16E2,8E0,6E0,2E0,2E0],"tree_param":{"num_deleted":"0","num_feature":"7","num_nodes":"113","size_leaf_vector":"1"}},{"base_weights":[3.7996404E-2,-2.4292098E-1,3.5331006E0,-1.3924727E-2,-5.3447094E0,1.061355E1,2.1025107E0,-7.78313E-2,2.201486E1,-8.495115E0,1.230139E0,7.500676E-1,1.858075E1,4.047598E0,-4.6805944E0,-7.787809E-1,1.2668363E0,1.5703194E0,8.728949E0,4.336415E0,-1.0997978E1,1.8479713E1,-1.2780195E0,6.1408277E0,-6.318899E0,2.1884062E1,3.1998024E0,-2.2987127E0,5.7654886E0,-1.0412545E1,7.7299027E0,-1.3675955E-2,-2.4448185E0,1.44559825E-2,3.8582792E0,-5.593297E0,1.1514836E1,1.5776473E-1,-1.4266921E1,6.576503E0,1.2230748E0,3.7150052E0,-1.42249565E1,-2.0503693E0,1.4673753E1,2.4037905E1,1.1028439E1,1.4903772E0,-3.1568414E-1,1.4638702E1,-8.417829E0,9.113444E0,9.442476E-1,1.0827681E1,-1.4139963E1,-1.1884166E0,5.600871E0,1.0227242E-1,-1.4030356E0,-1.6799989E0,-5.4683787E-1,4.6120992E-1,-1.5144967E0,2.2486665E0,2.4621089E-1,6.3675427E0,-1.7787987E0,-2.5564468E0,4.724661E0,3.301418E0,-4.5521493E0,-3.160142E0,1.7307874E0,-5.1378596E-1,-4.7303324E0,-3.3788505E0,2.3024065E0,4.7879715E0,1.2364495E0,4.0928116E0,8.608276E0,5.6414475E0,-1.8451082E0,1.1743996E0,4.7320795E0,-8.9129525E-1,-6.9224386E0,1.3405896E-2,3.807613E0,-8.0848205E-1,5.233693E0,9.0012246E-1,3.7309906E0,-2.4135957E0,-7.2927775E0,2.0953557E0,-4.324151E0],"categories":[],"categories_nodes":[],"categories_segments":[],"categories_sizes":[],"default_left":[0,0,0,0,0,0,0,0,0,0,0,0,0,0,0,0,0,0,0,0,0,0,0,0,0,0,0,0,0,0,0,0,0,0,0,0,0,0,0,0,0,0,0,0,0,0,0,0,0,0,0,0,0,0,0,0,0,0,0,0,0,0,0,0,0,0,0,0,0,0,0,0,0,0,0,0,0,0,0,0,0,0,0,0,0,0,0,0,0,0,0,0,0,0,0,0,0],"id":9,"left_children":[1,3,5,7,9,11,13,15,17,19,21,23,25,27,29,31,33,-1,-1,35,37,39,41,43,-1,45,47,49,51,53,55,57,59,61,63,-1,65,67,69,-1,-1,71,73,75,77,79,81,-1,-1,83,85,87,89,91,93,95,-1,-1,-1,-1,-1,-1,-1,-1,-1,-1,-1,-1,-1,-1,-1,-1,-1,-1,-1,-1,-1,-1,-1,-1,-1,-1,-1,-1,-1,-1,-1,-1,-1,-1,-1,-1,-1,-1,-1,-1,-1],"loss_changes":[2.2963896E3,2.529274E3,1.7401692E3,2.92005E3,1.9368005E3,2.2650093E3,1.94523E3,1.950168E3,5.606958E2,2.0709717E3,1.3648221E3,1.7755901E3,7.429038E2,1.2561119E3,2.4279878E3,1.7335498E3,2.300984E3,0E0,0E0,2.0293059E3,1.9350278E3,1.08922485E2,1.8628883E3,8.688251E2,0E0,3.8856934E1,3.5300446E1,2.714276E3,1.4441116E3,1.9740403E3,1.095385E3,1.5442761E3,8.2978613E2,3.7009268E3,2.546052E3,0E0,1.6503444E3,1.8933529E3,1.106667E3,0E0,0E0,6.754663E2,1.2742969E2,7.1358105E2,1.56521E1,9.2569824E1,6.500123E2,0E0,0E0,2.344629E1,1.4482953E3,1.7194648E3,2.3289785E3,1.3059906E1,1.0439893E3,8.573071E2,0E0,0E0,0E0,0E0,0E0,0E0,0E0,0E0,0E0,0E0,0E0,0E0,0E0,0E0,0E0,0E0,0E0,0E0,0E0,0E0,0E0,0E0,0E0,0E0,0E0,0E0,0E0,0E0,0E0,0E0,0E0,0E0,0E0,0E0,0E0,0E0,0E0,0E0,0E0,0E0,0E0],"parents":[2147483647,0,0,1,1,2,2,3,3,4,4,5,5,6,6,7,7,8,8,9,9,10,10,11,11,12,12,13,13,14,14,15,15,16,16,19,19,20,20,21,21,22,22,23,23,25,25,26,26,27,27,28,28,29,29,30,30,31,31,32,32,33,33,34,34,36,36,37,37,38,38,41,41,42,42,43,43,44,44,45,45,46,46,49,49,50,50,51,51,52,52,53,53,54,54,55,55],"right_children":[2,4,6,8,10,12,14,16,18,20,22,24,26,28,30,32,34,-1,-1,36,38,40,42,44,-1,46,48,50,52,54,56,58,60,62,64,-1,66,68,70,-1,-1,72,74,76,78,80,82,-1,-1,84,86,88,90,92,94,96,-1,-1,-1,-1,-1,-1,-1,-1,-1,-1,-1,-1,-1,-1,-1,-1,-1,-1,-1,-1,-1,-1,-1,-1,-1,-1,-1,-1,-1,-1,-1,-1,-1,-1,-1,-1,-1,-1,-1,-1,-1],"split_conditions":[1.37E2,1.38E2,1.43E2,1.75E2,1.18619995E1,1.2E2,1.1197415E1,7.9E1,2.7245E0,3.6682498E0,1.2051582E1,1.17E2,1.8E0,4.6599174E0,1.56E2,2.0431387E1,8.8E1,1.5703194E0,8.728949E0,1.41E2,2.8113104E1,1.33E2,1.4000001E0,7E1,-6.318899E0,2E-1,1.43E2,7.7E1,8.378667E0,8.9E1,1.7643673E1,1.4700003E1,7.049501E0,7.4E1,1.2868248E1,-5.593297E0,1.5E2,1.5124078E1,5E1,6.576503E0,1.2230748E0,1.2770333E1,1.09E2,1.0874499E1,1.12E2,3.140185E2,1.38E2,1.4903772E0,-3.1568414E-1,6.1E1,4.257833E0,7.1E1,1.71E2,1.45E2,1.53E2,1.4124497E1,5.600871E0,1.0227242E-1,-1.4030356E0,-1.6799989E0,-5.4683787E-1,4.6120992E-1,-1.5144967E0,2.2486665E0,2.4621089E-1,6.3675427E0,-1.7787987E0,-2.5564468E0,4.724661E0,3.301418E0,-4.5521493E0,-3.160142E0,1.7307874E0,-5.1378596E-1,-4.7303324E0,-3.3788505E0,2.3024065E0,4.7879715E0,1.2364495E0,4.0928116E0,8.608276E0,5.6414475E0,-1.8451082E0,1.1743996E0,4.7320795E0,-8.9129525E-1,-6.9224386E0,1.3405896E-2,3.807613E0,-8.0848205E-1,5.233693E0,9.0012246E-1,3.7309906E0,-2.4135957E0,-7.2927775E0,2.0953557E0,-4.324151E0],"split_indices":[0,1,0,2,3,1,3,0,3,3,3,2,4,3,0,5,2,0,0,1,6,2,4,2,0,4,1,2,3,1,5,4,3,2,3,0,2,6,0,0,0,3,2,3,1,6,0,0,0,1,3,2,1,0,0,3,0,0,0,0,0,0,0,0,0,0,0,0,0,0,0,0,0,0,0,0,0,0,0,0,0,0,0,0,0,0,0,0,0,0,0,0,0,0,0,0,0],"split_type":[0,0,0,0,0,0,0,0,0,0,0,0,0,0,0,0,0,0,0,0,0,0,0,0,0,0,0,0,0,0,0,0,0,0,0,0,0,0,0,0,0,0,0,0,0,0,0,0,0,0,0,0,0,0,0,0,0,0,0,0,0,0,0,0,0,0,0,0,0,0,0,0,0,0,0,0,0,0,0,0,0,0,0,0,0,0,0,0,0,0,0,0,0,0,0,0,0],"sum_hessian":[2.337E3,2.164E3,1.73E2,2.072E3,9.2E1,2.8E1,1.45E2,2.067E3,5E0,6.2E1,3E1,1.3E1,1.5E1,1.13E2,3.2E1,1.359E3,7.08E2,2E0,3E0,1E1,5.2E1,3E0,2.7E1,1.1E1,2E0,1.2E1,3E0,2.4E1,8.9E1,2.2E1,1E1,9.32E2,4.27E2,4.78E2,2.3E2,2E0,8E0,1.2E1,4E1,2E0,1E0,2E1,7E0,6E0,5E0,9E0,3E0,2E0,1E0,6E0,1.8E1,5.2E1,3.7E1,3E0,1.9E1,6E0,4E0,8.67E2,6.5E1,6.9E1,3.58E2,3.68E2,1.1E2,1.04E2,1.26E2,5E0,3E0,8E0,4E0,1E0,3.9E1,2E0,1.8E1,1E0,6E0,3E0,3E0,4E0,1E0,4E0,5E0,2E0,1E0,1E0,5E0,1.4E1,4E0,1.5E1,3.7E1,3.1E1,6E0,1E0,2E0,1.3E1,6E0,4E0,2E0],"tree_param":{"num_deleted":"0","num_feature":"7","num_nodes":"97","size_leaf_vector":"1"}},{"base_weights":[3.9509688E-2,-7.616906E-1,1.1544322E0,1.2533011E0,-1.142906E0,1.9338989E0,-2.433258E0,4.7121296E0,-1.5818529E0,-7.9512973E0,-9.9625325E-1,1.3447785E0,6.164248E0,-1.071906E0,-5.8152E0,5.4442105E0,-4.155849E0,-4.905389E0,1.503019E0,-2.0240226E0,-5.865854E0,-6.949911E-1,-3.6539488E0,1.7099574E0,-8.285866E0,1.8905863E1,4.335931E0,-2.439588E0,4.0332837E0,-8.341689E0,2.0172448E0,3.1107552E0,1.1205849E1,8.690706E0,-6.9419255E0,-2.0303001E0,7.3292584E0,1.6944567E0,-4.3598084E0,-7.5825233E0,-5.55147E-1,-5.6840005E0,-6.391093E-1,1.2134948E0,9.0594015E0,-3.001197E0,-1.980122E1,1.204502E1,8.884888E0,-1.847597E0,6.331411E0,-1.3065717E0,-1.3750469E1,1.1419994E1,-1.7588294E0,-3.7131803E0,-1.2321688E1,4.7162495E0,-5.234577E0,-1.5616929E-2,3.2586741E0,4.394681E0,-9.859337E-1,6.86657E-2,6.8152337E0,-2.458858E0,4.7575264E0,2.487696E0,-1.461027E0,4.5423255E0,-1.336339E-1,-9.8804164E-1,4.496294E0,1.0553136E0,-3.4551349E0,1.0696658E0,-2.5743872E-1,-1.2533607E0,-3.5204163E0,1.804866E0,-5.8625925E-1,6.7720836E-1,-8.6971116E-1,8.4696037E-1,5.2691846E0,-7.5804167E0,-1.0811056E-1,-6.6154037E0,-6.075531E-1,4.108927E0,-1.7492981E-1,4.4203486E0,-1.9053267E0,2.5483382E0,-9.4217825E-1,5.329639E-1,-1.3284931E0,4.0808403E-1,-6.4597673E0,5.085708E0,-1.1648481E0,1.664768E0,-1.6755444E0,1.3518085E0,-1.6607727E0,-9.792633E-1,-3.944019E0,-1.0730082E0,2.1709716E0,-1.8026856E0,-4.3671802E-1],"categories":[],"categories_nodes":[],"categories_segments":[],"categories_sizes":[],"default_left":[0,0,0,0,0,0,0,0,0,0,0,0,0,0,0,0,0,0,0,0,0,0,0,0,0,0,0,0,0,0,0,0,0,0,0,0,0,0,0,0,0,0,0,0,0,0,0,0,0,0,0,0,0,0,0,0,0,0,0,0,0,0,0,0,0,0,0,0,0,0,0,0,0,0,0,0,0,0,0,0,0,0,0,0,0,0,0,0,0,0,0,0,0,0,0,0,0,0,0,0,0,0,0,0,0,0,0,0,0,0,0],"id":10,"left_children":[1,3,5,7,9,11,13,15,17,19,21,23,25,27,29,31,-1,33,35,37,-1,39,41,43,45,47,49,51,53,55,57,59,61,63,65,67,69,71,-1,73,75,77,79,81,83,85,87,89,-1,91,93,95,97,99,101,103,105,107,109,-1,-1,-1,-1,-1,-1,-1,-1,-1,-1,-1,-1,-1,-1,-1,-1,-1,-1,-1,-1,-1,-1,-1,-1,-1,-1,-1,-1,-1,-1,-1,-1,-1,-1,-1,-1,-1,-1,-1,-1,-1,-1,-1,-1,-1,-1,-1,-1,-1,-1,-1,-1],"loss_changes":[2.0893591E3,1.0468787E3,2.7396685E3,2.1354233E3,1.1353252E3,1.9954275E3,7.99469E2,1.4073411E3,1.2376948E3,1.610798E3,8.9580457E2,2.500622E3,2.201005E3,8.896065E2,1.0062567E3,1.2423716E3,0E0,1.6662892E3,1.3117964E3,8.1535E2,0E0,9.676398E2,6.9407947E2,2.4774363E3,1.5227982E3,5.25062E2,1.0852002E3,1.2635753E3,1.1752717E3,6.542627E2,2.7913266E2,1.6922046E3,1.3953948E3,9.443343E2,1.5884631E3,1.2129471E3,1.4643759E3,9.7763806E2,0E0,9.140121E2,1.2390726E3,5.706699E2,4.23117E2,2.7540215E3,2.2309639E3,1.1081503E3,2.7532837E2,1.9567334E2,0E0,1.7364811E3,1.3789128E3,8.933384E2,1.0876289E3,1.0817526E3,4.7840042E2,3.095913E2,1.0654224E2,2.3489188E2,2.9575958E0,0E0,0E0,0E0,0E0,0E0,0E0,0E0,0E0,0E0,0E0,0E0,0E0,0E0,0E0,0E0,0E0,0E0,0E0,0E0,0E0,0E0,0E0,0E0,0E0,0E0,0E0,0E0,0E0,0E0,0E0,0E0,0E0,0E0,0E0,0E0,0E0,0E0,0E0,0E0,0E0,0E0,0E0,0E0,0E0,0E0,0E0,0E0,0E0,0E0,0E0,0E0,0E0],"parents":[2147483647,0,0,1,1,2,2,3,3,4,4,5,5,6,6,7,7,8,8,9,9,10,10,11,11,12,12,13,13,14,14,15,15,17,17,18,18,19,19,21,21,22,22,23,23,24,24,25,25,26,26,27,27,28,28,29,29,30,30,31,31,32,32,33,33,34,34,35,35,36,36,37,37,39,39,40,40,41,41,42,42,43,43,44,44,45,45,46,46,47,47,49,49,50,50,51,51,52,52,53,53,54,54,55,55,56,56,57,57,58,58],"right_children":[2,4,6,8,10,12,14,16,18,20,22,24,26,28,30,32,-1,34,36,38,-1,40,42,44,46,48,50,52,54,56,58,60,62,64,66,68,70,72,-1,74,76,78,80,82,84,86,88,90,-1,92,94,96,98,100,102,104,106,108,110,-1,-1,-1,-1,-1,-1,-1,-1,-1,-1,-1,-1,-1,-1,-1,-1,-1,-1,-1,-1,-1,-1,-1,-1,-1,-1,-1,-1,-1,-1,-1,-1,-1,-1,-1,-1,-1,-1,-1,-1,-1,-1,-1,-1,-1,-1,-1,-1,-1,-1,-1,-1],"split_conditions":[1.5833685E2,1.257426E1,2.4336637E1,7.223055E1,1.2849528E1,1.25E2,2.1407831E1,2.720992E1,1.0641959E2,1.2768586E1,1.2900001E1,1.18E2,1.28E2,1.17E2,7.2999997E0,4.5395992E1,-4.155849E0,4.2E1,9.3E1,9.4E1,-5.865854E0,3.8349168E0,2.1603E1,1.09E2,1.16E2,1.13E2,4.770333E0,1.24E2,2.7231804E1,5E1,7.3E1,1.09E2,1.2287555E1,5.1E1,2.695783E1,5E1,1.16E2,9.9E1,-4.3598084E0,5E1,6.5620003E0,1.98E1,1.71E1,3.3775735E2,9.1E1,-3.1750172E-2,1.53E2,1.09E2,8.884888E0,1.210157E1,2.0746122E1,3.19281E2,6.1E1,1.37E2,1.28E2,2.5922499E1,1.6103879E2,3.5E1,1.03E2,-1.5616929E-2,3.2586741E0,4.394681E0,-9.859337E-1,6.86657E-2,6.8152337E0,-2.458858E0,4.7575264E0,2.487696E0,-1.461027E0,4.5423255E0,-1.336339E-1,-9.8804164E-1,4.496294E0,1.0553136E0,-3.4551349E0,1.0696658E0,-2.5743872E-1,-1.2533607E0,-3.5204163E0,1.804866E0,-5.8625925E-1,6.7720836E-1,-8.6971116E-1,8.4696037E-1,5.2691846E0,-7.5804167E0,-1.0811056E-1,-6.6154037E0,-6.075531E-1,4.108927E0,-1.7492981E-1,4.4203486E0,-1.9053267E0,2.5483382E0,-9.4217825E-1,5.329639E-1,-1.3284931E0,4.0808403E-1,-6.4597673E0,5.085708E0,-1.1648481E0,1.664768E0,-1.6755444E0,1.3518085E0,-1.6607727E0,-9.792633E-1,-3.944019E0,-1.0730082E0,2.1709716E0,-1.8026856E0,-4.3671802E-1],"split_indices":[6,5,5,6,5,0,3,3,6,5,4,0,0,2,4,6,0,1,0,1,0,3,5,0,2,2,3,1,5,0,1,2,5,2,3,2,0,0,0,0,3,5,4,6,2,3,1,2,0,5,5,6,2,1,2,5,6,2,1,0,0,0,0,0,0,0,0,0,0,0,0,0,0,0,0,0,0,0,0,0,0,0,0,0,0,0,0,0,0,0,0,0,0,0,0,0,0,0,0,0,0,0,0,0,0,0,0,0,0,0,0],"split_type":[0,0,0,0,0,0,0,0,0,0,0,0,0,0,0,0,0,0,0,0,0,0,0,0,0,0,0,0,0,0,0,0,0,0,0,0,0,0,0,0,0,0,0,0,0,0,0,0,0,0,0,0,0,0,0,0,0,0,0,0,0,0,0,0,0,0,0,0,0,0,0,0,0,0,0,0,0,0,0,0,0,0,0,0,0,0,0,0,0,0,0,0,0,0,0,0,0,0,0,0,0,0,0,0,0,0,0,0,0,0,0],"sum_hessian":[2.337E3,1.36E3,9.77E2,2.16E2,1.144E3,8.03E2,1.74E2,9.7E1,1.19E2,2.3E1,1.121E3,7.06E2,9.7E1,1.25E2,4.9E1,9.4E1,3E0,5.7E1,6.2E1,1.6E1,7E0,1.008E3,1.13E2,6.81E2,2.5E1,1.1E1,8.6E1,9.9E1,2.6E1,3.7E1,1.2E1,6.8E1,2.6E1,7E0,5E1,3.9E1,2.3E1,1.3E1,3E0,1.9E1,9.89E2,6.7E1,4.6E1,6.39E2,4.2E1,1.8E1,7E0,8E0,3E0,2.1E1,6.5E1,9.1E1,8E0,1.1E1,1.5E1,1.8E1,1.9E1,9E0,3E0,4.9E1,1.9E1,2.1E1,5E0,5E0,2E0,4.8E1,2E0,8E0,3.1E1,1.1E1,1.2E1,1E1,3E0,5E0,1.4E1,6.7E1,9.22E2,5.5E1,1.2E1,7E0,3.9E1,5.1E2,1.29E2,2.5E1,1.7E1,1E0,1.7E1,6E0,1E0,7E0,1E0,4E0,1.7E1,5.3E1,1.2E1,4.6E1,4.5E1,3E0,5E0,8E0,3E0,5E0,1E1,3E0,1.5E1,2E0,1.7E1,2E0,7E0,2E0,1E0],"tree_param":{"num_deleted":"0","num_feature":"7","num_nodes":"111","size_leaf_vector":"1"}},{"base_weights":[2.9322775E-2,-4.275031E-1,1.2394024E0,-3.2149714E-1,-5.312516E0,2.002449E0,-1.6625904E0,-5.2640504E-1,2.4157355E0,-1.2858451E1,7.391756E-2,2.4304817E0,-5.712893E0,5.837762E-1,-4.1286755E0,-4.130722E-1,-6.8955235E0,1.2530285E1,1.6512204E0,2.6183522E0,-2.0858688E1,-1.3691476E1,4.9279437E0,1.4145789E0,6.3967276E0,-1.2870359E1,2.14833E1,-2.7332513E0,1.0502426E1,-5.1020613E0,-3.2165203E0,-1.8553482E-1,-3.513673E0,-1.1518558E1,1.1204856E1,1.5100418E1,1.8555142E0,-2.955602E-1,6.3448977E0,-4.0805054E0,6.9879074E0,-6.9696918E0,7.558022E-2,-5.2420087E0,-1.2255403E0,8.340919E0,-8.2494545E0,1.8089951E0,-9.166664E0,1.7533705E1,4.787067E0,-2.6455978E1,-4.766671E0,7.5972023E0,3.4196436E-1,-3.84567E0,6.807043E0,2.0254023E0,2.0845531E1,5.4947025E-1,-4.933265E0,-8.61958E-2,3.531792E0,-1.8562899E0,-3.8587892E-1,-5.397727E0,-5.852033E-1,5.258296E0,-2.8814736E-1,9.6176606E-1,5.181774E0,7.3279934E0,-2.801571E-1,-1.1799941E-1,5.773364E0,-1.6514684E0,-1.8475914E-1,2.5239534E0,4.068146E-1,4.2844553E0,1.0803092E-1,-2.9508476E0,-5.2340126E-1,7.527579E-1,-1.1256909E0,8.3245116E-1,-5.5408936E0,6.7597027E0,-1.4918953E0,-3.6995277E-1,2.2550187E0,-4.0042663E0,-9.495458E0,4.7978985E-1,-1.9474317E0,-1.4652476E0,2.7175107E0,5.327591E0,-9.3252385E-1,3.524382E0,-1.5625832E0,5.446236E-1,8.065901E0,1.6457323E0,-1.4806234E0,-3.259413E0,-9.6542424E-1],"categories":[],"categories_nodes":[],"categories_segments":[],"categories_sizes":[],"default_left":[0,0,0,0,0,0,0,0,0,0,0,0,0,0,0,0,0,0,0,0,0,0,0,0,0,0,0,0,0,0,0,0,0,0,0,0,0,0,0,0,0,0,0,0,0,0,0,0,0,0,0,0,0,0,0,0,0,0,0,0,0,0,0,0,0,0,0,0,0,0,0,0,0,0,0,0,0,0,0,0,0,0,0,0,0,0,0,0,0,0,0,0,0,0,0,0,0,0,0,0,0,0,0,0,0,0,0],"id":11,"left_children":[1,3,5,7,9,11,13,15,17,19,21,23,25,27,29,31,33,35,37,39,41,43,45,47,49,51,53,55,57,-1,59,61,63,65,67,69,-1,71,73,75,77,-1,-1,-1,-1,79,81,83,85,87,89,91,93,-1,-1,95,97,99,101,103,105,-1,-1,-1,-1,-1,-1,-1,-1,-1,-1,-1,-1,-1,-1,-1,-1,-1,-1,-1,-1,-1,-1,-1,-1,-1,-1,-1,-1,-1,-1,-1,-1,-1,-1,-1,-1,-1,-1,-1,-1,-1,-1,-1,-1,-1,-1],"loss_changes":[1.2929663E3,8.775855E2,1.4227312E3,9.3401624E2,1.4641948E3,1.6915138E3,7.4473413E2,1.114545E3,8.763057E2,1.911887E3,1.5374574E3,1.9330833E3,5.532205E3,2.3646367E3,6.9709937E2,1.073123E3,2.3883882E3,3.7067993E1,9.978694E2,2.0414035E2,5.0693848E2,1.4659961E2,8.3336816E2,1.6233467E3,1.672887E3,2.295953E3,4.3993213E2,5.992689E2,1.535997E3,0E0,3.970907E2,1.7305276E3,6.114656E2,1.3276079E3,4.7834918E2,7.38103E1,0E0,1.2536589E3,2.789035E3,1.1414726E1,2.0699005E1,0E0,0E0,0E0,0E0,6.586087E2,2.412381E1,1.4579867E3,1.6065319E3,1.4620859E3,1.4389606E3,1.2237305E2,1.7507907E2,0E0,0E0,7.008768E2,7.067414E2,8.3485297E2,8.7084814E2,5.685754E2,3.9232428E2,0E0,0E0,0E0,0E0,0E0,0E0,0E0,0E0,0E0,0E0,0E0,0E0,0E0,0E0,0E0,0E0,0E0,0E0,0E0,0E0,0E0,0E0,0E0,0E0,0E0,0E0,0E0,0E0,0E0,0E0,0E0,0E0,0E0,0E0,0E0,0E0,0E0,0E0,0E0,0E0,0E0,0E0,0E0,0E0,0E0,0E0],"parents":[2147483647,0,0,1,1,2,2,3,3,4,4,5,5,6,6,7,7,8,8,9,9,10,10,11,11,12,12,13,13,14,14,15,15,16,16,17,17,18,18,19,19,20,20,21,21,22,22,23,23,24,24,25,25,26,26,27,27,28,28,30,30,31,31,32,32,33,33,34,34,35,35,37,37,38,38,39,39,40,40,45,45,46,46,47,47,48,48,49,49,50,50,51,51,52,52,55,55,56,56,57,57,58,58,59,59,60,60],"right_children":[2,4,6,8,10,12,14,16,18,20,22,24,26,28,30,32,34,36,38,40,42,44,46,48,50,52,54,56,58,-1,60,62,64,66,68,70,-1,72,74,76,78,-1,-1,-1,-1,80,82,84,86,88,90,92,94,-1,-1,96,98,100,102,104,106,-1,-1,-1,-1,-1,-1,-1,-1,-1,-1,-1,-1,-1,-1,-1,-1,-1,-1,-1,-1,-1,-1,-1,-1,-1,-1,-1,-1,-1,-1,-1,-1,-1,-1,-1,-1,-1,-1,-1,-1,-1,-1,-1,-1,-1,-1],"split_conditions":[2.2033093E2,1.62E2,2.4336637E1,1.32E2,1.4689588E1,3.5751974E2,5E-1,1.27E2,1.0182337E1,1.1119281E1,6.5620003E0,1.1E2,9.1E1,1E-1,6E-1,1.23E2,8.4E0,8.48075E0,1.872E1,8.8E1,1.2770333E1,1.58E2,1.2664083E1,1.06E2,1.15E2,1E-1,8.553666E0,1.48E2,8E1,-5.1020613E0,5.5E1,1.21E2,1.18619995E1,1.3409916E1,1.22E1,9.4E1,1.8555142E0,1.33E2,8.4E1,5.7E1,1.7E2,-6.9696918E0,7.558022E-2,-5.2420087E0,-1.2255403E0,1.48E2,1.59E2,1.25E2,7.7E1,2.4482834E1,4.770333E0,8.5E1,7.920334E0,7.5972023E0,3.4196436E-1,1.53E2,1.11E2,5.8E1,3.6E1,2.7757376E1,6.7E1,-8.61958E-2,3.531792E0,-1.8562899E0,-3.8587892E-1,-5.397727E0,-5.852033E-1,5.258296E0,-2.8814736E-1,9.6176606E-1,5.181774E0,7.3279934E0,-2.801571E-1,-1.1799941E-1,5.773364E0,-1.6514684E0,-1.8475914E-1,2.5239534E0,4.068146E-1,4.2844553E0,1.0803092E-1,-2.9508476E0,-5.2340126E-1,7.527579E-1,-1.1256909E0,8.3245116E-1,-5.5408936E0,6.7597027E0,-1.4918953E0,-3.6995277E-1,2.2550187E0,-4.0042663E0,-9.495458E0,4.7978985E-1,-1.9474317E0,-1.4652476E0,2.7175107E0,5.327591E0,-9.3252385E-1,3.524382E0,-1.5625832E0,5.446236E-1,8.065901E0,1.6457323E0,-1.4806234E0,-3.259413E0,-9.6542424E-1],"split_indices":[6,1,5,0,5,6,4,0,5,5,3,0,2,4,4,1,4,3,5,0,3,0,3,0,0,4,3,2,2,0,2,1,3,3,4,1,0,0,2,0,0,0,0,0,0,2,0,2,2,3,3,0,3,0,0,0,1,1,0,5,2,0,0,0,0,0,0,0,0,0,0,0,0,0,0,0,0,0,0,0,0,0,0,0,0,0,0,0,0,0,0,0,0,0,0,0,0,0,0,0,0,0,0,0,0,0,0],"split_type":[0,0,0,0,0,0,0,0,0,0,0,0,0,0,0,0,0,0,0,0,0,0,0,0,0,0,0,0,0,0,0,0,0,0,0,0,0,0,0,0,0,0,0,0,0,0,0,0,0,0,0,0,0,0,0,0,0,0,0,0,0,0,0,0,0,0,0,0,0,0,0,0,0,0,0,0,0,0,0,0,0,0,0,0,0,0,0,0,0,0,0,0,0,0,0,0,0,0,0,0,0,0,0,0,0,0,0],"sum_hessian":[2.337E3,1.697E3,6.4E2,1.662E3,3.5E1,5.07E2,1.33E2,1.547E3,1.15E2,1.4E1,2.1E1,4.81E2,2.6E1,7E1,6.3E1,1.521E3,2.6E1,7E0,1.08E2,5E0,9E0,5E0,1.6E1,3.84E2,9.7E1,2.1E1,5E0,5.3E1,1.7E1,3E0,6E1,1.418E3,1.03E2,2.1E1,5E0,4E0,3E0,7.7E1,3.1E1,2E0,3E0,8E0,1E0,3E0,2E0,1.3E1,3E0,3.71E2,1.3E1,1.1E1,8.6E1,7E0,1.4E1,4E0,1E0,4.8E1,5E0,1E1,7E0,1.9E1,4.1E1,1.407E3,1.1E1,4.6E1,5.7E1,1.2E1,9E0,3E0,2E0,1E0,3E0,1E0,7.6E1,2.1E1,1E1,1E0,1E0,2E0,1E0,7E0,6E0,2E0,1E0,3.3E2,4.1E1,6E0,7E0,9E0,2E0,2.7E1,5.9E1,3E0,4E0,3E0,1.1E1,4.5E1,3E0,2E0,3E0,4E0,6E0,2E0,5E0,1E1,9E0,8E0,3.3E1],"tree_param":{"num_deleted":"0","num_feature":"7","num_nodes":"107","size_leaf_vector":"1"}},{"base_weights":[2.5507838E-2,1.7638005E0,-2.7833512E-1,3.0033956E0,-5.513908E0,-3.4600844E0,-5.7871368E-2,-7.42568E-1,5.263022E0,3.0767105E0,-9.178797E0,-5.391977E0,4.037879E0,5.8046165E0,-1.765655E-1,-8.272223E-2,-5.6108055E0,6.079032E0,-1.1460625E1,-6.401603E0,7.9669986E0,1.200618E0,-1.0513742E1,-8.109074E0,1.8209275E0,9.85499E0,-4.0547595E0,-1.0326732E0,1.3079126E1,-5.9508108E-2,-4.707429E0,-4.9415165E-1,6.7144628E0,5.1020117E0,2.3858412E1,-1.9675753E1,3.7272224E0,-6.208092E-1,-2.4151146E0,1.1088461E1,-1.215916E0,9.28793E-1,-3.2848397E-1,-5.940823E0,-1.3740413E1,-4.748459E0,-1.1089424E1,8.467241E0,-7.010477E0,1.256262E1,-6.065613E0,-1.0817255E1,1.2174545E1,6.1203876E0,-1.2527313E1,2.0029509E1,1.8874602E0,-7.0261908E0,1.9557782E-2,-7.5420146E0,-9.737781E-1,-1.8943483E0,2.4142452E-1,6.2728596E0,1.2576967E0,8.80826E0,-3.0241826E0,-1.5704499E-1,-7.0204535E0,1.9053956E0,-6.2175983E-1,3.6693652E0,2.9196167E-1,2.802015E0,-3.161814E0,-4.782005E0,-6.170397E-1,-1.7593647E0,2.9566233E0,-1.6328276E0,-5.9283724E0,7.474807E-1,4.050623E0,1.7929614E0,-3.4512708E0,1.2573323E0,6.1006207E0,-2.7602348E0,3.0709077E-2,-5.7495947E0,-9.1723025E-2,4.348807E0,7.815171E-1,-1.0798495E0,3.7935765E0,1.7424912E0,-4.792934E0,8.503268E0,1.314901E0,-2.1217463E0,5.753461E0,2.8036144E0,-3.931922E0,-3.916251E-1,1.3163668E-1,-4.0369267E0,-1.7565038E0,2.6373954E0,-7.393153E-1],"categories":[],"categories_nodes":[],"categories_segments":[],"categories_sizes":[],"default_left":[0,0,0,0,0,0,0,0,0,0,0,0,0,0,0,0,0,0,0,0,0,0,0,0,0,0,0,0,0,0,0,0,0,0,0,0,0,0,0,0,0,0,0,0,0,0,0,0,0,0,0,0,0,0,0,0,0,0,0,0,0,0,0,0,0,0,0,0,0,0,0,0,0,0,0,0,0,0,0,0,0,0,0,0,0,0,0,0,0,0,0,0,0,0,0,0,0,0,0,0,0,0,0,0,0,0,0,0,0],"id":12,"left_children":[1,3,5,7,9,11,13,15,17,19,21,23,25,27,29,31,-1,33,35,37,39,41,43,45,47,49,51,53,55,57,59,61,-1,63,65,67,69,-1,-1,71,-1,-1,-1,73,75,77,79,81,83,85,87,89,91,93,95,97,99,101,103,105,107,-1,-1,-1,-1,-1,-1,-1,-1,-1,-1,-1,-1,-1,-1,-1,-1,-1,-1,-1,-1,-1,-1,-1,-1,-1,-1,-1,-1,-1,-1,-1,-1,-1,-1,-1,-1,-1,-1,-1,-1,-1,-1,-1,-1,-1,-1,-1,-1],"loss_changes":[1.2353478E3,3.1560117E3,1.3964076E3,2.5263225E3,1.6339069E3,1.8903706E3,1.2973801E3,1.3376053E3,2.6079492E3,7.926285E2,5.1143774E2,2.0333765E3,1.3110055E3,1.85381E3,9.6870776E2,1.0277305E3,0E0,2.9702788E3,1.196267E3,2.6198257E1,4.5766357E2,2.5144518E1,3.9054028E2,6.985283E2,1.7615518E3,7.659137E2,1.4487023E3,1.7211093E3,1.3623494E3,9.817111E2,4.7949005E2,8.291263E2,0E0,2.3569287E3,1.9767065E3,4.158899E2,7.403977E1,0E0,0E0,9.2130005E1,0E0,0E0,0E0,1.1524875E3,4.29802E2,6.60869E2,1.8021514E3,4.7782617E2,8.274421E2,8.257512E2,5.895478E1,7.83897E2,5.109839E1,8.699889E2,5.987317E2,1.3068262E3,1.3750308E3,2.1133381E3,9.798676E2,1.8063062E2,3.273393E2,0E0,0E0,0E0,0E0,0E0,0E0,0E0,0E0,0E0,0E0,0E0,0E0,0E0,0E0,0E0,0E0,0E0,0E0,0E0,0E0,0E0,0E0,0E0,0E0,0E0,0E0,0E0,0E0,0E0,0E0,0E0,0E0,0E0,0E0,0E0,0E0,0E0,0E0,0E0,0E0,0E0,0E0,0E0,0E0,0E0,0E0,0E0,0E0],"parents":[2147483647,0,0,1,1,2,2,3,3,4,4,5,5,6,6,7,7,8,8,9,9,10,10,11,11,12,12,13,13,14,14,15,15,17,17,18,18,19,19,20,20,21,21,22,22,23,23,24,24,25,25,26,26,27,27,28,28,29,29,30,30,31,31,33,33,34,34,35,35,36,36,39,39,43,43,44,44,45,45,46,46,47,47,48,48,49,49,50,50,51,51,52,52,53,53,54,54,55,55,56,56,57,57,58,58,59,59,60,60],"right_children":[2,4,6,8,10,12,14,16,18,20,22,24,26,28,30,32,-1,34,36,38,40,42,44,46,48,50,52,54,56,58,60,62,-1,64,66,68,70,-1,-1,72,-1,-1,-1,74,76,78,80,82,84,86,88,90,92,94,96,98,100,102,104,106,108,-1,-1,-1,-1,-1,-1,-1,-1,-1,-1,-1,-1,-1,-1,-1,-1,-1,-1,-1,-1,-1,-1,-1,-1,-1,-1,-1,-1,-1,-1,-1,-1,-1,-1,-1,-1,-1,-1,-1,-1,-1,-1,-1,-1,-1,-1,-1,-1],"split_conditions":[6.5620003E0,1.7E0,8.153667E0,3.334916E0,6.2E1,1.31E2,8.48075E0,3.5676456E2,1.62E2,5.4E1,4.4E1,1.24E2,1.37E2,8.3E1,3.5300003E1,2.08E2,-5.6108055E0,3.5472473E2,1.63E2,3.9E1,3.2953214E2,7E1,4.4E0,6.7E1,1.27E2,1.9917469E1,2.9974466E2,5.8E1,1.11E2,8.636999E0,2.3132626E1,-9.63E-1,6.7144628E0,5.8065805E0,3.5925992E2,8.8E1,1.72E2,-6.208092E-1,-2.4151146E0,9.4E1,-1.215916E0,9.28793E-1,-3.2848397E-1,2.4566214E1,2.3933907E1,1.1E2,7.9E1,5.073384E1,1.6686607E1,1.3797912E1,8E1,1.61E2,1.49E2,8.378667E0,2.0775936E1,1.7072504E1,1.38E2,6.9E1,5E1,4E1,2.3933907E1,-1.8943483E0,2.4142452E-1,6.2728596E0,1.2576967E0,8.80826E0,-3.0241826E0,-1.5704499E-1,-7.0204535E0,1.9053956E0,-6.2175983E-1,3.6693652E0,2.9196167E-1,2.802015E0,-3.161814E0,-4.782005E0,-6.170397E-1,-1.7593647E0,2.9566233E0,-1.6328276E0,-5.9283724E0,7.474807E-1,4.050623E0,1.7929614E0,-3.4512708E0,1.2573323E0,6.1006207E0,-2.7602348E0,3.0709077E-2,-5.7495947E0,-9.1723025E-2,4.348807E0,7.815171E-1,-1.0798495E0,3.7935765E0,1.7424912E0,-4.792934E0,8.503268E0,1.314901E0,-2.1217463E0,5.753461E0,2.8036144E0,-3.931922E0,-3.916251E-1,1.3163668E-1,-4.0369267E0,-1.7565038E0,2.6373954E0,-7.393153E-1],"split_indices":[3,4,3,3,2,0,3,6,1,0,0,2,1,0,4,2,0,6,0,0,6,1,4,2,1,5,6,0,2,3,5,3,0,6,6,0,0,0,0,0,0,0,0,6,5,1,0,6,6,5,1,1,0,3,6,5,1,0,0,2,5,0,0,0,0,0,0,0,0,0,0,0,0,0,0,0,0,0,0,0,0,0,0,0,0,0,0,0,0,0,0,0,0,0,0,0,0,0,0,0,0,0,0,0,0,0,0,0,0],"split_type":[0,0,0,0,0,0,0,0,0,0,0,0,0,0,0,0,0,0,0,0,0,0,0,0,0,0,0,0,0,0,0,0,0,0,0,0,0,0,0,0,0,0,0,0,0,0,0,0,0,0,0,0,0,0,0,0,0,0,0,0,0,0,0,0,0,0,0,0,0,0,0,0,0,0,0,0,0,0,0,0,0,0,0,0,0,0,0,0,0,0,0,0,0,0,0,0,0,0,0,0,0,0,0,0,0,0,0,0,0],"sum_hessian":[2.337E3,3.47E2,1.99E3,2.97E2,5E1,1.28E2,1.862E3,1.12E2,1.85E2,1.5E1,3.5E1,1.02E2,2.6E1,3.6E1,1.826E3,1.09E2,3E0,1.77E2,8E0,5E0,1E1,4E0,3.1E1,7.4E1,2.8E1,1.5E1,1.1E1,1.9E1,1.7E1,1.781E3,4.5E1,1.08E2,1E0,1.69E2,8E0,5E0,3E0,2E0,3E0,8E0,2E0,2E0,2E0,1.4E1,1.7E1,3.6E1,3.8E1,1.6E1,1.2E1,1.3E1,2E0,8E0,3E0,1.2E1,7E0,1E1,7E0,1.9E1,1.762E3,2.5E1,2E1,1.9E1,8.9E1,8E0,1.61E2,7E0,1E0,1E0,4E0,2E0,1E0,7E0,1E0,3E0,1.1E1,1.4E1,3E0,3.4E1,2E0,2.4E1,1.4E1,8E0,8E0,3E0,9E0,7E0,6E0,1E0,1E0,4E0,4E0,2E0,1E0,5E0,7E0,1E0,6E0,6E0,4E0,5E0,2E0,5E0,1.4E1,4.23E2,1.339E3,4E0,2.1E1,2E0,1.8E1],"tree_param":{"num_deleted":"0","num_feature":"7","num_nodes":"109","size_leaf_vector":"1"}},{"base_weights":[2.2108598E-2,-8.60108E-1,4.295686E-1,-5.344327E-1,-6.5379233E0,3.1172514E0,6.7350805E-2,-7.809306E-1,6.152246E0,-8.208494E0,-4.1100097E0,-4.010586E0,4.5321794E0,1.6349505E0,-3.5562336E-1,-6.6534066E-1,-1.1732973E1,-4.526814E0,9.762835E0,-8.509735E0,1.5667107E0,1.5099602E0,-5.913683E0,-7.2637887E0,4.9623327E0,1.41033745E1,1.021038E0,-2.7124212E0,3.275227E-1,-9.224073E-1,3.2003798E0,-5.90614E0,-8.4557056E-1,1.9616426E0,-1.0260824E1,1.1133003E1,-3.7671968E-1,-1.33583E0,-1.3778845E1,1.3860999E1,-3.282378E0,4.6058726E0,-3.5113983E0,-2.0375776E-1,-8.252843E0,4.2344413E0,-1.4071514E1,1.4513151E1,3.8272579E0,-3.434389E0,2.4228176E1,2.3743284E0,-3.637497E0,-5.3637094E0,-2.2381885E-1,1.3014057E0,-6.653289E-1,-1.8209167E-1,-2.8793876E0,5.3509207E0,2.2214226E-1,8.286541E-1,-8.906643E-1,-9.2005086E-1,-4.2103615E0,4.760115E0,1.8697395E0,-1.9733838E0,3.9265268E0,-5.1525164E0,-8.0779845E-1,9.098092E0,6.488288E-1,-1.8322035E0,1.3801901E0,1.6650136E0,-1.7248536E-2,-3.3880693E-1,-1.5986286E0,-1.8972355E0,8.6711466E-1,-3.7846775E0,-1.4178871E0,1.776431E0,1.2906761E-1,-5.050995E0,-8.664162E-1,7.215574E0,2.397244E0,3.7002356E0,8.5550284E-1,-2.524642E0,3.2206547E0,6.0493016E-1,9.085898E0,5.276582E0,5.179225E-1,2.5946915E0,-2.0626323E0,-2.3759177E0,-2.6126653E-1,2.558892E-1,-3.5850582E0,-6.6258006E0,4.3802133E-1,2.1120502E-2,-1.6661819E0],"categories":[],"categories_nodes":[],"categories_segments":[],"categories_sizes":[],"default_left":[0,0,0,0,0,0,0,0,0,0,0,0,0,0,0,0,0,0,0,0,0,0,0,0,0,0,0,0,0,0,0,0,0,0,0,0,0,0,0,0,0,0,0,0,0,0,0,0,0,0,0,0,0,0,0,0,0,0,0,0,0,0,0,0,0,0,0,0,0,0,0,0,0,0,0,0,0,0,0,0,0,0,0,0,0,0,0,0,0,0,0,0,0,0,0,0,0,0,0,0,0,0,0,0,0,0,0],"id":13,"left_children":[1,3,5,7,9,11,13,15,17,-1,19,21,23,25,27,29,31,33,35,37,39,41,43,45,47,49,51,53,55,57,59,-1,61,-1,63,65,-1,67,69,71,73,75,77,79,81,83,85,87,89,91,93,95,97,99,101,103,105,-1,-1,-1,-1,-1,-1,-1,-1,-1,-1,-1,-1,-1,-1,-1,-1,-1,-1,-1,-1,-1,-1,-1,-1,-1,-1,-1,-1,-1,-1,-1,-1,-1,-1,-1,-1,-1,-1,-1,-1,-1,-1,-1,-1,-1,-1,-1,-1,-1,-1],"loss_changes":[8.408056E2,1.3630088E3,1.5574324E3,1.1585808E3,1.9098713E3,1.9343982E3,9.3615094E2,8.479726E2,1.0081367E3,0E0,9.3744476E2,3.451258E2,8.428235E2,2.2819563E3,1.7912495E3,6.6876306E2,5.895541E2,5.1124634E2,3.008285E2,7.753956E2,1.0589707E3,1.5608421E2,3.1887268E2,5.292457E2,1.6139521E3,2.5691382E3,1.8179851E3,1.6482999E3,8.35319E2,1.715479E3,1.4989285E3,0E0,3.8842083E1,0E0,9.269861E1,2.9549878E2,0E0,8.422309E2,4.0556567E2,8.9752423E2,3.1759787E2,2.6737244E1,1.1298073E1,1.6977715E2,2.0192798E2,1.6705528E1,7.506995E1,8.0324585E2,1.1184073E3,5.138334E2,1.1499888E3,2.167888E3,2.6453533E3,1.382633E3,1.6516718E3,1.6501448E3,1.5397788E3,0E0,0E0,0E0,0E0,0E0,0E0,0E0,0E0,0E0,0E0,0E0,0E0,0E0,0E0,0E0,0E0,0E0,0E0,0E0,0E0,0E0,0E0,0E0,0E0,0E0,0E0,0E0,0E0,0E0,0E0,0E0,0E0,0E0,0E0,0E0,0E0,0E0,0E0,0E0,0E0,0E0,0E0,0E0,0E0,0E0,0E0,0E0,0E0,0E0,0E0],"parents":[2147483647,0,0,1,1,2,2,3,3,4,4,5,5,6,6,7,7,8,8,10,10,11,11,12,12,13,13,14,14,15,15,16,16,17,17,18,18,19,19,20,20,21,21,22,22,23,23,24,24,25,25,26,26,27,27,28,28,29,29,30,30,32,32,34,34,35,35,37,37,38,38,39,39,40,40,41,41,42,42,43,43,44,44,45,45,46,46,47,47,48,48,49,49,50,50,51,51,52,52,53,53,54,54,55,55,56,56],"right_children":[2,4,6,8,10,12,14,16,18,-1,20,22,24,26,28,30,32,34,36,38,40,42,44,46,48,50,52,54,56,58,60,-1,62,-1,64,66,-1,68,70,72,74,76,78,80,82,84,86,88,90,92,94,96,98,100,102,104,106,-1,-1,-1,-1,-1,-1,-1,-1,-1,-1,-1,-1,-1,-1,-1,-1,-1,-1,-1,-1,-1,-1,-1,-1,-1,-1,-1,-1,-1,-1,-1,-1,-1,-1,-1,-1,-1,-1,-1,-1,-1,-1,-1,-1,-1,-1,-1,-1,-1,-1],"split_conditions":[5.7E1,9.9E1,5.1E1,1.24E2,1.4486903E1,3.9E1,6.9E1,1.19E2,7.9828324E0,-8.208494E0,1.16E2,6.1E1,2.8E1,1.2219308E1,7.9E1,9.9E1,1.6412E1,4.2E1,1.5000001E1,7.920334E0,9.7969536E1,2.2764082E1,1.1524501E1,2.3E1,3.5E1,1.7114204E1,2.0431387E1,7.3E1,1.2868248E1,9.2E1,1E2,-5.90614E0,1.2E2,1.9616426E0,7E1,4.8E1,-3.7671968E-1,7.297417E0,1.4388057E2,1.2E2,2.4696102E1,5E1,3.8E1,2.5E1,7.751278E1,4.5E1,4.6E1,1.4445333E1,1.1966954E1,8.3E1,6.4E1,5.4E1,9.534918E0,2.2764082E1,1.26E2,5.2E1,1.32E2,-1.8209167E-1,-2.8793876E0,5.3509207E0,2.2214226E-1,8.286541E-1,-8.906643E-1,-9.2005086E-1,-4.2103615E0,4.760115E0,1.8697395E0,-1.9733838E0,3.9265268E0,-5.1525164E0,-8.0779845E-1,9.098092E0,6.488288E-1,-1.8322035E0,1.3801901E0,1.6650136E0,-1.7248536E-2,-3.3880693E-1,-1.5986286E0,-1.8972355E0,8.6711466E-1,-3.7846775E0,-1.4178871E0,1.776431E0,1.2906761E-1,-5.050995E0,-8.664162E-1,7.215574E0,2.397244E0,3.7002356E0,8.5550284E-1,-2.524642E0,3.2206547E0,6.0493016E-1,9.085898E0,5.276582E0,5.179225E-1,2.5946915E0,-2.0626323E0,-2.3759177E0,-2.6126653E-1,2.558892E-1,-3.5850582E0,-6.6258006E0,4.3802133E-1,2.1120502E-2,-1.6661819E0],"split_indices":[2,1,1,0,6,0,2,0,3,0,1,2,1,6,2,0,3,2,4,3,6,3,3,1,1,5,5,0,3,0,0,0,0,0,1,2,0,3,6,1,5,1,0,0,6,0,0,3,5,1,0,1,3,3,1,1,2,0,0,0,0,0,0,0,0,0,0,0,0,0,0,0,0,0,0,0,0,0,0,0,0,0,0,0,0,0,0,0,0,0,0,0,0,0,0,0,0,0,0,0,0,0,0,0,0,0,0],"split_type":[0,0,0,0,0,0,0,0,0,0,0,0,0,0,0,0,0,0,0,0,0,0,0,0,0,0,0,0,0,0,0,0,0,0,0,0,0,0,0,0,0,0,0,0,0,0,0,0,0,0,0,0,0,0,0,0,0,0,0,0,0,0,0,0,0,0,0,0,0,0,0,0,0,0,0,0,0,0,0,0,0,0,0,0,0,0,0,0,0,0,0,0,0,0,0,0,0,0,0,0,0,0,0,0,0,0,0],"sum_hessian":[2.337E3,7.38E2,1.599E3,6.99E2,3.9E1,1.89E2,1.41E3,6.75E2,2.4E1,3E0,3.6E1,3.1E1,1.58E2,2.99E2,1.111E3,6.69E2,6E0,6E0,1.8E1,2E1,1.6E1,8E0,2.3E1,5E0,1.53E2,1.3E1,2.86E2,2.49E2,8.62E2,6.28E2,4.1E1,3E0,3E0,2E0,4E0,1.6E1,2E0,9E0,1.1E1,4E0,1.2E1,5E0,3E0,7E0,1.6E1,2E0,3E0,1.5E1,1.38E2,5E0,8E0,2.22E2,6.4E1,1.2E2,1.29E2,4.35E2,4.27E2,6.07E2,2.1E1,5E0,3.6E1,1E0,2E0,2E0,2E0,7E0,9E0,7E0,2E0,8E0,3E0,1E0,3E0,9E0,3E0,4E0,1E0,2E0,1E0,2E0,5E0,6E0,1E1,1E0,1E0,2E0,1E0,5E0,1E1,1.3E1,1.25E2,4E0,1E0,2E0,6E0,8E0,2.14E2,1.3E1,5.1E1,7.6E1,4.4E1,1.19E2,1E1,2E0,4.33E2,3.72E2,5.5E1],"tree_param":{"num_deleted":"0","num_feature":"7","num_nodes":"107","size_leaf_vector":"1"}},{"base_weights":[1.6868908E-2,5.6684613E0,7.0593244E-4,2.704531E-1,-1.1065547E0,1.844328E-2,3.4765456E0,-9.047552E0,-7.422575E-1,3.2497248E-1,-2.3231063E0,4.726942E0,-5.0525727E0,2.5958724E0,-1.2120649E1,-2.2211468E0,1.7755008E0,6.9814336E-1,-1.429166E0,-8.088781E0,-1.0662955E0,6.4147553E0,-1.1500496E-1,-6.2323112E0,2.9235556E0,2.2162087E0,-3.060908E0,-5.2133913E0,-7.2284613E0,1.2599909E1,-2.4844587E0,1.787811E1,7.1834755E-1,1.7859244E-1,3.732609E0,-1.0547203E0,-1.3911051E-2,-4.9240842E-1,-3.3732302E0,8.981698E-1,-8.631572E-1,4.0467896E0,1.5081437E0,5.191701E0,-5.559717E-1,-2.0817082E0,-7.1322244E-1,-1.3792563E-2,1.3293927E0,-1.3670495E0,-1.0359192E-2,-8.787377E-1,-2.3811464E0,4.4601483E0,5.29636E-1,-7.927722E-1,3.78803E0,2.5048602E-1,5.9037066E0,-9.517327E-1,5.79676E-1],"categories":[],"categories_nodes":[],"categories_segments":[],"categories_sizes":[],"default_left":[0,0,0,0,0,0,0,0,0,0,0,0,0,0,0,0,0,0,0,0,0,0,0,0,0,0,0,0,0,0,0,0,0,0,0,0,0,0,0,0,0,0,0,0,0,0,0,0,0,0,0,0,0,0,0,0,0,0,0,0,0],"id":14,"left_children":[1,-1,3,5,7,9,11,13,15,17,19,21,23,25,27,29,31,33,35,37,39,41,43,45,47,-1,49,-1,51,53,55,57,59,-1,-1,-1,-1,-1,-1,-1,-1,-1,-1,-1,-1,-1,-1,-1,-1,-1,-1,-1,-1,-1,-1,-1,-1,-1,-1,-1,-1],"loss_changes":[7.1336816E2,0E0,6.9831537E2,1.5189135E3,1.318225E3,1.2525167E3,1.4849583E3,7.4709155E2,1.6385538E3,1.0110353E3,1.4551401E3,9.8141406E2,1.8759598E2,1.5813406E2,2.8590088E2,1.1123131E3,2.761894E3,1.5299766E3,7.817527E2,7.1391675E2,1.2364961E3,8.05874E2,1.0010703E3,2.7092224E1,1.3635689E1,0E0,1.3424334E1,0E0,7.220215E0,9.657483E1,6.8565E2,2.9050122E2,7.334799E2,0E0,0E0,0E0,0E0,0E0,0E0,0E0,0E0,0E0,0E0,0E0,0E0,0E0,0E0,0E0,0E0,0E0,0E0,0E0,0E0,0E0,0E0,0E0,0E0,0E0,0E0,0E0,0E0],"parents":[2147483647,0,0,2,2,3,3,4,4,5,5,6,6,7,7,8,8,9,9,10,10,11,11,12,12,13,13,14,14,15,15,16,16,17,17,18,18,19,19,20,20,21,21,22,22,23,23,24,24,26,26,28,28,29,29,30,30,31,31,32,32],"right_children":[2,-1,4,6,8,10,12,14,16,18,20,22,24,26,28,30,32,34,36,38,40,42,44,46,48,-1,50,-1,52,54,56,58,60,-1,-1,-1,-1,-1,-1,-1,-1,-1,-1,-1,-1,-1,-1,-1,-1,-1,-1,-1,-1,-1,-1,-1,-1,-1,-1,-1,-1],"split_conditions":[1.4E1,5.6684613E0,2.5211998E1,2.3707834E1,2.5405752E1,2.1274504E1,2.8366376E2,1E-1,2.8999996E0,3.5999997E0,4.8E1,9.299999E0,7.2E0,8.8E1,1.5856354E1,2.5537E1,3.3000002E0,3.3000002E0,1.0357835E1,3.3E1,6.3E1,2.391408E1,9.796366E0,2.884047E1,1.8E1,2.2162087E0,7E1,-5.2133913E0,5.415664E1,5.4E1,3.203818E2,3.6E1,1.17561295E2,1.7859244E-1,3.732609E0,-1.0547203E0,-1.3911051E-2,-4.9240842E-1,-3.3732302E0,8.981698E-1,-8.631572E-1,4.0467896E0,1.5081437E0,5.191701E0,-5.559717E-1,-2.0817082E0,-7.1322244E-1,-1.3792563E-2,1.3293927E0,-1.3670495E0,-1.0359192E-2,-8.787377E-1,-2.3811464E0,4.4601483E0,5.29636E-1,-7.927722E-1,3.78803E0,2.5048602E-1,5.9037066E0,-9.517327E-1,5.79676E-1],"split_indices":[2,0,3,3,3,3,6,4,4,4,2,4,4,1,5,3,4,4,3,0,1,3,5,5,0,0,0,0,6,1,6,1,6,0,0,0,0,0,0,0,0,0,0,0,0,0,0,0,0,0,0,0,0,0,0,0,0,0,0,0,0],"split_type":[0,0,0,0,0,0,0,0,0,0,0,0,0,0,0,0,0,0,0,0,0,0,0,0,0,0,0,0,0,0,0,0,0,0,0,0,0,0,0,0,0,0,0,0,0,0,0,0,0,0,0,0,0,0,0,0,0,0,0,0,0],"sum_hessian":[2.337E3,1E0,2.336E3,1.879E3,4.57E2,1.743E3,1.36E2,1.9E1,4.38E2,1.542E3,2.01E2,1.19E2,1.7E1,4E0,1.5E1,2.76E2,1.62E2,1.272E3,2.7E2,3.5E1,1.66E2,8.8E1,3.1E1,1.5E1,2E0,2E0,2E0,6E0,9E0,4E0,2.72E2,9E0,1.53E2,1.262E3,1E1,1.07E2,1.63E2,1.2E1,2.3E1,5.1E1,1.15E2,1.3E1,7.5E1,2E0,2.9E1,1.2E1,3E0,1E0,1E0,1E0,1E0,2E0,7E0,3E0,1E0,2.7E2,2E0,1E0,8E0,3.6E1,1.17E2],"tree_param":{"num_deleted":"0","num_feature":"7","num_nodes":"61","size_leaf_vector":"1"}},{"base_weights":[2.0160507E-2,1.5460612E-3,1.4507889E1,-5.1128025E0,4.569169E-2,7.326318E0,-7.977677E-1,-5.6160603E0,-3.4113498E0,1.2354517E0,-1.5112919E-1,1.783886E0,-5.946373E0,2.2936385E0,-3.2688546E0,-3.027308E0,4.5019954E-2,1.6664612E0,-1.5287151E0,-9.204545E0,3.6856499E0,1.7602845E0,1.5824804E1,2.8827608E0,-7.669524E0,-4.964654E0,1.6408083E0,4.1090035E0,-3.7307587E-2,-1.7846192E0,-4.4455605E0,2.4660988E-1,1.3098534E0,6.963864E-1,-2.980117E0,8.66589E-1,6.286865E0,1.3052946E-1,2.9441779E0,-7.859302E-1,-3.298038E0,-1.6803778E0,2.093367E0,3.5394604E0,-8.803077E-1,1.7494967E0,-3.4682362E0,-2.2129614E-2,2.8356767E0],"categories":[],"categories_nodes":[],"categories_segments":[],"categories_sizes":[],"default_left":[0,0,0,0,0,0,0,0,0,0,0,0,0,0,0,0,0,0,0,0,0,0,0,0,0,0,0,0,0,0,0,0,0,0,0,0,0,0,0,0,0,0,0,0,0,0,0,0,0],"id":15,"left_children":[1,3,5,7,9,-1,-1,-1,11,13,15,17,19,21,23,25,27,-1,-1,29,31,33,35,37,39,41,43,45,47,-1,-1,-1,-1,-1,-1,-1,-1,-1,-1,-1,-1,-1,-1,-1,-1,-1,-1,-1,-1],"loss_changes":[6.304918E2,5.2764667E2,5.7548267E2,3.991856E2,5.427577E2,0E0,0E0,0E0,2.608385E2,1.5756422E3,1.1222505E3,2.0990617E2,4.4190094E2,1.8990559E3,1.7275967E3,1.156703E3,6.234717E2,0E0,0E0,9.462964E1,4.2059402E0,1.7156365E3,6.032737E2,4.5378912E2,5.922471E2,7.233269E2,1.8005475E3,1.0661814E3,6.327817E2,0E0,0E0,0E0,0E0,0E0,0E0,0E0,0E0,0E0,0E0,0E0,0E0,0E0,0E0,0E0,0E0,0E0,0E0,0E0,0E0],"parents":[2147483647,0,0,1,1,2,2,3,3,4,4,8,8,9,9,10,10,11,11,12,12,13,13,14,14,15,15,16,16,19,19,20,20,21,21,22,22,23,23,24,24,25,25,26,26,27,27,28,28],"right_children":[2,4,6,8,10,-1,-1,-1,12,14,16,18,20,22,24,26,28,-1,-1,30,32,34,36,38,40,42,44,46,48,-1,-1,-1,-1,-1,-1,-1,-1,-1,-1,-1,-1,-1,-1,-1,-1,-1,-1,-1,-1],"split_conditions":[2.33E2,-9.63E-1,2.49E2,1.5963605E2,6.5620003E0,7.326318E0,-7.977677E-1,-5.6160603E0,3.107993E2,8E-1,8.153667E0,7.7E1,2.8137634E1,5E-1,6.9E1,1.24E2,8.48075E0,1.6664612E0,-1.5287151E0,9.9E1,5.3E1,1.67E2,6.2E1,5.7953324E0,5.7E1,1.44E2,1.39E2,3.502027E2,1.8E2,-1.7846192E0,-4.4455605E0,2.4660988E-1,1.3098534E0,6.963864E-1,-2.980117E0,8.66589E-1,6.286865E0,1.3052946E-1,2.9441779E0,-7.859302E-1,-3.298038E0,-1.6803778E0,2.093367E0,3.5394604E0,-8.803077E-1,1.7494967E0,-3.4682362E0,-2.2129614E-2,2.8356767E0],"split_indices":[0,3,0,6,3,0,0,0,6,4,3,1,5,4,2,2,3,0,0,2,0,1,1,3,0,1,2,6,1,0,0,0,0,0,0,0,0,0,0,0,0,0,0,0,0,0,0,0,0],"split_type":[0,0,0,0,0,0,0,0,0,0,0,0,0,0,0,0,0,0,0,0,0,0,0,0,0,0,0,0,0,0,0,0,0,0,0,0,0,0,0,0,0,0,0,0,0,0,0,0,0],"sum_hessian":[2.337E3,2.335E3,2E0,1.9E1,2.316E3,1E0,1E0,1E0,1.8E1,3.28E2,1.988E3,6E0,1.2E1,2.66E2,6.2E1,1.26E2,1.862E3,4E0,2E0,9E0,3E0,2.57E2,9E0,2.6E1,3.6E1,8.9E1,3.7E1,3.6E1,1.826E3,7E0,2E0,1E0,2E0,2.46E2,1.1E1,3E0,6E0,2E1,6E0,1.5E1,2.1E1,8.5E1,4E0,1.1E1,2.6E1,3.3E1,3E0,1.82E3,6E0],"tree_param":{"num_deleted":"0","num_feature":"7","num_nodes":"49","size_leaf_vector":"1"}},{"base_weights":[1.5997132E-2,4.8215117E0,2.2498441E-3,-1.4904381E0,1.3504031E-1,-4.8473325E-1,-5.0467544E0,6.6255336E0,6.78127E-2,-1.6640524E0,5.4784245E0,-1.0352938E1,1.921412E0,9.249598E0,-2.2485456E0,2.8146568E-1,-1.6526097E0,-7.482168E-2,-6.7470965E0,-1.0417226E-1,1.2593019E1,-1.6295376E1,3.5688586E0,9.573509E0,-2.3467488E0,-4.2025003E0,1.2034522E1,9.470756E-1,-3.3892545E-1,-3.0614908E0,2.328002E0,2.5989232E0,-2.2384368E-1,4.1353095E-1,-3.9125473E0,2.0652428E0,-1.2860231E0,5.883536E0,1.0426244E0,-5.25147E0,4.5855218E-1,2.4805934E0,-2.1060998E0,-2.0395432E-1,3.418713E0,-2.6869094E0,3.005973E0,-2.0032017E0,4.8330233E-1,2.0260556E0,4.3583317E0,-2.2368301E-1,5.125873E-1,-7.766367E-1,4.2962946E-2,-6.3938296E-1,-2.6359582E0,1.6132423E0,-1.1645396E0],"categories":[],"categories_nodes":[],"categories_segments":[],"categories_sizes":[],"default_left":[0,0,0,0,0,0,0,0,0,0,0,0,0,0,0,0,0,0,0,0,0,0,0,0,0,0,0,0,0,0,0,0,0,0,0,0,0,0,0,0,0,0,0,0,0,0,0,0,0,0,0,0,0,0,0,0,0,0,0],"id":16,"left_children":[1,-1,3,5,7,9,11,13,15,17,19,21,23,25,-1,27,29,31,33,35,37,39,41,43,45,47,49,51,53,55,57,-1,-1,-1,-1,-1,-1,-1,-1,-1,-1,-1,-1,-1,-1,-1,-1,-1,-1,-1,-1,-1,-1,-1,-1,-1,-1,-1,-1],"loss_changes":[5.160129E2,0E0,4.6342908E2,6.806852E2,9.3637335E2,1.0639863E3,1.5728158E3,8.8450586E2,7.819262E2,1.0173397E3,9.942596E2,2.0436619E3,6.4301385E2,7.6237354E2,0E0,7.816006E2,1.3250562E3,5.7546204E2,1.552418E3,4.679474E2,6.3577856E2,3.932495E2,4.5618405E2,1.3853314E2,1.1523472E3,6.830723E1,1.125564E2,1.1781881E3,1.0634146E3,9.0791223E2,1.1949442E3,0E0,0E0,0E0,0E0,0E0,0E0,0E0,0E0,0E0,0E0,0E0,0E0,0E0,0E0,0E0,0E0,0E0,0E0,0E0,0E0,0E0,0E0,0E0,0E0,0E0,0E0,0E0,0E0],"parents":[2147483647,0,0,2,2,3,3,4,4,5,5,6,6,7,7,8,8,9,9,10,10,11,11,12,12,13,13,15,15,16,16,17,17,18,18,19,19,20,20,21,21,22,22,23,23,24,24,25,25,26,26,27,27,28,28,29,29,30,30],"right_children":[2,-1,4,6,8,10,12,14,16,18,20,22,24,26,-1,28,30,32,34,36,38,40,42,44,46,48,50,52,54,56,58,-1,-1,-1,-1,-1,-1,-1,-1,-1,-1,-1,-1,-1,-1,-1,-1,-1,-1,-1,-1,-1,-1,-1,-1,-1,-1,-1,-1],"split_conditions":[1.4E1,4.8215117E0,3.8E1,7.6E1,3.9E1,6E1,5.7E1,2.1407139E1,2.7553665E1,5E1,5.1E1,6E-1,6.3E1,1.2620554E1,-2.2485456E0,7.4E1,2.7999995E0,1.1212135E1,3E1,3.2E1,1.6099499E1,3.2894144E2,1.5500001E1,8.699793E0,1.2E2,7.6E1,4.1E1,5.1E1,3.958293E1,8.7E1,2.0240196E1,2.5989232E0,-2.2384368E-1,4.1353095E-1,-3.9125473E0,2.0652428E0,-1.2860231E0,5.883536E0,1.0426244E0,-5.25147E0,4.5855218E-1,2.4805934E0,-2.1060998E0,-2.0395432E-1,3.418713E0,-2.6869094E0,3.005973E0,-2.0032017E0,4.8330233E-1,2.0260556E0,4.3583317E0,-2.2368301E-1,5.125873E-1,-7.766367E-1,4.2962946E-2,-6.3938296E-1,-2.6359582E0,1.6132423E0,-1.1645396E0],"split_indices":[2,0,2,0,2,0,1,5,3,0,1,4,1,5,0,1,4,5,2,2,3,6,4,5,0,0,1,0,6,0,5,0,0,0,0,0,0,0,0,0,0,0,0,0,0,0,0,0,0,0,0,0,0,0,0,0,0,0,0],"split_type":[0,0,0,0,0,0,0,0,0,0,0,0,0,0,0,0,0,0,0,0,0,0,0,0,0,0,0,0,0,0,0,0,0,0,0,0,0,0,0,0,0,0,0,0,0,0,0,0,0,0,0,0,0,0,0,0,0,0,0],"sum_hessian":[2.337E3,1E0,2.336E3,1.9E2,2.146E3,1.49E2,4.1E1,2.1E1,2.125E3,1.25E2,2.4E1,2.3E1,1.8E1,1.8E1,3E0,1.891E3,2.34E2,9.6E1,2.9E1,1.4E1,1E1,1.6E1,7E0,6E0,1.2E1,3E0,1.5E1,9.12E2,9.79E2,1.73E2,6.1E1,6E0,9E1,1.3E1,1.6E1,5E0,9E0,5E0,5E0,1.5E1,1E0,5E0,2E0,1E0,5E0,8E0,4E0,2E0,1E0,6E0,9E0,2.83E2,6.29E2,1.72E2,8.07E2,1.5E2,2.3E1,4.1E1,2E1],"tree_param":{"num_deleted":"0","num_feature":"7","num_nodes":"59","size_leaf_vector":"1"}},{"base_weights":[1.5416411E-2,7.923348E-2,-3.0970123E0,6.318514E-2,1.230306E1,-5.3475404E0,-2.9652423E-1,-1.7004596E0,1.6666004E-1,6.220924E0,-6.845467E-1,-6.2636037E0,1.2567091E0,-4.529262E0,2.4457018E0,-3.2628043E0,6.341033E0,4.8554435E0,6.253375E-2,-4.3573356E0,-9.998312E0,1.470369E0,-4.7756237E-1,-1.9484521E0,1.5668417E0,2.029575E0,6.526203E-1,-5.16773E0,4.7844014E0,7.9781933E0,2.8094614E0,1.2312002E1,9.754318E-1,-3.3338645E0,1.4794748E-1,-1.8847401E0,-7.6203656E0,-1.2256227E0,-3.4639175E0,-3.4069063E-3,7.084857E-1,1.6109314E0,-7.319559E-1,1.5558233E0,-1.9739196E0,-1.1361532E0,3.8763106E0,2.2817361E0,-1.4208629E0,4.8354645E0,-2.8662965E0,4.7677093E0,-7.126707E-1,-4.796731E-1,-2.8965468E0,-5.1701758E-2,3.1550983E-1,-1.2045567E0,1.5404557E0,-2.7327414E0,1.9683953E-1,-4.1569674E-1,7.9951507E-1],"categories":[],"categories_nodes":[],"categories_segments":[],"categories_sizes":[],"default_left":[0,0,0,0,0,0,0,0,0,0,0,0,0,0,0,0,0,0,0,0,0,0,0,0,0,0,0,0,0,0,0,0,0,0,0,0,0,0,0,0,0,0,0,0,0,0,0,0,0,0,0,0,0,0,0,0,0,0,0,0,0,0,0],"id":17,"left_children":[1,3,5,7,9,11,13,15,17,-1,-1,19,21,23,25,27,29,31,33,35,37,-1,-1,-1,39,-1,41,43,45,-1,47,49,51,53,55,57,59,-1,-1,-1,-1,61,-1,-1,-1,-1,-1,-1,-1,-1,-1,-1,-1,-1,-1,-1,-1,-1,-1,-1,-1,-1,-1],"loss_changes":[4.646332E2,4.4884933E2,2.946354E2,4.181923E2,4.1631516E2,1.6516925E2,2.6643393E2,1.6162646E3,1.0562167E3,0E0,0E0,1.2017914E2,4.932903E1,1.18017746E2,1.0401909E2,1.6649625E3,1.4273043E3,1.3477728E3,6.14923E2,1.227962E2,1.6903809E1,0E0,0E0,0E0,3.7897668E0,0E0,3.65295E1,1.3060278E3,1.5135537E3,0E0,7.236609E2,1.4856445E3,1.6373263E3,5.548542E2,5.984945E2,1.8512106E2,9.222949E1,0E0,0E0,0E0,0E0,3.2121662E1,0E0,0E0,0E0,0E0,0E0,0E0,0E0,0E0,0E0,0E0,0E0,0E0,0E0,0E0,0E0,0E0,0E0,0E0,0E0,0E0,0E0],"parents":[2147483647,0,0,1,1,2,2,3,3,4,4,5,5,6,6,7,7,8,8,11,11,12,12,13,13,14,14,15,15,16,16,17,17,18,18,19,19,20,20,24,24,26,26,27,27,28,28,30,30,31,31,32,32,33,33,34,34,35,35,36,36,41,41],"right_children":[2,4,6,8,10,12,14,16,18,-1,-1,20,22,24,26,28,30,32,34,36,38,-1,-1,-1,40,-1,42,44,46,-1,48,50,52,54,56,58,60,-1,-1,-1,-1,62,-1,-1,-1,-1,-1,-1,-1,-1,-1,-1,-1,-1,-1,-1,-1,-1,-1,-1,-1,-1,-1],"split_conditions":[3.5300003E1,2.33E2,2.3132626E1,1.0587917E1,2.49E2,1.03E2,5.0206715E1,2.4009918E1,1.1043261E1,6.220924E0,-6.845467E-1,1.645082E2,1.04E2,2.3593248E1,1.0783307E2,1.21E2,2.4743248E1,7.223055E1,1.8286667E0,6.6E1,2.2641165E1,1.470369E0,-4.7756237E-1,-1.9484521E0,3.5E1,2.029575E0,9.65E1,5.1244993E0,6.9E1,7.9781933E0,6.4E1,1.09E2,4.1286664E0,1.06E2,2.2033093E2,6.1E1,8.6E1,-1.2256227E0,-3.4639175E0,-3.4069063E-3,7.084857E-1,4.7E1,-7.319559E-1,1.5558233E0,-1.9739196E0,-1.1361532E0,3.8763106E0,2.2817361E0,-1.4208629E0,4.8354645E0,-2.8662965E0,4.7677093E0,-7.126707E-1,-4.796731E-1,-2.8965468E0,-5.1701758E-2,3.1550983E-1,-1.2045567E0,1.5404557E0,-2.7327414E0,1.9683953E-1,-4.1569674E-1,7.9951507E-1],"split_indices":[4,0,5,5,0,0,6,3,5,0,0,6,0,3,6,2,3,6,3,0,3,0,0,0,0,0,4,3,0,0,1,0,3,1,6,0,2,0,0,0,0,4,0,0,0,0,0,0,0,0,0,0,0,0,0,0,0,0,0,0,0,0,0],"split_type":[0,0,0,0,0,0,0,0,0,0,0,0,0,0,0,0,0,0,0,0,0,0,0,0,0,0,0,0,0,0,0,0,0,0,0,0,0,0,0,0,0,0,0,0,0,0,0,0,0,0,0,0,0,0,0,0,0,0,0,0,0,0,0],"sum_hessian":[2.337E3,2.291E3,4.6E1,2.289E3,2E0,2.5E1,2.1E1,1.26E2,2.163E3,1E0,1E0,2.2E1,3E0,8E0,1.3E1,