{"learner":{"attributes":{"scikit_learn":"{\"_estimator_type\": \"regressor\"}"},"feature_names":["temperature_2m_mean","precipitation_sum","wind_speed_10m_max","wind_direction_10m_dominant"],"feature_types":["float","float","float","float"],"gradient_booster":{"model":{"gbtree_model_param":{"num_parallel_tree":"1","num_trees":"100"},"iteration_indptr":[0,1,2,3,4,5,6,7,8,9,10,11,12,13,14,15,16,17,18,19,20,21,22,23,24,25,26,27,28,29,30,31,32,33,34,35,36,37,38,39,40,41,42,43,44,45,46,47,48,49,50,51,52,53,54,55,56,57,58,59,60,61,62,63,64,65,66,67,68,69,70,71,72,73,74,75,76,77,78,79,80,81,82,83,84,85,86,87,88,89,90,91,92,93,94,95,96,97,98,99,100],"tree_info":[0,0,0,0,0,0,0,0,0,0,0,0,0,0,0,0,0,0,0,0,0,0,0,0,0,0,0,0,0,0,0,0,0,0,0,0,0,0,0,0,0,0,0,0,0,0,0,0,0,0,0,0,0,0,0,0,0,0,0,0,0,0,0,0,0,0,0,0,0,0,0,0,0,0,0,0,0,0,0,0,0,0,0,0,0,0,0,0,0,0,0,0,0,0,0,0,0,0,0,0],"trees":[{"base_weights":[-5.2144514E-7,1.4512099E1,-8.703296E0,2.1488546E1,-4.6680856E0,-1.7313871E0,-1.5302055E1,1.2315808E1,3.034311E1,6.673538E-1,-1.9566446E1,-7.2579317E0,9.054813E0,-5.3982706E0,-2.0223465E1,2.4040802E1,8.07234E0,4.2039715E1,2.2209818E1,-1.3715025E1,4.651756E0,3.1501425E1,-2.1793734E1,8.771257E-1,-1.329492E1,1.7993855E1,1.1482364E-1,-1.808017E1,4.240892E-1,-2.926871E1,-1.5120161E1,2.6080235E1,-1.3398291E1,1.589942E1,5.592402E0,1.9001972E1,4.4167408E1,5.515592E0,2.5954952E1,-2.178965E1,-6.1408224E0,8.379519E0,-6.8876324E0,2.2128205E0,1.1962821E1,-2.3261295E1,-9.98291E-1,1.816424E1,-2.9813104E0,-8.906972E0,-1.6723043E1,2.0865541E1,-5.444445E0,3.8536003E0,-1.705478E1,-1.0131868E1,-2.2012327E1,2.7537563E0,-1.6569393E1,-2.248736E1,-3.64194E1,-9.440476E0,-2.3699053E1,1.3303239E1,6.018776E0,-4.9495726E0,-1.7495729E0,1.0910599E1,2.4631257E0,5.750259E-1,3.987268E0,8.936264E0,1.6505494E0,1.46168585E1,8.189012E0,2.5097122E0,-4.3194876E0,8.684815E0,3.9498398E0,-6.952338E0,2.6282045E-1,5.0405126E0,-3.7582204E0,1.4890954E0,8.995238E0,-4.199385E0,3.4730768E0,-9.993163E0,-6.0193734E0,3.0192308E0,-6.78718E0,7.0188036E0,-5.9994874E0,-1.5562981E0,2.1581197E0,-1.269231E0,-4.7075357E0,-6.729974E0,-3.906547E0,7.569668E0,4.7203895E-1,-4.949451E0,1.4724358E0,3.8781197E0,5.840302E-3,-5.9656415E0,2.2504275E0,-6.7221446E0,-6.202281E-1,-4.8395605E0,-8.315385E0,-2.7299696E-1,6.205424E0,-7.5692326E-1,-8.068163E0,3.4504273E0,-7.002592E0,-1.1106426E1,2.2128205E0,-2.0313077E0,-6.457949E0,-5.2075953E0,-9.972872E0],"categories":[],"categories_nodes":[],"categories_segments":[],"categories_sizes":[],"default_left":[0,0,0,0,0,0,0,0,0,0,0,0,0,0,0,0,0,0,0,0,0,0,0,0,0,0,0,0,0,0,0,0,0,0,0,0,0,0,0,0,0,0,0,0,0,0,0,0,0,0,0,0,0,0,0,0,0,0,0,0,0,0,0,0,0,0,0,0,0,0,0,0,0,0,0,0,0,0,0,0,0,0,0,0,0,0,0,0,0,0,0,0,0,0,0,0,0,0,0,0,0,0,0,0,0,0,0,0,0,0,0,0,0,0,0,0,0,0,0,0,0,0,0],"id":0,"left_children":[1,3,5,7,9,11,13,15,17,19,21,23,25,27,29,31,33,35,37,39,41,43,45,47,49,51,53,55,57,59,61,63,65,67,69,71,73,75,77,79,81,83,85,-1,-1,87,89,91,93,95,97,99,101,103,105,107,109,111,113,115,117,119,121,-1,-1,-1,-1,-1,-1,-1,-1,-1,-1,-1,-1,-1,-1,-1,-1,-1,-1,-1,-1,-1,-1,-1,-1,-1,-1,-1,-1,-1,-1,-1,-1,-1,-1,-1,-1,-1,-1,-1,-1,-1,-1,-1,-1,-1,-1,-1,-1,-1,-1,-1,-1,-1,-1,-1,-1,-1,-1,-1,-1],"loss_changes":[2.9580184E5,1.1758509E5,6.732623E4,5.1932344E4,1.8693043E4,4.2567953E4,3.6543734E4,1.562791E4,3.0174438E4,1.0034899E4,7.738584E3,2.3192168E4,1.9337346E4,1.8541152E4,2.2730094E4,6.763211E3,4.472593E3,5.6800312E3,1.2048656E4,2.19023E3,5.950923E3,3.1199512E2,1.8078965E3,1.3527802E4,3.9275469E3,8.257809E3,7.8973057E3,2.246039E3,6.8945527E3,7.909453E3,1.5514578E4,7.902801E3,2.1071594E1,8.515127E3,5.0679746E3,1.729002E3,7.9693125E3,2.2204563E3,5.707789E3,5.8528125E2,3.2874915E3,7.526213E3,4.6258735E3,0E0,0E0,1.1306152E3,1.4238463E3,7.855212E3,3.7639695E3,3.7725986E3,2.8992188E3,9.05848E3,1.6830564E3,3.513424E3,1.6784126E3,2.7254863E3,1.297543E3,1.0070096E4,2.977584E3,3.0279531E3,2.5405234E3,6.177801E3,7.168461E3,0E0,0E0,0E0,0E0,0E0,0E0,0E0,0E0,0E0,0E0,0E0,0E0,0E0,0E0,0E0,0E0,0E0,0E0,0E0,0E0,0E0,0E0,0E0,0E0,0E0,0E0,0E0,0E0,0E0,0E0,0E0,0E0,0E0,0E0,0E0,0E0,0E0,0E0,0E0,0E0,0E0,0E0,0E0,0E0,0E0,0E0,0E0,0E0,0E0,0E0,0E0,0E0,0E0,0E0,0E0,0E0,0E0,0E0,0E0,0E0],"parents":[2147483647,0,0,1,1,2,2,3,3,4,4,5,5,6,6,7,7,8,8,9,9,10,10,11,11,12,12,13,13,14,14,15,15,16,16,17,17,18,18,19,19,20,20,21,21,22,22,23,23,24,24,25,25,26,26,27,27,28,28,29,29,30,30,31,31,32,32,33,33,34,34,35,35,36,36,37,37,38,38,39,39,40,40,41,41,42,42,45,45,46,46,47,47,48,48,49,49,50,50,51,51,52,52,53,53,54,54,55,55,56,56,57,57,58,58,59,59,60,60,61,61,62,62],"right_children":[2,4,6,8,10,12,14,16,18,20,22,24,26,28,30,32,34,36,38,40,42,44,46,48,50,52,54,56,58,60,62,64,66,68,70,72,74,76,78,80,82,84,86,-1,-1,88,90,92,94,96,98,100,102,104,106,108,110,112,114,116,118,120,122,-1,-1,-1,-1,-1,-1,-1,-1,-1,-1,-1,-1,-1,-1,-1,-1,-1,-1,-1,-1,-1,-1,-1,-1,-1,-1,-1,-1,-1,-1,-1,-1,-1,-1,-1,-1,-1,-1,-1,-1,-1,-1,-1,-1,-1,-1,-1,-1,-1,-1,-1,-1,-1,-1,-1,-1,-1,-1,-1,-1],"split_conditions":[1.3020333E1,9.000001E-1,1.7373497E1,1.6670767E2,8.999999E0,1.5617447E2,1.8803665E1,1.2245293E1,1.5941944E1,5.459917E0,1.0990322E1,2.0182833E1,4E-1,5.2835423E1,1.27440186E2,1.5538615E2,1.7687748E1,2.1474168E0,1.8286667E0,5.2835423E1,2.259699E1,6.8911653E0,1.26744995E1,1.1966954E1,1.44E1,3.3676785E2,3.344904E2,1.4914083E1,3.4443384E2,2.0892412E1,2.2427162E1,5.1244993E0,1.6343217E2,1.7771753E1,1.7786331E1,3.1541312E2,9.291167E0,1.4182502E0,1.0259916E1,7.9999995E0,1.7076298E1,6.6E0,2.7231804E1,2.2128205E0,1.1962821E1,6.197417E0,1.2901584E1,1.8E0,1.5000001E0,1.9000001E0,7.624171E1,2.6103668E1,3.4917056E2,1.3084402E1,2.5866165E1,1.603315E1,6E-1,3.0190424E2,2.0390114E1,1.2630161E0,3.0239088E1,9.700002E0,2.6891169E1,1.3303239E1,6.018776E0,-4.9495726E0,-1.7495729E0,1.0910599E1,2.4631257E0,5.750259E-1,3.987268E0,8.936264E0,1.6505494E0,1.46168585E1,8.189012E0,2.5097122E0,-4.3194876E0,8.684815E0,3.9498398E0,-6.952338E0,2.6282045E-1,5.0405126E0,-3.7582204E0,1.4890954E0,8.995238E0,-4.199385E0,3.4730768E0,-9.993163E0,-6.0193734E0,3.0192308E0,-6.78718E0,7.0188036E0,-5.9994874E0,-1.5562981E0,2.1581197E0,-1.269231E0,-4.7075357E0,-6.729974E0,-3.906547E0,7.569668E0,4.7203895E-1,-4.949451E0,1.4724358E0,3.8781197E0,5.840302E-3,-5.9656415E0,2.2504275E0,-6.7221446E0,-6.202281E-1,-4.8395605E0,-8.315385E0,-2.7299696E-1,6.205424E0,-7.5692326E-1,-8.068163E0,3.4504273E0,-7.002592E0,-1.1106426E1,2.2128205E0,-2.0313077E0,-6.457949E0,-5.2075953E0,-9.972872E0],"split_indices":[0,1,2,3,1,3,0,2,2,0,2,0,1,3,3,3,3,0,0,3,2,0,0,2,2,3,3,0,3,2,2,0,3,2,2,3,0,0,0,1,2,1,2,0,0,0,0,1,1,1,3,0,3,2,0,3,1,3,2,3,0,1,0,0,0,0,0,0,0,0,0,0,0,0,0,0,0,0,0,0,0,0,0,0,0,0,0,0,0,0,0,0,0,0,0,0,0,0,0,0,0,0,0,0,0,0,0,0,0,0,0,0,0,0,0,0,0,0,0,0,0,0,0],"split_type":[0,0,0,0,0,0,0,0,0,0,0,0,0,0,0,0,0,0,0,0,0,0,0,0,0,0,0,0,0,0,0,0,0,0,0,0,0,0,0,0,0,0,0,0,0,0,0,0,0,0,0,0,0,0,0,0,0,0,0,0,0,0,0,0,0,0,0,0,0,0,0,0,0,0,0,0,0,0,0,0,0,0,0,0,0,0,0,0,0,0,0,0,0,0,0,0,0,0,0,0,0,0,0,0,0,0,0,0,0,0,0,0,0,0,0,0,0,0,0,0,0,0,0],"sum_hessian":[2.34E3,8.77E2,1.463E3,6.43E2,2.34E2,7.12E2,7.51E2,3.17E2,3.26E2,1.73E2,6.1E1,4.71E2,2.41E2,2.5E2,5.01E2,8.3E1,2.34E2,1.32E2,1.94E2,3.7E1,1.36E2,2E0,5.9E1,2.01E2,2.7E2,1.2E2,1.21E2,7.8E1,1.72E2,1.79E2,3.22E2,7.9E1,4E0,5.5E1,1.79E2,1.2E1,1.2E2,3.6E1,1.58E2,1.7E1,2E1,1.03E2,3.3E1,1E0,1E0,5.5E1,4E0,3.6E1,1.65E2,1.2E2,1.5E2,1.07E2,1.3E1,1E2,2.1E1,2.7E1,5.1E1,1.52E2,2E1,9.4E1,8.5E1,1.95E2,1.27E2,1.8E1,6.1E1,2E0,2E0,1.4E1,4.1E1,1.22E2,5.7E1,6E0,6E0,9.3E1,2.7E1,3.2E1,4E0,1.27E2,3.1E1,1.6E1,1E0,4E0,1.6E1,9E1,1.3E1,2.4E1,9E0,1.1E1,4.4E1,3E0,1E0,3.2E1,4E0,1.36E2,2.9E1,7.2E1,4.8E1,5.7E1,9.3E1,8.7E1,2E1,6E0,7E0,2.9E1,7.1E1,1.9E1,2E0,1E1,1.7E1,2.7E1,2.4E1,1.27E2,2.5E1,9E0,1.1E1,2E0,9.2E1,8.4E1,1E0,1.61E2,3.4E1,7.8E1,4.9E1],"tree_param":{"num_deleted":"0","num_feature":"4","num_nodes":"123","size_leaf_vector":"1"}},{"base_weights":[1.6049659E-3,1.0858178E1,-5.880529E0,1.600689E1,-3.152553E0,-3.7659726E-1,-9.985902E0,9.432163E0,2.208778E1,4.7186983E-1,-1.4437274E1,-5.6339784E0,3.6674666E0,-5.516778E0,-1.7688005E1,1.7171799E1,6.3133984E0,1.0426625E1,2.6695028E1,-7.6843123E0,4.2646456E0,2.6776209E1,-1.6537334E1,9.268397E0,-8.717308E0,6.194935E0,-1.3726412E1,-9.726772E0,1.492669E0,-2.1200642E1,-7.608595E0,-8.739996E0,1.809178E1,9.862887E0,2.5647705E0,1.4291698E1,-7.01114E0,3.2433445E1,1.7351831E1,1.0452608E1,-9.98998E0,1.705421E1,2.8434803E0,1.8808972E0,1.0168398E1,-1.2255049E1,-2.2776241E1,1.5860412E1,-8.344524E0,-5.8776236E0,-1.3568882E1,1.0942451E0,1.25720625E1,-2.2415579E1,-8.055365E0,-8.928007E0,-2.3741688E1,2.4477522E0,-1.9897255E1,-1.9701307E1,-3.1634941E1,-1.743235E0,-3.242742E1,5.911997E0,-3.2155902E0,4.163027E0,9.9616534E-1,4.4115397E-1,6.0030537E0,-1.8355955E-1,5.6242065E0,2.182866E0,-4.639716E0,9.989439E0,-5.186536E0,-8.926999E-2,6.9990163E0,-4.826192E-1,-4.1010876E0,-1.4839729E0,2.3432257E0,-4.136139E0,5.515726E0,-7.2173605E0,-2.2483194E0,-2.2840009E0,5.7097645E0,1.4831343E0,-3.7254128E0,-1.9775556E0,6.5519023E0,6.4254314E-1,-4.843652E0,7.4453077E0,4.006944E-2,6.046945E0,-5.8142674E-1,-7.307862E0,-1.3727784E0,2.097646E0,-5.140528E0,-2.844926E0,8.648025E0,-8.4849415E0,-4.3588443E0,1.0805237E0,-2.8261504E0,-1.1379693E0,-7.1869545E0,-4.943384E0,-7.1340656E0,-1.04861E1,-5.690675E0,1.1256146E-1,-1.0878506E1,-1.1432647E1,1.4684739E0],"categories":[],"categories_nodes":[],"categories_segments":[],"categories_sizes":[],"default_left":[0,0,0,0,0,0,0,0,0,0,0,0,0,0,0,0,0,0,0,0,0,0,0,0,0,0,0,0,0,0,0,0,0,0,0,0,0,0,0,0,0,0,0,0,0,0,0,0,0,0,0,0,0,0,0,0,0,0,0,0,0,0,0,0,0,0,0,0,0,0,0,0,0,0,0,0,0,0,0,0,0,0,0,0,0,0,0,0,0,0,0,0,0,0,0,0,0,0,0,0,0,0,0,0,0,0,0,0,0,0,0,0,0,0,0,0,0],"id":1,"left_children":[1,3,5,7,9,11,13,15,17,19,21,23,25,27,29,31,33,35,37,39,41,43,45,47,49,51,53,55,57,59,61,-1,63,65,67,69,71,73,75,-1,77,-1,79,-1,-1,81,83,85,87,89,91,93,95,97,99,101,103,105,107,109,111,113,115,-1,-1,-1,-1,-1,-1,-1,-1,-1,-1,-1,-1,-1,-1,-1,-1,-1,-1,-1,-1,-1,-1,-1,-1,-1,-1,-1,-1,-1,-1,-1,-1,-1,-1,-1,-1,-1,-1,-1,-1,-1,-1,-1,-1,-1,-1,-1,-1,-1,-1,-1,-1,-1,-1],"loss_changes":[1.4955969E5,5.94194E4,3.4319098E4,2.3859734E4,9.086745E3,1.3840433E4,2.9849266E4,6.9157754E3,1.6484125E4,5.260713E3,5.1165537E3,1.3084346E4,1.6263225E4,1.6303891E4,1.1132992E4,4.0628594E3,2.7555986E3,6.166041E3,1.1393391E4,5.6428574E3,8.506887E3,2.254165E2,1.1101475E3,5.821474E3,3.1578262E3,1.0460179E4,2.1354385E3,3.6501855E3,4.297968E3,3.0688516E3,1.2171465E4,0E0,4.026295E3,2.763749E3,1.9368202E3,4.925454E3,2.1660237E3,6.465797E3,9.186484E3,0E0,1.58198E3,0E0,4.4499043E3,0E0,0E0,1.8026436E3,2.1141406E2,2.8255303E3,8.192142E2,3.1134355E3,3.5159062E3,4.099002E3,1.5776373E4,5.1276465E2,4.218633E3,7.1472266E3,3.4212402E2,2.7731072E3,4.9746118E2,2.356039E3,5.139492E2,5.0592485E3,3.5792285E3,0E0,0E0,0E0,0E0,0E0,0E0,0E0,0E0,0E0,0E0,0E0,0E0,0E0,0E0,0E0,0E0,0E0,0E0,0E0,0E0,0E0,0E0,0E0,0E0,0E0,0E0,0E0,0E0,0E0,0E0,0E0,0E0,0E0,0E0,0E0,0E0,0E0,0E0,0E0,0E0,0E0,0E0,0E0,0E0,0E0,0E0,0E0,0E0,0E0,0E0,0E0,0E0,0E0,0E0],"parents":[2147483647,0,0,1,1,2,2,3,3,4,4,5,5,6,6,7,7,8,8,9,9,10,10,11,11,12,12,13,13,14,14,15,15,16,16,17,17,18,18,19,19,20,20,21,21,22,22,23,23,24,24,25,25,26,26,27,27,28,28,29,29,30,30,32,32,33,33,34,34,35,35,36,36,37,37,38,38,40,40,42,42,45,45,46,46,47,47,48,48,49,49,50,50,51,51,52,52,53,53,54,54,55,55,56,56,57,57,58,58,59,59,60,60,61,61,62,62],"right_children":[2,4,6,8,10,12,14,16,18,20,22,24,26,28,30,32,34,36,38,40,42,44,46,48,50,52,54,56,58,60,62,-1,64,66,68,70,72,74,76,-1,78,-1,80,-1,-1,82,84,86,88,90,92,94,96,98,100,102,104,106,108,110,112,114,116,-1,-1,-1,-1,-1,-1,-1,-1,-1,-1,-1,-1,-1,-1,-1,-1,-1,-1,-1,-1,-1,-1,-1,-1,-1,-1,-1,-1,-1,-1,-1,-1,-1,-1,-1,-1,-1,-1,-1,-1,-1,-1,-1,-1,-1,-1,-1,-1,-1,-1,-1,-1,-1,-1],"split_conditions":[1.2422416E1,9E-1,2.024742E1,1.6670767E2,8.999999E0,9.668332E1,1.913426E1,1.2522619E1,3.334916E0,6.6432495E0,1.0990322E1,1.3237038E1,3.4355173E2,1.5690567E2,1.8297554E2,1.2630161E0,4.7744377E1,3.4068494E2,1.9083395E1,1.1966954E1,6.8911653E0,6.8911653E0,2.1129885E1,7.332156E1,1.7482832E1,1.7194934E2,1.54557495E1,2.3400002E1,3.0300001E1,3.1104082E1,2.8551426E1,-8.739996E0,1.5538615E2,2.0111729E1,1.206825E1,-9.63E-1,2.1474168E0,7E-1,2.0519999E1,1.0452608E1,1.7076298E1,1.705421E1,6.369142E1,1.8808972E0,1.0168398E1,2.0447239E1,3.392243E2,1.0484902E1,1.3711999E1,9.086225E1,1.4512064E1,9.949641E1,9E-1,1.43E1,1.660575E1,2.1E1,1.0272735E2,3.2630988E2,1.3797913E1,2.7089079E1,1.517098E2,3.511996E2,2.4755747E1,5.911997E0,-3.2155902E0,4.163027E0,9.9616534E-1,4.4115397E-1,6.0030537E0,-1.8355955E-1,5.6242065E0,2.182866E0,-4.639716E0,9.989439E0,-5.186536E0,-8.926999E-2,6.9990163E0,-4.826192E-1,-4.1010876E0,-1.4839729E0,2.3432257E0,-4.136139E0,5.515726E0,-7.2173605E0,-2.2483194E0,-2.2840009E0,5.7097645E0,1.4831343E0,-3.7254128E0,-1.9775556E0,6.5519023E0,6.4254314E-1,-4.843652E0,7.4453077E0,4.006944E-2,6.046945E0,-5.8142674E-1,-7.307862E0,-1.3727784E0,2.097646E0,-5.140528E0,-2.844926E0,8.648025E0,-8.4849415E0,-4.3588443E0,1.0805237E0,-2.8261504E0,-1.1379693E0,-7.1869545E0,-4.943384E0,-7.1340656E0,-1.04861E1,-5.690675E0,1.1256146E-1,-1.0878506E1,-1.1432647E1,1.4684739E0],"split_indices":[0,1,0,3,1,3,2,2,0,0,2,2,3,3,3,3,3,3,2,2,0,0,2,3,0,3,0,1,1,2,2,0,3,2,0,0,0,1,2,0,2,0,3,0,0,2,3,2,0,3,2,3,1,1,0,1,3,3,2,0,3,3,0,0,0,0,0,0,0,0,0,0,0,0,0,0,0,0,0,0,0,0,0,0,0,0,0,0,0,0,0,0,0,0,0,0,0,0,0,0,0,0,0,0,0,0,0,0,0,0,0,0,0,0,0,0,0],"split_type":[0,0,0,0,0,0,0,0,0,0,0,0,0,0,0,0,0,0,0,0,0,0,0,0,0,0,0,0,0,0,0,0,0,0,0,0,0,0,0,0,0,0,0,0,0,0,0,0,0,0,0,0,0,0,0,0,0,0,0,0,0,0,0,0,0,0,0,0,0,0,0,0,0,0,0,0,0,0,0,0,0,0,0,0,0,0,0,0,0,0,0,0,0,0,0,0,0,0,0,0,0,0,0,0,0,0,0,0,0,0,0,0,0,0,0,0,0],"sum_hessian":[2.34E3,8.22E2,1.518E3,6.01E2,2.21E2,6.49E2,8.69E2,2.9E2,3.11E2,1.68E2,5.3E1,2.82E2,3.67E2,5.51E2,3.18E2,8.2E1,2.08E2,8.9E1,2.22E2,5.3E1,1.15E2,2E0,5.1E1,4.8E1,2.34E2,3.21E2,4.6E1,3.44E2,2.07E2,2.35E2,8.3E1,1E0,8.1E1,1.06E2,1.02E2,7.3E1,1.6E1,1.36E2,8.6E1,2E0,5.1E1,2E0,1.13E2,1E0,1E0,3.2E1,1.9E1,3.5E1,1.3E1,1.49E2,8.5E1,1.79E2,1.42E2,1.7E1,2.9E1,3.27E2,1.7E1,1.99E2,8E0,2.08E2,2.7E1,6.8E1,1.5E1,7.7E1,4E0,6.5E1,4.1E1,9.7E1,5E0,1.7E1,5.6E1,6E0,1E1,1.34E2,2E0,2.2E1,6.4E1,1.6E1,3.5E1,4.4E1,6.9E1,3.1E1,1E0,1.7E1,2E0,4E0,3.1E1,3E0,1E1,1.46E2,3E0,1.2E1,7.3E1,6E0,1.73E2,9.3E1,4.9E1,1.5E1,2E0,1.1E1,1.8E1,3.23E2,4E0,1E1,7E0,1.82E2,1.7E1,2E0,6E0,1.19E2,8.9E1,2E1,7E0,6.5E1,3E0,1.3E1,2E0],"tree_param":{"num_deleted":"0","num_feature":"4","num_nodes":"117","size_leaf_vector":"1"}},{"base_weights":[-5.416381E-3,7.7343698E0,-4.128571E0,1.1302162E1,-2.071623E0,-1.20618634E-1,-7.411132E0,6.641989E0,1.54251585E1,1.0650821E0,-9.8058195E0,-2.86312E0,5.4736495E0,3.397084E-1,-9.277788E0,1.3783174E1,4.1737084E0,7.303061E0,1.8627308E1,-9.880818E-3,1.0059281E1,2.2759779E1,-1.12466545E1,-8.071762E-1,-9.453493E0,1.0634904E1,2.6438022E-1,-2.152176E0,8.658908E0,-1.3903835E1,-5.189881E0,1.1231524E1,3.0396769E1,2.7171557E0,1.4433135E1,2.2108784E1,4.3239846E0,2.628883E1,1.4491562E1,-4.655056E0,3.4213266E0,1.5987626E0,8.643138E0,-7.5823045E0,-1.6579933E1,7.9917727E0,-3.1214645E0,-1.2493157E1,-1.0543524E-1,2.0831757E0,1.4243349E1,-1.5608791E1,1.4486885E0,-1.1304165E1,1.8824282E0,-3.3961618E0,1.5063391E1,-1.0567474E1,-1.7642199E1,-4.229455E0,-2.5634724E1,5.122374E0,-1.7781569E0,-3.735727E0,1.3325494E1,1.6337775E0,-1.269979E0,1.5296828E1,2.2343976E0,8.08875E0,2.102657E0,-5.783392E0,1.7643974E0,6.936851E0,1.5330278E1,5.5030155E0,5.674739E-1,8.362086E0,-1.8390453E0,4.4081964E0,-2.3805663E-1,-3.5396612E0,3.8329835E0,-5.263158E0,8.385613E-1,2.9824674E0,-4.7288146E0,-1.2043507E0,4.2590356E0,-4.6444556E-1,-4.19138E0,2.246035E0,-4.356032E0,-1.5432973E-1,6.7029743E0,5.52785E0,-7.0247227E-1,2.5586991E0,-7.5228662E0,1.5122089E0,-1.4081826E0,-7.665335E0,-1.8535128E0,2.848282E0,-2.1781707E0,1.0692899E1,-2.7422829E0,1.2311136E0,8.591703E0,-2.2458913E0,-4.9633265E0,-5.467061E0,4.9590893E0,-9.567016E-1,-4.9212193E0,-4.3201604E0,-8.829611E0],"categories":[],"categories_nodes":[],"categories_segments":[],"categories_sizes":[],"default_left":[0,0,0,0,0,0,0,0,0,0,0,0,0,0,0,0,0,0,0,0,0,0,0,0,0,0,0,0,0,0,0,0,0,0,0,0,0,0,0,0,0,0,0,0,0,0,0,0,0,0,0,0,0,0,0,0,0,0,0,0,0,0,0,0,0,0,0,0,0,0,0,0,0,0,0,0,0,0,0,0,0,0,0,0,0,0,0,0,0,0,0,0,0,0,0,0,0,0,0,0,0,0,0,0,0,0,0,0,0,0,0,0,0,0,0,0,0],"id":2,"left_children":[1,3,5,7,9,11,13,15,17,19,21,23,25,27,29,31,33,35,37,39,-1,41,43,45,47,49,51,53,55,57,59,61,63,65,67,69,71,73,75,77,79,-1,-1,81,83,85,87,89,91,93,95,97,99,101,103,105,107,109,111,113,115,-1,-1,-1,-1,-1,-1,-1,-1,-1,-1,-1,-1,-1,-1,-1,-1,-1,-1,-1,-1,-1,-1,-1,-1,-1,-1,-1,-1,-1,-1,-1,-1,-1,-1,-1,-1,-1,-1,-1,-1,-1,-1,-1,-1,-1,-1,-1,-1,-1,-1,-1,-1,-1,-1,-1,-1],"loss_changes":[7.473871E4,2.8501812E4,2.0102004E4,1.1368227E4,5.2991006E3,1.0586509E4,1.2156406E4,4.913132E3,8.0825547E3,5.4446675E3,3.2120361E3,6.265759E3,6.1003926E3,3.4184346E3,1.2730484E4,2.7108271E3,3.113839E3,3.9181733E3,6.780086E3,2.4385874E3,0E0,1.6286353E2,1.0664087E3,7.2335566E3,3.1243281E3,3.4881904E3,2.1656675E3,4.71071E3,2.9850042E3,3.7673594E3,6.980088E3,6.5178E3,5.960423E3,3.5507463E3,6.2593555E3,9.1038477E2,2.9436128E3,4.9456914E3,7.196705E3,3.2897568E3,4.192765E3,0E0,0E0,3.4128484E3,4.9726904E2,3.5841E3,4.402895E3,1.3211367E3,3.1730103E3,1.8534645E3,5.592884E3,2.0420576E3,2.384549E3,2.6901836E3,6.262896E3,3.4656099E3,3.602084E3,3.0068613E3,3.241371E3,4.330493E3,2.5871777E2,0E0,0E0,0E0,0E0,0E0,0E0,0E0,0E0,0E0,0E0,0E0,0E0,0E0,0E0,0E0,0E0,0E0,0E0,0E0,0E0,0E0,0E0,0E0,0E0,0E0,0E0,0E0,0E0,0E0,0E0,0E0,0E0,0E0,0E0,0E0,0E0,0E0,0E0,0E0,0E0,0E0,0E0,0E0,0E0,0E0,0E0,0E0,0E0,0E0,0E0,0E0,0E0,0E0,0E0,0E0,0E0],"parents":[2147483647,0,0,1,1,2,2,3,3,4,4,5,5,6,6,7,7,8,8,9,9,10,10,11,11,12,12,13,13,14,14,15,15,16,16,17,17,18,18,19,19,21,21,22,22,23,23,24,24,25,25,26,26,27,27,28,28,29,29,30,30,31,31,32,32,33,33,34,34,35,35,36,36,37,37,38,38,39,39,40,40,43,43,44,44,45,45,46,46,47,47,48,48,49,49,50,50,51,51,52,52,53,53,54,54,55,55,56,56,57,57,58,58,59,59,60,60],"right_children":[2,4,6,8,10,12,14,16,18,20,22,24,26,28,30,32,34,36,38,40,-1,42,44,46,48,50,52,54,56,58,60,62,64,66,68,70,72,74,76,78,80,-1,-1,82,84,86,88,90,92,94,96,98,100,102,104,106,108,110,112,114,116,-1,-1,-1,-1,-1,-1,-1,-1,-1,-1,-1,-1,-1,-1,-1,-1,-1,-1,-1,-1,-1,-1,-1,-1,-1,-1,-1,-1,-1,-1,-1,-1,-1,-1,-1,-1,-1,-1,-1,-1,-1,-1,-1,-1,-1,-1,-1,-1,-1,-1,-1,-1,-1,-1,-1,-1],"split_conditions":[1.22369995E1,9E-1,1.6946787E1,1.637853E2,7.8999987E0,1.5690567E2,1.5987E1,1.2245293E1,3.334916E0,7.2999997E0,1.0990322E1,2.3000002E0,4E-1,1.5184917E1,1.438417E2,1.0259916E1,4E-1,1.3287122E1,5.8557506E0,7.6349177E0,1.0059281E1,6.8911653E0,2.1794127E1,1.1966954E1,1.2303252E2,1.3138765E1,9.693296E0,1.9376562E1,6.2107376E1,8.000001E-1,3.3847656E1,7.920334E0,1.2854639E1,8.854856E1,1.2620554E1,2.56825E0,1.3854155E1,3.5284387E2,3.4545816E2,1.1966954E1,8.484918E0,1.5987626E0,8.643138E0,1.9862083E1,3.3847656E1,1.4119913E2,1.8000001E0,1.7032833E1,1.52947035E1,2E-1,2.6599497E1,2.0736922E2,2.7570333E1,4.132012E1,2.4066206E1,1.715297E1,4E-1,2.0892412E1,2.949533E1,3.4443384E2,2E-1,5.122374E0,-1.7781569E0,-3.735727E0,1.3325494E1,1.6337775E0,-1.269979E0,1.5296828E1,2.2343976E0,8.08875E0,2.102657E0,-5.783392E0,1.7643974E0,6.936851E0,1.5330278E1,5.5030155E0,5.674739E-1,8.362086E0,-1.8390453E0,4.4081964E0,-2.3805663E-1,-3.5396612E0,3.8329835E0,-5.263158E0,8.385613E-1,2.9824674E0,-4.7288146E0,-1.2043507E0,4.2590356E0,-4.6444556E-1,-4.19138E0,2.246035E0,-4.356032E0,-1.5432973E-1,6.7029743E0,5.52785E0,-7.0247227E-1,2.5586991E0,-7.5228662E0,1.5122089E0,-1.4081826E0,-7.665335E0,-1.8535128E0,2.848282E0,-2.1781707E0,1.0692899E1,-2.7422829E0,1.2311136E0,8.591703E0,-2.2458913E0,-4.9633265E0,-5.467061E0,4.9590893E0,-9.567016E-1,-4.9212193E0,-4.3201604E0,-8.829611E0],"split_indices":[0,1,2,3,1,3,0,2,0,1,2,1,1,0,3,0,1,2,0,0,0,0,2,2,3,2,2,2,3,1,2,0,3,3,2,0,2,3,3,2,0,0,0,2,2,3,1,0,2,1,0,3,0,3,2,2,1,2,0,3,1,0,0,0,0,0,0,0,0,0,0,0,0,0,0,0,0,0,0,0,0,0,0,0,0,0,0,0,0,0,0,0,0,0,0,0,0,0,0,0,0,0,0,0,0,0,0,0,0,0,0,0,0,0,0,0,0],"split_type":[0,0,0,0,0,0,0,0,0,0,0,0,0,0,0,0,0,0,0,0,0,0,0,0,0,0,0,0,0,0,0,0,0,0,0,0,0,0,0,0,0,0,0,0,0,0,0,0,0,0,0,0,0,0,0,0,0,0,0,0,0,0,0,0,0,0,0,0,0,0,0,0,0,0,0,0,0,0,0,0,0,0,0,0,0,0,0,0,0,0,0,0,0,0,0,0,0,0,0,0,0,0,0,0,0,0,0,0,0,0,0,0,0,0,0,0,0],"sum_hessian":[2.34E3,8.13E2,1.527E3,5.96E2,2.17E2,6.88E2,8.39E2,2.81E2,3.15E2,1.55E2,6.2E1,4.62E2,2.26E2,1.63E2,6.76E2,7.1E1,2.1E2,9E1,2.25E2,1.51E2,4E0,2E0,6E1,3.53E2,1.09E2,1.13E2,1.13E2,1.26E2,3.7E1,3.16E2,3.6E2,6.3E1,8E0,1.85E2,2.5E1,1.4E1,7.6E1,7.7E1,1.48E2,6.4E1,8.7E1,1E0,1E0,3.7E1,2.3E1,7.3E1,2.8E2,8.2E1,2.7E1,3.4E1,7.9E1,7E0,1.06E2,3.8E1,8.8E1,1.3E1,2.4E1,1.69E2,1.47E2,3.45E2,1.5E1,4.7E1,1.6E1,2E0,6E0,1.33E2,5.2E1,3E0,2.2E1,1E1,4E0,4E0,7.2E1,7E1,7E0,1.13E2,3.5E1,2E0,6.2E1,2.3E1,6.4E1,3.1E1,6E0,2.2E1,1E0,6.8E1,5E0,2.67E2,1.3E1,1E1,7.2E1,1.8E1,9E0,3.1E1,3E0,6.3E1,1.6E1,2E0,5E0,6.7E1,3.9E1,9E0,2.9E1,4.8E1,4E1,1E0,1.2E1,1.4E1,1E1,1.13E2,5.6E1,1.45E2,2E0,3.19E2,2.6E1,5E0,1E1],"tree_param":{"num_deleted":"0","num_feature":"4","num_nodes":"117","size_leaf_vector":"1"}},{"base_weights":[2.8434256E-2,3.7094352E0,-4.775735E0,1.5534967E-1,6.8972125E0,-2.4209971E0,-9.984264E0,-8.052192E0,5.028739E-1,8.422E0,-9.1928935E-1,-4.026807E0,4.1594205E0,-8.766902E0,-1.7935677E1,1.9456276E0,-5.4749975E0,1.3835916E1,6.3512645E0,7.8746754E-1,-1.4371341E1,-3.1626666E0,-1.2657028E1,7.956488E0,-6.0422444E0,-1.0588236E1,-3.6520667E0,-6.1014557E0,-2.0619686E1,1.4639078E0,4.1443512E1,-1.0691937E0,-8.25883E0,8.069743E0,2.1407194E1,8.160061E0,-2.198586E0,5.6171045E0,-3.6990016E0,-1.9624762E1,-4.971556E0,7.7928174E-1,-4.9790726E0,1.3700859E1,-1.458983E1,1.1313021E1,-3.6440495E-1,-1.4065465E0,-1.5969045E1,-7.7522774E0,-1.4513556E1,-1.3298666E0,-2.2643984E1,-4.010713E0,2.3864226E0,-2.3400627E1,-6.9475293E0,2.5117993E0,-2.0227125E-2,1.5196972E1,-6.932654E-1,-2.07465E0,5.767301E0,-4.134673E0,-8.8455886E-1,-6.3816967E0,2.8882508E0,7.1214976E0,-3.9536827E0,3.614697E0,1.7109233E0,-3.7347238E0,1.360294E0,-1.283614E-1,4.9162498E0,-1.5790235E0,7.3951316E0,-1.5821812E0,-6.276438E0,7.702269E-1,-4.0099034E0,3.7951949E0,-1.5281245E-1,-5.2596235E-1,-2.145607E0,9.800408E-1,6.7504544E0,-5.711107E0,-3.220012E0,4.427979E0,1.2727299E0,-2.9365232E0,3.8136747E0,-3.5593574E0,1.3444748E0,-1.1812745E-1,-5.713418E0,-4.1752152E0,-9.44943E-1,5.4773223E-1,-5.1786404E0,2.3845916E0,-2.112612E0,-7.6038733E0,-5.5922586E-1,-9.3127275E-1,3.6523626E0,-8.089337E-1,-7.22797E0,-1.0860062E-2,-2.9114463E0],"categories":[],"categories_nodes":[],"categories_segments":[],"categories_sizes":[],"default_left":[0,0,0,0,0,0,0,0,0,0,0,0,0,0,0,0,0,0,0,0,0,0,0,0,0,0,0,0,0,0,0,0,0,0,0,0,0,0,0,0,0,0,0,0,0,0,0,0,0,0,0,0,0,0,0,0,0,0,0,0,0,0,0,0,0,0,0,0,0,0,0,0,0,0,0,0,0,0,0,0,0,0,0,0,0,0,0,0,0,0,0,0,0,0,0,0,0,0,0,0,0,0,0,0,0,0,0,0,0,0,0],"id":3,"left_children":[1,3,5,7,9,11,13,-1,15,17,19,21,23,25,27,29,31,33,35,37,39,41,43,45,47,49,51,53,55,57,59,61,63,65,67,69,71,73,75,77,79,81,83,85,87,89,91,93,95,97,99,101,103,-1,105,107,109,-1,-1,-1,-1,-1,-1,-1,-1,-1,-1,-1,-1,-1,-1,-1,-1,-1,-1,-1,-1,-1,-1,-1,-1,-1,-1,-1,-1,-1,-1,-1,-1,-1,-1,-1,-1,-1,-1,-1,-1,-1,-1,-1,-1,-1,-1,-1,-1,-1,-1,-1,-1,-1,-1],"loss_changes":[4.141631E4,1.5022023E4,1.2436783E4,5.9052427E3,8.338777E3,7.424145E3,2.9015625E3,0E0,5.366526E3,6.4704336E3,2.6516458E3,4.166125E3,5.3937E3,2.5325E3,1.1764795E3,9.471812E3,1.4752368E3,6.856076E3,6.590539E3,2.2525835E3,5.443877E2,3.6842114E3,2.7980674E3,2.8249858E3,1.7262095E3,2.147291E3,3.233511E3,5.870817E2,1.0921309E3,5.2480444E3,2.5357314E3,5.8277715E3,2.1298555E3,4.4556323E3,5.875957E3,3.2851016E3,5.2326123E3,3.2623506E3,2.5246536E3,3.853125E1,4.1404578E2,2.5000366E3,2.4548545E3,2.9379816E2,6.188887E2,1.6921426E3,3.821466E3,1.7157758E3,5.6735645E2,3.361128E3,3.8039512E3,3.6070032E3,4.0197363E2,0E0,3.0650916E2,3.2220898E2,1.3304456E2,0E0,0E0,0E0,0E0,0E0,0E0,0E0,0E0,0E0,0E0,0E0,0E0,0E0,0E0,0E0,0E0,0E0,0E0,0E0,0E0,0E0,0E0,0E0,0E0,0E0,0E0,0E0,0E0,0E0,0E0,0E0,0E0,0E0,0E0,0E0,0E0,0E0,0E0,0E0,0E0,0E0,0E0,0E0,0E0,0E0,0E0,0E0,0E0,0E0,0E0,0E0,0E0,0E0,0E0],"parents":[2147483647,0,0,1,1,2,2,3,3,4,4,5,5,6,6,8,8,9,9,10,10,11,11,12,12,13,13,14,14,15,15,16,16,17,17,18,18,19,19,20,20,21,21,22,22,23,23,24,24,25,25,26,26,27,27,28,28,29,29,30,30,31,31,32,32,33,33,34,34,35,35,36,36,37,37,38,38,39,39,40,40,41,41,42,42,43,43,44,44,45,45,46,46,47,47,48,48,49,49,50,50,51,51,52,52,54,54,55,55,56,56],"right_children":[2,4,6,8,10,12,14,-1,16,18,20,22,24,26,28,30,32,34,36,38,40,42,44,46,48,50,52,54,56,58,60,62,64,66,68,70,72,74,76,78,80,82,84,86,88,90,92,94,96,98,100,102,104,-1,106,108,110,-1,-1,-1,-1,-1,-1,-1,-1,-1,-1,-1,-1,-1,-1,-1,-1,-1,-1,-1,-1,-1,-1,-1,-1,-1,-1,-1,-1,-1,-1,-1,-1,-1,-1,-1,-1,-1,-1,-1,-1,-1,-1,-1,-1,-1,-1,-1,-1,-1,-1,-1,-1,-1,-1],"split_conditions":[1.8384916E1,1.24303535E2,2.0018072E1,1.2630161E0,2.4569832E1,1.968132E2,3.1104082E1,-8.052192E0,3.6E0,5.976583E0,3.3847656E1,1.5000001E1,3.1264673E2,1.8297554E2,7E-1,3.3999999E0,1.8057508E1,3.897417E0,3.4355173E2,3.1400116E2,3.107993E2,1.4512064E1,9.82114E0,8.500001E0,2.8999999E0,2.6103668E1,3.511996E2,2E-1,2.7374496E1,1.2245293E1,1.0782834E1,1.6870138E1,1.0099999E1,1.8816597E2,2.1000001E0,1.0709916E1,1.7771753E1,2.8551426E1,3.5751974E2,1.4170216E2,2E-1,1.9447416E1,1E-1,2.1600004E1,2.1E1,2.7570333E1,2.7089079E1,3.392243E2,2.2409914E1,8.590089E1,2.0746122E1,8E-1,1.0099999E1,-4.010713E0,2.1749498E1,2.050367E1,1.2900001E1,2.5117993E0,-2.0227125E-2,1.5196972E1,-6.932654E-1,-2.07465E0,5.767301E0,-4.134673E0,-8.8455886E-1,-6.3816967E0,2.8882508E0,7.1214976E0,-3.9536827E0,3.614697E0,1.7109233E0,-3.7347238E0,1.360294E0,-1.283614E-1,4.9162498E0,-1.5790235E0,7.3951316E0,-1.5821812E0,-6.276438E0,7.702269E-1,-4.0099034E0,3.7951949E0,-1.5281245E-1,-5.2596235E-1,-2.145607E0,9.800408E-1,6.7504544E0,-5.711107E0,-3.220012E0,4.427979E0,1.2727299E0,-2.9365232E0,3.8136747E0,-3.5593574E0,1.3444748E0,-1.1812745E-1,-5.713418E0,-4.1752152E0,-9.44943E-1,5.4773223E-1,-5.1786404E0,2.3845916E0,-2.112612E0,-7.6038733E0,-5.5922586E-1,-9.3127275E-1,3.6523626E0,-8.089337E-1,-7.22797E0,-1.0860062E-2,-2.9114463E0],"split_indices":[0,3,2,3,2,3,2,0,1,0,2,1,3,3,1,1,2,0,3,3,3,2,2,1,1,0,3,1,0,2,0,2,1,3,1,0,2,2,3,3,1,0,1,1,1,0,0,3,0,3,2,1,1,0,0,0,1,0,0,0,0,0,0,0,0,0,0,0,0,0,0,0,0,0,0,0,0,0,0,0,0,0,0,0,0,0,0,0,0,0,0,0,0,0,0,0,0,0,0,0,0,0,0,0,0,0,0,0,0,0,0],"split_type":[0,0,0,0,0,0,0,0,0,0,0,0,0,0,0,0,0,0,0,0,0,0,0,0,0,0,0,0,0,0,0,0,0,0,0,0,0,0,0,0,0,0,0,0,0,0,0,0,0,0,0,0,0,0,0,0,0,0,0,0,0,0,0,0,0,0,0,0,0,0,0,0,0,0,0,0,0,0,0,0,0,0,0,0,0,0,0,0,0,0,0,0,0,0,0,0,0,0,0,0,0,0,0,0,0,0,0,0,0,0,0],"sum_hessian":[2.34E3,1.325E3,1.015E3,6.27E2,6.98E2,7E2,3.15E2,7E0,6.2E2,5.84E2,1.14E2,5.63E2,1.37E2,2.75E2,4E1,5E2,1.2E2,1.6E2,4.24E2,1.02E2,1.2E1,5.13E2,5E1,1E2,3.7E1,2.02E2,7.3E1,8E0,3.2E1,4.95E2,5E0,4.7E1,7.3E1,9.2E1,6.8E1,3.5E2,7.4E1,4.9E1,5.3E1,7E0,5E0,1.62E2,3.51E2,3E0,4.7E1,7.1E1,2.9E1,2.6E1,1.1E1,1.19E2,8.3E1,6.6E1,7E0,4E0,4E0,2.6E1,6E0,8.9E1,4.06E2,4E0,1E0,3.7E1,1E1,3.5E1,3.8E1,4E0,8.8E1,6.4E1,4E0,1.34E2,2.16E2,2.9E1,4.5E1,3.2E1,1.7E1,5.1E1,2E0,1E0,6E0,3E0,2E0,1.5E1,1.47E2,1.42E2,2.09E2,2E0,1E0,2E1,2.7E1,4.7E1,2.4E1,1.7E1,1.2E1,9E0,1.7E1,2E0,9E0,5E1,6.9E1,1.2E1,7.1E1,2.5E1,4.1E1,6E0,1E0,3E0,1E0,1E0,2.5E1,2E0,4E0],"tree_param":{"num_deleted":"0","num_feature":"4","num_nodes":"111","size_leaf_vector":"1"}},{"base_weights":[1.0573528E-2,2.3080432E0,-3.8766518E0,3.872413E0,-1.6991435E0,-2.2019606E0,-7.4538717E0,1.226518E0,7.591918E0,-1.1099054E1,-9.6226966E-1,-4.972813E0,-1.7380406E-1,-9.765291E0,-4.8032413E0,8.080635E0,-1.7059208E-1,1.0577065E1,3.6810133E0,-1.7152328E1,-7.2148013E0,3.287659E0,-2.327102E0,2.1812826E-1,-6.9420056E0,-4.860779E-1,1.0645005E1,-1.0564781E1,-7.1172214E-1,-3.2007465E0,-1.4685529E1,-2.4339428E0,1.4080455E1,2.1697247E1,-6.0157394E-1,1.3380481E1,-5.6914216E-1,2.6541197E0,2.2105066E1,-6.644538E0,-6.662268E0,3.2138367E0,-1.307744E1,-1.3930676E1,4.6199393E0,-8.1566105E0,-1.8873967E0,3.6241455E0,-9.822819E0,5.868194E0,-7.487946E0,-8.00738E0,6.223614E-1,-7.3006377E0,-1.56344595E1,3.8737175E0,-4.3626876E0,-6.391132E0,2.0201197E0,2.3986473E0,-1.9738054E1,8.4275216E-1,-6.9306498E0,2.9203477E0,9.415232E0,-5.530774E-1,1.1309521E1,-2.845074E0,-6.9226464E-3,5.2188845E0,2.4665008E0,-2.6197784E0,1.4937893E0,-2.3000493E0,1.1689767E0,-1.6078411E0,1.0392366E1,-5.0766337E-1,-2.8146057E0,2.7829714E0,-6.837355E-1,9.561119E-1,-4.8973045E0,8.1674314E-1,-5.1479845E0,-8.0138695E-1,2.218767E0,-4.3223295E-1,-5.2017026E0,6.9579124E-1,5.708589E0,-4.5682263E0,3.8700438E0,3.5814312E0,-2.4683073E0,-5.6878405E0,-2.003339E0,-4.2409163E0,-3.7074295E-1,1.304735E0,-3.164953E-1,-2.7765977E0,-1.7486149E-1,-2.4964585E0,-5.7783785E0,5.499295E-1,-3.6492753E0,-1.2541614E0,-3.8003557E0,5.2927933E0,-9.280925E-1,-1.979292E0,5.75757E0,-6.3108454E0,-2.3898966E0],"categories":[],"categories_nodes":[],"categories_segments":[],"categories_sizes":[],"default_left":[0,0,0,0,0,0,0,0,0,0,0,0,0,0,0,0,0,0,0,0,0,0,0,0,0,0,0,0,0,0,0,0,0,0,0,0,0,0,0,0,0,0,0,0,0,0,0,0,0,0,0,0,0,0,0,0,0,0,0,0,0,0,0,0,0,0,0,0,0,0,0,0,0,0,0,0,0,0,0,0,0,0,0,0,0,0,0,0,0,0,0,0,0,0,0,0,0,0,0,0,0,0,0,0,0,0,0,0,0,0,0,0,0,0,0],"id":4,"left_children":[1,3,5,7,9,11,13,15,17,19,21,23,25,27,29,31,33,35,37,39,41,43,45,47,49,51,-1,53,55,57,59,61,63,65,67,69,71,73,75,77,-1,79,81,83,85,-1,87,89,91,93,95,97,99,101,103,-1,105,107,109,111,113,-1,-1,-1,-1,-1,-1,-1,-1,-1,-1,-1,-1,-1,-1,-1,-1,-1,-1,-1,-1,-1,-1,-1,-1,-1,-1,-1,-1,-1,-1,-1,-1,-1,-1,-1,-1,-1,-1,-1,-1,-1,-1,-1,-1,-1,-1,-1,-1,-1,-1,-1,-1,-1,-1],"loss_changes":[2.091591E4,9.234139E3,5.1955303E3,1.0412751E4,2.8569111E3,3.3372512E3,1.6501963E3,5.9384717E3,5.0979023E3,5.8162256E2,2.24082E3,2.5672275E3,3.8476172E3,1.056501E3,2.027553E3,6.6582563E3,4.8761675E3,7.7882266E3,3.573883E3,4.3675366E2,1.2648152E3,2.2206863E3,3.1407617E3,2.4295742E3,1.3167773E3,2.8562056E3,0E0,2.1198604E3,7.029679E2,1.9117603E3,1.6010723E3,4.2911685E3,4.732961E3,3.8363066E3,2.604862E3,3.9796094E3,2.3534978E3,2.3765679E3,3.6286553E3,5.1908157E1,0E0,2.87561E2,7.385471E2,4.231604E2,1.8008842E3,0E0,1.9625072E3,1.0211886E3,2.4069907E3,7.82709E2,1.4997803E3,1.8086621E3,1.8736542E3,1.0976206E3,1.2188896E3,0E0,5.540032E2,9.321863E2,3.5697336E3,8.820058E2,4.6351074E1,0E0,0E0,0E0,0E0,0E0,0E0,0E0,0E0,0E0,0E0,0E0,0E0,0E0,0E0,0E0,0E0,0E0,0E0,0E0,0E0,0E0,0E0,0E0,0E0,0E0,0E0,0E0,0E0,0E0,0E0,0E0,0E0,0E0,0E0,0E0,0E0,0E0,0E0,0E0,0E0,0E0,0E0,0E0,0E0,0E0,0E0,0E0,0E0,0E0,0E0,0E0,0E0,0E0,0E0],"parents":[2147483647,0,0,1,1,2,2,3,3,4,4,5,5,6,6,7,7,8,8,9,9,10,10,11,11,12,12,13,13,14,14,15,15,16,16,17,17,18,18,19,19,20,20,21,21,22,22,23,23,24,24,25,25,27,27,28,28,29,29,30,30,31,31,32,32,33,33,34,34,35,35,36,36,37,37,38,38,39,39,41,41,42,42,43,43,44,44,46,46,47,47,48,48,49,49,50,50,51,51,52,52,53,53,54,54,56,56,57,57,58,58,59,59,60,60],"right_children":[2,4,6,8,10,12,14,16,18,20,22,24,26,28,30,32,34,36,38,40,42,44,46,48,50,52,-1,54,56,58,60,62,64,66,68,70,72,74,76,78,-1,80,82,84,86,-1,88,90,92,94,96,98,100,102,104,-1,106,108,110,112,114,-1,-1,-1,-1,-1,-1,-1,-1,-1,-1,-1,-1,-1,-1,-1,-1,-1,-1,-1,-1,-1,-1,-1,-1,-1,-1,-1,-1,-1,-1,-1,-1,-1,-1,-1,-1,-1,-1,-1,-1,-1,-1,-1,-1,-1,-1,-1,-1,-1,-1,-1,-1,-1,-1],"split_conditions":[2.024742E1,9.000001E-1,1.9862083E1,1.6886333E2,1.1742097E1,1.2303252E2,1.5956343E2,6.5661674E0,1.8844202E1,2E0,1.5725037E1,1E-1,1.9813087E1,2.926825E1,3.318117E2,4.5224166E0,9.243311E0,3.4355173E2,6E-1,4.825916E0,4.7E0,1.0703569E1,1.6075521E1,1.7462782E1,8.52195E0,2.2166166E1,1.0645005E1,2.6326584E1,2.0390114E1,2.1773427E2,2.129325E1,2.0345573E1,8.590089E1,8.699793E0,1.0703569E1,9.291167E0,3.511996E2,-3.1750172E-2,2.0240198E1,1.3000002E0,-6.662268E0,2.5E0,1.7106628E1,6.8911653E0,4.6400906E1,-8.1566105E0,3.1100002E1,1.715297E1,1.9694992E1,2.6599497E1,1.9057816E1,1.5725037E1,1.457889E1,1.3635098E2,8.007378E1,3.8737175E0,1.5290356E2,9.1E0,4E-1,2.0972414E1,2.4653666E1,8.4275216E-1,-6.9306498E0,2.9203477E0,9.415232E0,-5.530774E-1,1.1309521E1,-2.845074E0,-6.9226464E-3,5.2188845E0,2.4665008E0,-2.6197784E0,1.4937893E0,-2.3000493E0,1.1689767E0,-1.6078411E0,1.0392366E1,-5.0766337E-1,-2.8146057E0,2.7829714E0,-6.837355E-1,9.561119E-1,-4.8973045E0,8.1674314E-1,-5.1479845E0,-8.0138695E-1,2.218767E0,-4.3223295E-1,-5.2017026E0,6.9579124E-1,5.708589E0,-4.5682263E0,3.8700438E0,3.5814312E0,-2.4683073E0,-5.6878405E0,-2.003339E0,-4.2409163E0,-3.7074295E-1,1.304735E0,-3.164953E-1,-2.7765977E0,-1.7486149E-1,-2.4964585E0,-5.7783785E0,5.499295E-1,-3.6492753E0,-1.2541614E0,-3.8003557E0,5.2927933E0,-9.280925E-1,-1.979292E0,5.75757E0,-6.3108454E0,-2.3898966E0],"split_indices":[0,1,2,3,3,3,3,0,2,1,2,1,2,0,3,0,2,3,1,3,1,2,2,2,3,0,0,0,2,3,0,2,3,2,2,0,3,0,2,1,0,1,2,0,3,0,1,2,2,0,3,2,2,3,3,0,3,1,1,0,0,0,0,0,0,0,0,0,0,0,0,0,0,0,0,0,0,0,0,0,0,0,0,0,0,0,0,0,0,0,0,0,0,0,0,0,0,0,0,0,0,0,0,0,0,0,0,0,0,0,0,0,0,0,0],"split_type":[0,0,0,0,0,0,0,0,0,0,0,0,0,0,0,0,0,0,0,0,0,0,0,0,0,0,0,0,0,0,0,0,0,0,0,0,0,0,0,0,0,0,0,0,0,0,0,0,0,0,0,0,0,0,0,0,0,0,0,0,0,0,0,0,0,0,0,0,0,0,0,0,0,0,0,0,0,0,0,0,0,0,0,0,0,0,0,0,0,0,0,0,0,0,0,0,0,0,0,0,0,0,0,0,0,0,0,0,0,0,0,0,0,0,0],"sum_hessian":[2.34E3,1.471E3,8.69E2,1.058E3,4.13E2,5.93E2,2.76E2,6.19E2,4.39E2,2.9E1,3.84E2,2.5E2,3.43E2,1.46E2,1.3E2,1.04E2,5.15E2,2.48E2,1.91E2,1E1,1.9E1,9.3E1,2.91E2,6.9E1,1.81E2,3.41E2,2E0,1.34E2,1.2E1,1.13E2,1.7E1,3.8E1,6.6E1,9E0,5.06E2,1.98E2,5E1,1.82E2,9E0,4E0,6E0,7E0,1.2E1,6E0,8.7E1,4E0,2.87E2,5.2E1,1.7E1,7E0,1.74E2,4.3E1,2.98E2,8.3E1,5.1E1,2E0,1E1,7E1,4.3E1,4E0,1.3E1,3.1E1,7E0,5.4E1,1.2E1,4E0,5E0,3E1,4.76E2,1.1E2,8.8E1,2E1,3E1,1.9E1,1.63E2,3E0,6E0,2E0,2E0,3E0,4E0,2E0,1E1,1E0,5E0,2.4E1,6.3E1,2.8E2,7E0,4.9E1,3E0,1.4E1,3E0,5E0,2E0,1E1,1.64E2,2.2E1,2.1E1,9.2E1,2.06E2,6.4E1,1.9E1,1.8E1,3.3E1,6E0,4E0,5.3E1,1.7E1,1E1,3.3E1,3E0,1E0,1.1E1,2E0],"tree_param":{"num_deleted":"0","num_feature":"4","num_nodes":"115","size_leaf_vector":"1"}},{"base_weights":[3.0952676E-3,2.9452524E0,-1.5642601E0,5.1274934E0,-3.0382293E-1,8.242532E-1,-2.7758183E0,5.1831806E-1,6.4239764E0,-8.933807E0,4.9997568E-1,-9.206838E0,1.5079007E0,-4.758692E0,-7.7570313E-1,2.906671E0,-1.448325E1,5.67163E0,3.3693634E1,-1.109608E1,7.417134E0,9.64776E0,-5.108093E-1,1.5408301E0,-1.8248829E1,1.0578189E0,1.7698719E1,1.9530514E0,-5.4457154E0,9.469427E-2,-9.082718E0,5.137766E0,-1.0209426E1,-1.8290209E1,5.5843925E-1,1.6921364E1,4.5232196E0,1.4292387E1,1.0217722E1,-1.4028012E1,1.7035385E1,-1.2388024E1,1.5672874E1,1.1016817E1,-1.5693077E0,-6.5173807E0,8.580899E0,3.9608335E0,-2.0875557E1,4.0962815E0,-9.5728254E-1,2.0356934E1,-2.1299767E0,-7.5195775E0,1.1738996E1,1.9498899E0,-6.2484784E0,2.282354E0,-4.9580646E0,-1.855058E1,-5.7665815E0,-2.1412617E-2,4.500143E0,-6.708047E0,1.5406835E0,-1.6206542E0,-7.2176847E0,4.001126E0,-2.4440415E0,6.748713E0,-1.2021667E0,1.4319882E0,-7.4978437E0,-1.3860856E-1,7.9405084E0,-2.2150567E0,-6.5440226E0,8.439137E-1,6.82201E0,2.7828484E0,-6.8726797E0,-3.7068565E0,6.0796247E0,-5.70165E-1,8.399835E0,-2.951956E0,4.440398E-2,1.2507184E0,6.569202E0,-7.0114284E0,-4.3130496E-1,1.0292047E0,7.114303E0,-2.4154077E0,5.13838E-2,-9.479502E-1,6.8346243E0,6.313726E0,-3.2755656E0,9.664481E0,4.2381945E-1,5.938808E0,-5.28256E-1,-1.98443E0,5.3173214E-1,1.7836639E0,-1.1224759E0,-2.2882204E0,1.3762817E0,-6.55915E0,-3.9686206E-1,4.3754377E0,-2.6026134E0],"categories":[],"categories_nodes":[],"categories_segments":[],"categories_sizes":[],"default_left":[0,0,0,0,0,0,0,0,0,0,0,0,0,0,0,0,0,0,0,0,0,0,0,0,0,0,0,0,0,0,0,0,0,0,0,0,0,0,0,0,0,0,0,0,0,0,0,0,0,0,0,0,0,0,0,0,0,0,0,0,0,0,0,0,0,0,0,0,0,0,0,0,0,0,0,0,0,0,0,0,0,0,0,0,0,0,0,0,0,0,0,0,0,0,0,0,0,0,0,0,0,0,0,0,0,0,0,0,0,0,0,0,0],"id":5,"left_children":[1,3,5,7,9,11,13,15,17,19,21,23,25,27,29,31,33,35,37,39,-1,41,43,45,47,49,51,53,55,57,59,61,63,65,67,69,71,-1,73,75,77,79,81,83,85,-1,87,-1,89,91,93,95,-1,97,99,101,103,105,107,109,111,-1,-1,-1,-1,-1,-1,-1,-1,-1,-1,-1,-1,-1,-1,-1,-1,-1,-1,-1,-1,-1,-1,-1,-1,-1,-1,-1,-1,-1,-1,-1,-1,-1,-1,-1,-1,-1,-1,-1,-1,-1,-1,-1,-1,-1,-1,-1,-1,-1,-1,-1,-1],"loss_changes":[1.0799907E4,5.7730337E3,4.42405E3,2.9068457E3,2.279727E3,3.5456138E3,4.0178066E3,3.9116343E3,7.6050693E3,2.3120896E3,2.7881077E3,3.2350686E3,3.5009924E3,2.3577002E3,3.6594446E3,2.8031997E3,8.6916016E2,4.7165234E3,2.7875547E3,2.4659207E3,0E0,4.177199E3,3.3362256E3,2.8070605E3,1.7626821E3,2.8877651E3,1.0014939E3,4.5378057E3,2.755038E3,5.0849727E3,1.4000691E3,4.1625464E3,2.7251804E3,7.622019E2,5.5361957E2,4.0566934E3,2.6141416E3,0E0,8.7999304E2,1.13219E3,1.7943152E2,1.807995E3,3.3397944E3,5.098745E3,3.5522515E3,0E0,6.724583E2,0E0,7.911455E2,2.3735034E3,2.2751123E3,7.563667E2,0E0,2.6571094E3,5.029047E3,3.0810896E3,1.2368574E3,7.105704E3,3.5767957E3,6.560337E2,2.3168545E3,0E0,0E0,0E0,0E0,0E0,0E0,0E0,0E0,0E0,0E0,0E0,0E0,0E0,0E0,0E0,0E0,0E0,0E0,0E0,0E0,0E0,0E0,0E0,0E0,0E0,0E0,0E0,0E0,0E0,0E0,0E0,0E0,0E0,0E0,0E0,0E0,0E0,0E0,0E0,0E0,0E0,0E0,0E0,0E0,0E0,0E0,0E0,0E0,0E0,0E0,0E0,0E0],"parents":[2147483647,0,0,1,1,2,2,3,3,4,4,5,5,6,6,7,7,8,8,9,9,10,10,11,11,12,12,13,13,14,14,15,15,16,16,17,17,18,18,19,19,21,21,22,22,23,23,24,24,25,25,26,26,27,27,28,28,29,29,30,30,31,31,32,32,33,33,34,34,35,35,36,36,38,38,39,39,40,40,41,41,42,42,43,43,44,44,46,46,48,48,49,49,50,50,51,51,53,53,54,54,55,55,56,56,57,57,58,58,59,59,60,60],"right_children":[2,4,6,8,10,12,14,16,18,20,22,24,26,28,30,32,34,36,38,40,-1,42,44,46,48,50,52,54,56,58,60,62,64,66,68,70,72,-1,74,76,78,80,82,84,86,-1,88,-1,90,92,94,96,-1,98,100,102,104,106,108,110,112,-1,-1,-1,-1,-1,-1,-1,-1,-1,-1,-1,-1,-1,-1,-1,-1,-1,-1,-1,-1,-1,-1,-1,-1,-1,-1,-1,-1,-1,-1,-1,-1,-1,-1,-1,-1,-1,-1,-1,-1,-1,-1,-1,-1,-1,-1,-1,-1,-1,-1,-1,-1],"split_conditions":[1.22369995E1,1E-1,1.5683774E1,3.334916E0,2E-1,1.3426583E1,1.438417E2,3.016166E0,3.5532764E2,3.5676456E2,1.3138765E1,1.2245293E1,1.5546833E1,1.4230748E1,3.4443384E2,3.4068494E2,3.344904E2,4.257833E0,3.5751974E2,2.3933908E1,7.417134E0,1.0805999E1,3E-1,1.0315115E1,1.2422416E1,2.0099499E1,2.2454169E2,2.1535404E1,1.2219308E1,2.7570333E1,1.4520332E1,2.1474168E0,2.0240198E1,5.492695E1,3.4443384E2,3.2953214E2,2.9882166E1,1.4292387E1,6.501583E0,1.5459073E2,7.297417E0,6.8911653E0,4.5224166E0,1.4679675E2,1.6075521E1,-6.5173807E0,1.210157E1,3.9608335E0,3.3999999E0,1.980783E1,2.1520332E1,7.013442E1,-2.1299767E0,1.629174E1,2.259699E1,1.7287498E1,2.949533E1,2.3999999E0,2.0203021E2,1.43E1,1.5853667E1,-2.1412617E-2,4.500143E0,-6.708047E0,1.5406835E0,-1.6206542E0,-7.2176847E0,4.001126E0,-2.4440415E0,6.748713E0,-1.2021667E0,1.4319882E0,-7.4978437E0,-1.3860856E-1,7.9405084E0,-2.2150567E0,-6.5440226E0,8.439137E-1,6.82201E0,2.7828484E0,-6.8726797E0,-3.7068565E0,6.0796247E0,-5.70165E-1,8.399835E0,-2.951956E0,4.440398E-2,1.2507184E0,6.569202E0,-7.0114284E0,-4.3130496E-1,1.0292047E0,7.114303E0,-2.4154077E0,5.13838E-2,-9.479502E-1,6.8346243E0,6.313726E0,-3.2755656E0,9.664481E0,4.2381945E-1,5.938808E0,-5.28256E-1,-1.98443E0,5.3173214E-1,1.7836639E0,-1.1224759E0,-2.2882204E0,1.3762817E0,-6.55915E0,-3.9686206E-1,4.3754377E0,-2.6026134E0],"split_indices":[0,1,2,0,1,0,3,0,3,3,2,2,2,0,3,3,3,0,3,2,0,2,1,2,0,0,3,2,3,0,0,0,2,3,3,3,2,0,0,3,0,0,0,3,2,0,2,0,1,0,0,3,0,2,2,2,0,1,3,1,0,0,0,0,0,0,0,0,0,0,0,0,0,0,0,0,0,0,0,0,0,0,0,0,0,0,0,0,0,0,0,0,0,0,0,0,0,0,0,0,0,0,0,0,0,0,0,0,0,0,0,0,0],"split_type":[0,0,0,0,0,0,0,0,0,0,0,0,0,0,0,0,0,0,0,0,0,0,0,0,0,0,0,0,0,0,0,0,0,0,0,0,0,0,0,0,0,0,0,0,0,0,0,0,0,0,0,0,0,0,0,0,0,0,0,0,0,0,0,0,0,0,0,0,0,0,0,0,0,0,0,0,0,0,0,0,0,0,0,0,0,0,0,0,0,0,0,0,0,0,0,0,0,0,0,0,0,0,0,0,0,0,0,0,0,0,0,0,0],"sum_hessian":[2.34E3,8.13E2,1.527E3,4.86E2,3.27E2,5.14E2,1.013E3,1.07E2,3.79E2,2.7E1,3E2,3.2E1,4.82E2,5.08E2,5.05E2,9.3E1,1.4E1,3.7E2,9E0,2.6E1,1E0,2.9E1,2.71E2,1.5E1,1.7E1,4.7E2,1.2E1,4.7E1,4.61E2,4.58E2,4.7E1,8E1,1.3E1,1.1E1,3E0,3.3E1,3.37E2,5E0,4E0,2.4E1,2E0,6E0,2.3E1,2.2E1,2.49E2,3E0,1.2E1,1E0,1.6E1,1.87E2,2.83E2,1.1E1,1E0,2.4E1,2.3E1,4.5E1,4.16E2,3.2E2,1.38E2,1.1E1,3.6E1,5.3E1,2.7E1,7E0,6E0,4E0,7E0,1E0,2E0,2.6E1,7E0,3.35E2,2E0,3E0,1E0,1.4E1,1E1,1E0,1E0,2E0,4E0,3E0,2E1,1.3E1,9E0,4.2E1,2.07E2,1E1,2E0,1.4E1,2E0,1.82E2,5E0,3.8E1,2.45E2,1E0,1E1,2E0,2.2E1,7E0,1.6E1,7E0,3.8E1,3.98E2,1.8E1,1.99E2,1.21E2,1.08E2,3E1,9E0,2E0,4E0,3.2E1],"tree_param":{"num_deleted":"0","num_feature":"4","num_nodes":"113","size_leaf_vector":"1"}},{"base_weights":[2.0167675E-2,1.673639E0,-1.4046202E0,2.3834708E0,-6.006107E0,-1.1286153E0,-1.1943791E1,-2.0120613E1,2.5636425E0,-1.7532963E1,-4.544966E0,-2.439591E0,1.7144099E-1,-1.3077725E1,-7.368164E-1,4.6647036E-1,-2.3439243E1,2.8596035E1,2.428484E0,-7.002519E0,-1.1708958E1,1.8930547E0,-6.1106586E0,-7.685379E-2,-3.7593932E0,1.3346844E0,-3.2163022E0,-3.4494064E0,-4.3440843E0,8.1777483E-1,-8.3990973E-1,-2.0516546E0,-7.5198507E0,1.0816794E1,-1.8656273E-1,6.561345E-1,4.4798512E0,-7.9913527E-1,-3.831757E0,2.5548534E0,-1.3448443E-1,-6.60214E0,3.9490678E0,1.8483163E0,-5.241446E0,1.6094882E0,-4.753687E0,1.342617E1,8.763036E-2,-7.5413065E0,-2.6298387E0,1.4056534E0,-3.1303566E0,2.8530762E-1,-6.428409E0,2.2389593E0,5.7446456E-1,-7.5686616E-1,2.8391862E0,-3.4437308E-1,-2.541299E0,2.7888176E-1,9.097849E0,-4.4560156E0,-1.0431134E0,2.4245362E0,-8.072876E-1,-3.4013662E0,-1.0287582E0,1.406347E1,3.1952975E0,-8.5047036E-1,5.000294E-1,-2.9939485E-1,-3.2063916E0],"categories":[],"categories_nodes":[],"categories_segments":[],"categories_sizes":[],"default_left":[0,0,0,0,0,0,0,0,0,0,0,0,0,0,0,0,0,0,0,0,0,0,0,0,0,0,0,0,0,0,0,0,0,0,0,0,0,0,0,0,0,0,0,0,0,0,0,0,0,0,0,0,0,0,0,0,0,0,0,0,0,0,0,0,0,0,0,0,0,0,0,0,0,0,0],"id":6,"left_children":[1,3,5,7,9,11,13,15,17,19,21,23,25,27,29,-1,31,33,35,-1,37,39,41,43,45,47,49,51,-1,-1,-1,-1,-1,-1,-1,53,55,-1,-1,-1,57,59,-1,61,63,65,67,69,71,-1,73,-1,-1,-1,-1,-1,-1,-1,-1,-1,-1,-1,-1,-1,-1,-1,-1,-1,-1,-1,-1,-1,-1,-1,-1],"loss_changes":[5.5173867E3,5.9235547E3,3.6458704E3,4.0777974E3,1.4698098E3,2.0916458E3,3.9701904E2,6.119099E2,3.399794E3,6.4995605E1,8.4820435E2,1.90502E3,2.435748E3,3.416748E2,3.620459E1,0E0,1.7629639E1,1.1122422E3,3.5673564E3,0E0,3.3317627E1,2.2943222E2,7.2159326E2,2.197086E3,2.1002437E3,6.935043E3,1.9651545E3,3.3300778E2,0E0,0E0,0E0,0E0,0E0,0E0,0E0,3.4589355E3,3.467456E3,0E0,0E0,0E0,3.4482553E2,6.6302563E2,0E0,4.1840347E3,9.6591345E2,1.7474419E3,2.8476816E3,3.4926255E3,1.9338241E3,0E0,2.0275388E3,0E0,0E0,0E0,0E0,0E0,0E0,0E0,0E0,0E0,0E0,0E0,0E0,0E0,0E0,0E0,0E0,0E0,0E0,0E0,0E0,0E0,0E0,0E0,0E0],"parents":[2147483647,0,0,1,1,2,2,3,3,4,4,5,5,6,6,7,7,8,8,9,9,10,10,11,11,12,12,13,13,14,14,16,16,17,17,18,18,20,20,21,21,22,22,23,23,24,24,25,25,26,26,27,27,35,35,36,36,40,40,41,41,43,43,44,44,45,45,46,46,47,47,48,48,50,50],"right_children":[2,4,6,8,10,12,14,16,18,20,22,24,26,28,30,-1,32,34,36,-1,38,40,42,44,46,48,50,52,-1,-1,-1,-1,-1,-1,-1,54,56,-1,-1,-1,58,60,-1,62,64,66,68,70,72,-1,74,-1,-1,-1,-1,-1,-1,-1,-1,-1,-1,-1,-1,-1,-1,-1,-1,-1,-1,-1,-1,-1,-1,-1,-1],"split_conditions":[1E-1,2.7089079E1,3.3847656E1,2.3895054E0,2.8195335E1,1.305735E2,2.7374496E1,2.56825E0,3.4457805E0,1.4336861E1,1.6203999E1,1.5725037E1,3.221968E2,7.297417E0,1.2900001E1,4.6647036E-1,3.11825E0,1.7651583E1,1.5459073E2,-7.002519E0,1.8345877E1,2.9409918E1,2.1773427E2,9.798003E1,1.33925295E1,1.03724165E1,3.243407E2,3.1400116E2,-4.3440843E0,8.1777483E-1,-8.3990973E-1,-2.0516546E0,-7.5198507E0,1.0816794E1,-1.8656273E-1,1.5290356E2,2.8627167E2,-7.9913527E-1,-3.831757E0,2.5548534E0,3.1957832E1,1.5459073E2,3.9490678E0,9.396989E1,1.0601583E1,8E-1,1.679314E1,1.438417E2,1.5E0,-7.5413065E0,2.2409914E1,1.4056534E0,-3.1303566E0,2.8530762E-1,-6.428409E0,2.2389593E0,5.7446456E-1,-7.5686616E-1,2.8391862E0,-3.4437308E-1,-2.541299E0,2.7888176E-1,9.097849E0,-4.4560156E0,-1.0431134E0,2.4245362E0,-8.072876E-1,-3.4013662E0,-1.0287582E0,1.406347E1,3.1952975E0,-8.5047036E-1,5.000294E-1,-2.9939485E-1,-3.2063916E0],"split_indices":[1,0,2,3,0,3,0,0,3,2,2,2,3,0,1,0,0,0,3,0,2,0,3,3,3,0,3,3,0,0,0,0,0,0,0,3,3,0,0,0,0,3,0,3,0,1,2,3,1,0,0,0,0,0,0,0,0,0,0,0,0,0,0,0,0,0,0,0,0,0,0,0,0,0,0],"split_type":[0,0,0,0,0,0,0,0,0,0,0,0,0,0,0,0,0,0,0,0,0,0,0,0,0,0,0,0,0,0,0,0,0,0,0,0,0,0,0,0,0,0,0,0,0,0,0,0,0,0,0,0,0,0,0,0,0,0,0,0,0,0,0,0,0,0,0,0,0,0,0,0,0,0,0],"sum_hessian":[2.34E3,1.083E3,1.257E3,9.92E2,9.1E1,1.226E3,3.1E1,7E0,9.85E2,9E0,8.2E1,6.1E2,6.16E2,2.8E1,3E0,1E0,6E0,4E0,9.81E2,3E0,6E0,1.6E1,6.6E1,2.19E2,3.91E2,4.59E2,1.57E2,4E0,2.4E1,1E0,2E0,1E0,5E0,3E0,1E0,5.27E2,4.54E2,1E0,5E0,3E0,1.3E1,6.5E1,1E0,1.6E2,5.9E1,6.1E1,3.3E2,4.2E1,4.17E2,3E0,1.54E2,2E0,2E0,5.21E2,6E0,2.09E2,2.45E2,1.1E1,2E0,1.7E1,4.8E1,1.56E2,4E0,8E0,5.1E1,2.4E1,3.7E1,5.4E1,2.76E2,2E0,4E1,1.46E2,2.71E2,1.29E2,2.5E1],"tree_param":{"num_deleted":"0","num_feature":"4","num_nodes":"75","size_leaf_vector":"1"}},{"base_weights":[1.1168438E-2,1.7234194E0,-9.16543E-1,2.254982E0,-4.5101104E0,-7.498494E-1,-9.16511E0,-5.4991407E0,2.3609169E0,-3.0355163E0,-1.3348083E1,-2.4999535E0,-4.9103662E-2,-1.0809887E1,-2.216575E0,1.7257694E1,2.1986537E0,-4.1109924E0,1.7693386E1,-4.586864E0,-4.3686385E0,9.1923685E0,-3.4729145E0,2.1700533E1,-2.3424806E-1,-1.3663427E1,-8.186867E0,7.395045E-2,-9.442725E-1,6.7759285E0,9.740599E0,-6.1746078E0,2.593196E0,-1.2243599E1,-2.4662168E0,7.4622684E0,4.997555E-1,-3.9362872E-1,-1.5722586E0,-5.0291634E0,1.2346789E1,-4.3000517E0,1.9299875E0,3.520033E1,-3.9742966E0,1.350233E-1,-5.442903E0,-4.6255345E0,3.1976396E-1,2.6962357E0,-1.0055565E1,6.951084E-1,-6.618307E-1,-9.0056497E-1,8.349749E0,1.0937047E0,-2.5227478E0,3.1035802E0,6.2843406E-1,-4.5205154E0,-4.7136995E-1,7.1558614E0,-1.4408432E0,6.68711E0,1.3438157E0,-1.0190607E0,-2.655623E0,4.1245236E0,-4.477971E-1,1.2485751E1,4.6592048E-1,-3.471595E0,7.2467804E-1,-2.4305974E-1,7.8407204E-1,-3.9625547E0,-8.108487E-1,-1.1178678E0,-3.4329002E0],"categories":[],"categories_nodes":[],"categories_segments":[],"categories_sizes":[],"default_left":[0,0,0,0,0,0,0,0,0,0,0,0,0,0,0,0,0,0,0,0,0,0,0,0,0,0,0,0,0,0,0,0,0,0,0,0,0,0,0,0,0,0,0,0,0,0,0,0,0,0,0,0,0,0,0,0,0,0,0,0,0,0,0,0,0,0,0,0,0,0,0,0,0,0,0,0,0,0,0],"id":7,"left_children":[1,3,5,7,9,11,13,-1,15,17,19,21,23,25,27,29,31,33,35,-1,37,39,41,43,45,47,49,51,-1,53,-1,55,57,59,61,-1,-1,-1,-1,-1,63,65,67,69,71,73,75,-1,-1,-1,77,-1,-1,-1,-1,-1,-1,-1,-1,-1,-1,-1,-1,-1,-1,-1,-1,-1,-1,-1,-1,-1,-1,-1,-1,-1,-1,-1,-1],"loss_changes":[3.7201992E3,2.73719E3,2.081728E3,1.6984421E3,8.0658887E2,1.8271804E3,3.189026E2,0E0,1.7894585E3,1.3434634E3,9.010498E1,4.878175E3,4.29365E3,6.777661E1,1.5160118E1,1.0554973E3,2.490412E3,7.055019E2,3.038368E2,0E0,1.1214523E0,2.9089185E3,1.7690615E3,3.2593413E3,2.033776E3,2.7493677E2,5.717781E2,2.0454607E1,0E0,1.3188726E3,0E0,7.7675085E2,2.7447778E3,2.4764832E2,3.0049211E3,0E0,0E0,0E0,0E0,0E0,2.2470566E3,1.3759985E3,2.1643857E3,1.2312207E3,2.2214674E2,2.3167852E3,1.4537844E3,0E0,0E0,0E0,8.030249E1,0E0,0E0,0E0,0E0,0E0,0E0,0E0,0E0,0E0,0E0,0E0,0E0,0E0,0E0,0E0,0E0,0E0,0E0,0E0,0E0,0E0,0E0,0E0,0E0,0E0,0E0,0E0,0E0],"parents":[2147483647,0,0,1,1,2,2,3,3,4,4,5,5,6,6,8,8,9,9,10,10,11,11,12,12,13,13,14,14,15,15,16,16,17,17,18,18,20,20,21,21,22,22,23,23,24,24,25,25,26,26,27,27,29,29,31,31,32,32,33,33,34,34,40,40,41,41,42,42,43,43,44,44,45,45,46,46,50,50],"right_children":[2,4,6,8,10,12,14,-1,16,18,20,22,24,26,28,30,32,34,36,-1,38,40,42,44,46,48,50,52,-1,54,-1,56,58,60,62,-1,-1,-1,-1,-1,64,66,68,70,72,74,76,-1,-1,-1,78,-1,-1,-1,-1,-1,-1,-1,-1,-1,-1,-1,-1,-1,-1,-1,-1,-1,-1,-1,-1,-1,-1,-1,-1,-1,-1,-1,-1],"split_conditions":[1.2422416E1,7.8999987E0,3.3847656E1,1.2630161E0,2.06E1,7.7941284E1,2.6326584E1,-5.4991407E0,3.4457805E0,1.9699997E1,8.951584E0,1.1525623E1,7.904124E1,7.5E0,1.4049237E2,2.3895054E0,9.203971E0,8.500001E0,6.8911653E0,-4.586864E0,1.0072416E1,8.39078E0,2.3806318E1,3.0999997E0,3.4355173E2,3.356047E2,3.4979332E1,1.2900001E1,-9.442725E-1,9.1640835E0,9.740599E0,1.420062E1,1.7687748E1,2.5323128E1,8.999999E0,7.4622684E0,4.997555E-1,-3.9362872E-1,-1.5722586E0,-5.0291634E0,1.998075E1,6.45653E1,2.5199997E1,1.8218275E1,1.431825E1,1.968132E2,1.54557495E1,-4.6255345E0,3.1976396E-1,2.6962357E0,1.7800001E1,6.951084E-1,-6.618307E-1,-9.0056497E-1,8.349749E0,1.0937047E0,-2.5227478E0,3.1035802E0,6.2843406E-1,-4.5205154E0,-4.7136995E-1,7.1558614E0,-1.4408432E0,6.68711E0,1.3438157E0,-1.0190607E0,-2.655623E0,4.1245236E0,-4.477971E-1,1.2485751E1,4.6592048E-1,-3.471595E0,7.2467804E-1,-2.4305974E-1,7.8407204E-1,-3.9625547E0,-8.108487E-1,-1.1178678E0,-3.4329002E0],"split_indices":[0,1,2,3,1,3,0,0,3,1,0,2,3,1,3,3,3,1,0,0,0,2,2,1,3,3,2,1,0,0,0,2,3,2,1,0,0,0,0,0,0,3,2,2,0,3,0,0,0,0,1,0,0,0,0,0,0,0,0,0,0,0,0,0,0,0,0,0,0,0,0,0,0,0,0,0,0,0,0],"split_type":[0,0,0,0,0,0,0,0,0,0,0,0,0,0,0,0,0,0,0,0,0,0,0,0,0,0,0,0,0,0,0,0,0,0,0,0,0,0,0,0,0,0,0,0,0,0,0,0,0,0,0,0,0,0,0,0,0,0,0,0,0,0,0,0,0,0,0,0,0,0,0,0,0,0,0,0,0,0,0],"sum_hessian":[2.34E3,8.22E2,1.518E3,7.58E2,6.4E1,1.489E3,2.9E1,3E0,7.55E2,5.6E1,8E0,4.25E2,1.064E3,2.3E1,6E0,7E0,7.48E2,5.4E1,2E0,6E0,2E0,3.2E1,3.93E2,8E0,1.056E3,9E0,1.4E1,2E0,4E0,5E0,2E0,3.3E1,7.15E2,8E0,4.6E1,1E0,1E0,1E0,1E0,3E0,2.9E1,3.41E2,5.2E1,5E0,3E0,9.87E2,6.9E1,8E0,1E0,1E0,1.3E1,1E0,1E0,4E0,1E0,6E0,2.7E1,4.2E1,6.73E2,6E0,2E0,3E0,4.3E1,1.2E1,1.7E1,2.86E2,5.5E1,1.1E1,4.1E1,4E0,1E0,1E0,2E0,7.15E2,2.72E2,1.7E1,5.2E1,3E0,1E1],"tree_param":{"num_deleted":"0","num_feature":"4","num_nodes":"79","size_leaf_vector":"1"}},{"base_weights":[1.5519907E-2,1.7714459E-1,-6.582507E0,9.0009016E-1,-1.0825881E0,-1.0271614E1,-1.5971508E0,-1.3302095E-1,3.0010989E0,4.0458703E-1,-2.8777108E0,-1.799411E1,-7.3895507E0,6.3072586E0,-5.637525E0,-3.473285E-1,9.166181E0,1.4419572E1,2.5497274E0,-2.5705104E0,2.989449E0,-2.0041327E0,-7.762175E0,-3.4721088E-1,-6.070206E0,-2.8454568E0,-1.5151778E1,-4.6462183E0,-2.5882542E0,1.3270625E-1,-6.2295976E0,2.659328E1,3.8160868E0,-4.3069787E0,1.7029577E1,-4.948815E0,3.1380742E0,1.3700125E-1,-8.876077E0,1.1808848E1,1.3133812E0,-2.9746852E0,1.0170837E1,3.104583E-1,-1.1200806E1,-5.5673623E0,1.1712558E1,5.663355E-1,-1.7517696E1,1.1701399E1,-6.226278E0,1.1389039E0,-8.9461654E-2,3.5811307E0,-2.242132E0,-2.2977471E0,1.1121355E1,-1.322444E0,3.2508864E0,2.353821E-1,-2.1735227E0,7.529761E0,2.389321E0,2.464242E0,-3.750594E0,-3.5941827E0,1.0361469E0,-3.9097458E-1,7.7593026E0,-4.3731174E0,-1.7860276E0,-1.7126867E0,4.9541197E0,6.9129705E-1,-9.9056286E-1,-3.669257E0,-7.8362435E-1,9.695855E0,7.9236346E-1,2.2519069E0,-4.5997195E0,-5.106496E0,-2.2235475E0,-5.345993E-2,-3.5102847E0,4.3000574E0,9.705935E-1,-5.7963543E0,-7.3399544E-1,-9.4772935E-1,5.312379E0,-4.731306E-1,-2.3320546E0],"categories":[],"categories_nodes":[],"categories_segments":[],"categories_sizes":[],"default_left":[0,0,0,0,0,0,0,0,0,0,0,0,0,0,0,0,0,0,0,0,0,0,0,0,0,0,0,0,0,0,0,0,0,0,0,0,0,0,0,0,0,0,0,0,0,0,0,0,0,0,0,0,0,0,0,0,0,0,0,0,0,0,0,0,0,0,0,0,0,0,0,0,0,0,0,0,0,0,0,0,0,0,0,0,0,0,0,0,0,0,0,0,0],"id":8,"left_children":[1,3,5,7,9,11,13,15,17,19,21,23,25,-1,27,29,31,33,35,37,39,41,43,-1,-1,45,47,-1,49,51,53,55,57,59,61,63,65,67,69,71,73,75,77,79,81,83,85,-1,87,89,91,-1,-1,-1,-1,-1,-1,-1,-1,-1,-1,-1,-1,-1,-1,-1,-1,-1,-1,-1,-1,-1,-1,-1,-1,-1,-1,-1,-1,-1,-1,-1,-1,-1,-1,-1,-1,-1,-1,-1,-1,-1,-1],"loss_changes":[2.497618E3,2.0828762E3,1.01351904E3,3.1542454E3,2.2276626E3,5.792468E2,2.403492E3,1.9462505E3,2.4319878E3,3.522113E3,1.597355E3,2.782837E2,8.386935E2,0E0,6.20683E2,2.6946304E3,1.9497235E3,9.531211E2,2.0537546E3,3.637636E3,3.6060586E3,3.835151E3,1.5857292E3,0E0,0E0,7.388423E2,3.958977E2,0E0,1.0086059E3,1.395129E3,1.7165994E3,2.0784019E3,1.0870116E3,5.0563244E1,9.705405E2,3.483039E3,2.0892964E3,5.5917773E3,9.79583E2,3.308626E3,9.543135E2,9.7159326E2,3.917148E3,2.1412495E3,7.560415E2,4.9373825E2,2.0282349E1,0E0,1.701709E2,4.1298126E2,9.564105E1,0E0,0E0,0E0,0E0,0E0,0E0,0E0,0E0,0E0,0E0,0E0,0E0,0E0,0E0,0E0,0E0,0E0,0E0,0E0,0E0,0E0,0E0,0E0,0E0,0E0,0E0,0E0,0E0,0E0,0E0,0E0,0E0,0E0,0E0,0E0,0E0,0E0,0E0,0E0,0E0,0E0,0E0],"parents":[2147483647,0,0,1,1,2,2,3,3,4,4,5,5,6,6,7,7,8,8,9,9,10,10,11,11,12,12,14,14,15,15,16,16,17,17,18,18,19,19,20,20,21,21,22,22,25,25,26,26,28,28,29,29,30,30,31,31,32,32,33,33,34,34,35,35,36,36,37,37,38,38,39,39,40,40,41,41,42,42,43,43,44,44,45,45,46,46,48,48,49,49,50,50],"right_children":[2,4,6,8,10,12,14,16,18,20,22,24,26,-1,28,30,32,34,36,38,40,42,44,-1,-1,46,48,-1,50,52,54,56,58,60,62,64,66,68,70,72,74,76,78,80,82,84,86,-1,88,90,92,-1,-1,-1,-1,-1,-1,-1,-1,-1,-1,-1,-1,-1,-1,-1,-1,-1,-1,-1,-1,-1,-1,-1,-1,-1,-1,-1,-1,-1,-1,-1,-1,-1,-1,-1,-1,-1,-1,-1,-1,-1,-1],"split_conditions":[3.1100002E1,1.913426E1,2.3132626E1,1.7061147E2,1.7482832E1,9.949641E1,2.4216522E1,1.8971008E1,1.7372371E2,8.951584E0,2.7726764E2,1.1043261E1,2.505992E1,6.3072586E0,1.8191166E1,1.8345877E1,9.291167E0,7.8120003E0,1.0182337E1,6.8911653E0,1.0259916E1,2.2454169E2,2.1603E1,-3.4721088E-1,-6.070206E0,2.484117E1,3.34E1,-4.6462183E0,2.2530752E1,6.5661674E0,4.825916E0,7.38075E0,2.129325E1,5.1244993E0,1.8803665E1,9.047416E0,1.7582126E2,6.6432495E0,2.0617662E1,2.0775936E1,6.3999996E0,1.9255793E1,1E-1,3.4443384E2,3.2782568E2,2.2666162E1,2.4966164E1,5.663355E-1,2.7089079E1,2.0972414E1,4.34841E1,1.1389039E0,-8.9461654E-2,3.5811307E0,-2.242132E0,-2.2977471E0,1.1121355E1,-1.322444E0,3.2508864E0,2.353821E-1,-2.1735227E0,7.529761E0,2.389321E0,2.464242E0,-3.750594E0,-3.5941827E0,1.0361469E0,-3.9097458E-1,7.7593026E0,-4.3731174E0,-1.7860276E0,-1.7126867E0,4.9541197E0,6.9129705E-1,-9.9056286E-1,-3.669257E0,-7.8362435E-1,9.695855E0,7.9236346E-1,2.2519069E0,-4.5997195E0,-5.106496E0,-2.2235475E0,-5.345993E-2,-3.5102847E0,4.3000574E0,9.705935E-1,-5.7963543E0,-7.3399544E-1,-9.4772935E-1,5.312379E0,-4.731306E-1,-2.3320546E0],"split_indices":[1,2,2,3,0,3,2,2,3,0,3,2,0,0,0,2,0,0,2,0,0,3,2,0,0,0,1,0,0,0,3,0,0,0,0,0,3,0,2,3,1,2,1,3,3,0,0,0,0,0,3,0,0,0,0,0,0,0,0,0,0,0,0,0,0,0,0,0,0,0,0,0,0,0,0,0,0,0,0,0,0,0,0,0,0,0,0,0,0,0,0,0,0],"split_type":[0,0,0,0,0,0,0,0,0,0,0,0,0,0,0,0,0,0,0,0,0,0,0,0,0,0,0,0,0,0,0,0,0,0,0,0,0,0,0,0,0,0,0,0,0,0,0,0,0,0,0,0,0,0,0,0,0,0,0,0,0,0,0,0,0,0,0,0,0,0,0,0,0,0,0,0,0,0,0,0,0,0,0,0,0,0,0,0,0,0,0,0,0],"sum_hessian":[2.34E3,2.285E3,5.5E1,1.452E3,8.33E2,3.1E1,2.4E1,9.74E2,4.78E2,4.56E2,3.77E2,7E0,2.4E1,3E0,2.1E1,9.53E2,2.1E1,1.7E1,4.61E2,2.12E2,2.44E2,3.21E2,5.6E1,1E0,6E0,1.6E1,8E0,4E0,1.7E1,8.82E2,7.1E1,4E0,1.7E1,2E0,1.5E1,3.3E1,4.28E2,1.49E2,6.3E1,3.8E1,2.06E2,2.98E2,2.3E1,1.7E1,3.9E1,1.4E1,2E0,1E0,7E0,3E0,1.4E1,9.2E1,7.9E2,4E0,6.7E1,1E0,3E0,8E0,9E0,1E0,1E0,7E0,8E0,1.2E1,2.1E1,8E0,4.2E2,1.42E2,7E0,2E1,4.3E1,8E0,3E1,1.7E2,3.6E1,1E1,2.88E2,5E0,1.8E1,1.2E1,5E0,1.4E1,2.5E1,8E0,6E0,1E0,1E0,6E0,1E0,1E0,2E0,4E0,1E1],"tree_param":{"num_deleted":"0","num_feature":"4","num_nodes":"93","size_leaf_vector":"1"}},{"base_weights":[1.5277244E-2,1.5880233E-1,-4.9343953E0,5.827004E-1,-1.235331E0,-3.5664067E0,-7.6959705E0,4.8721495E-1,1.7110252E1,1.1872786E1,-1.7184088E0,-5.958801E0,-1.4969189E0,-5.371772E0,-4.999542E0,-4.359243E0,7.3921746E-1,2.8387857E1,1.5507583E-1,-5.072551E0,1.6729712E1,-3.6510062E0,-7.833592E-1,1.4668856E0,-7.277909E0,5.535748E-1,-3.294026E0,1.0323251E0,-7.398901E0,-1.7290773E0,-1.4199364E1,6.7222743E0,3.9827675E-1,1.0208645E0,9.811283E0,2.1239166E0,-1.8654569E0,-3.4826398E0,3.1608663E0,2.3205776E1,3.1479867E0,-5.985166E0,-1.6472709E-1,4.871165E0,-1.5992004E0,-1.0834656E0,1.3676909E0,-1.065386E1,-4.1610436E0,3.5693126E0,-7.1241636E0,-6.5628476E0,9.1234535E-1,2.4707978E0,-9.2400575E-1,-8.474236E0,8.2576793E-1,-1.8428472E0,5.470862E-1,-2.2574835E0,-5.3287907E0,-5.6140065E0,2.3481483E0,-1.7829403E0,1.6165346E-1,-6.708836E-1,1.6266462E0,-1.7628308E-1,-6.6317254E-1,2.10769E0,9.846479E0,1.971018E0,-2.094357E0,-2.4651891E-1,-3.1645677E0,4.4026694E0,-7.164076E-1,-2.9205575E0,2.2300863E0,-4.2697473E0,-4.1499448E-1,1.6557199E-1,-6.531315E-1,-3.5256054E0,-4.450127E-1,1.2076255E0,-1.6146696E0,-4.6379244E-1,1.292836E0,-4.1399518E-1,-2.5736687E0,-2.408793E0,-4.3269274E-1,-1.0447701E0,6.675776E-1,9.832383E-1,2.5216064E-1,-2.6500938E0,-6.781082E-1],"categories":[],"categories_nodes":[],"categories_segments":[],"categories_sizes":[],"default_left":[0,0,0,0,0,0,0,0,0,0,0,0,0,0,0,0,0,0,0,0,0,0,0,0,0,0,0,0,0,0,0,0,0,0,0,0,0,0,0,0,0,0,0,0,0,0,0,0,0,0,0,0,0,0,0,0,0,0,0,0,0,0,0,0,0,0,0,0,0,0,0,0,0,0,0,0,0,0,0,0,0,0,0,0,0,0,0,0,0,0,0,0,0,0,0,0,0,0,0],"id":9,"left_children":[1,3,5,7,9,11,13,15,17,19,21,23,25,-1,27,29,31,33,35,37,39,41,43,45,47,49,51,53,55,57,59,61,63,-1,-1,65,67,-1,-1,69,71,73,75,77,79,81,-1,83,85,87,89,91,93,95,-1,97,-1,-1,-1,-1,-1,-1,-1,-1,-1,-1,-1,-1,-1,-1,-1,-1,-1,-1,-1,-1,-1,-1,-1,-1,-1,-1,-1,-1,-1,-1,-1,-1,-1,-1,-1,-1,-1,-1,-1,-1,-1,-1,-1],"loss_changes":[1.6638352E3,1.3457684E3,2.2188806E2,2.7470972E3,3.3828213E3,2.1882758E2,4.886161E2,2.1246543E3,1.9077354E3,1.6486052E3,9.2416907E2,2.1637683E2,9.7632355E1,0E0,2.6814514E2,2.2012266E3,3.3671838E3,5.3578516E2,2.3852612E1,6.324269E2,1.2462905E3,1.3579819E3,1.608568E3,3.6483086E1,1.450716E2,3.2643097E2,1.9848589E2,4.3103065E1,1.6523676E2,1.0931709E3,2.94427E2,2.6476826E3,1.3973514E3,0E0,0E0,5.526831E1,2.4068832E-2,0E0,0E0,1.3252612E3,2.5384354E2,2.3476104E3,2.2786643E3,1.7192062E3,8.094247E2,6.5670805E0,0E0,6.3132507E1,1.3163506E2,4.4522606E1,2.1586227E1,4.849182E1,4.814058E1,3.8205395E0,0E0,6.8327026E0,0E0,0E0,0E0,0E0,0E0,0E0,0E0,0E0,0E0,0E0,0E0,0E0,0E0,0E0,0E0,0E0,0E0,0E0,0E0,0E0,0E0,0E0,0E0,0E0,0E0,0E0,0E0,0E0,0E0,0E0,0E0,0E0,0E0,0E0,0E0,0E0,0E0,0E0,0E0,0E0,0E0,0E0,0E0],"parents":[2147483647,0,0,1,1,2,2,3,3,4,4,5,5,6,6,7,7,8,8,9,9,10,10,11,11,12,12,14,14,15,15,16,16,17,17,18,18,19,19,20,20,21,21,22,22,23,23,24,24,25,25,26,26,27,27,28,28,29,29,30,30,31,31,32,32,35,35,36,36,39,39,40,40,41,41,42,42,43,43,44,44,45,45,47,47,48,48,49,49,50,50,51,51,52,52,53,53,55,55],"right_children":[2,4,6,8,10,12,14,16,18,20,22,24,26,-1,28,30,32,34,36,38,40,42,44,46,48,50,52,54,56,58,60,62,64,-1,-1,66,68,-1,-1,70,72,74,76,78,80,82,-1,84,86,88,90,92,94,96,-1,98,-1,-1,-1,-1,-1,-1,-1,-1,-1,-1,-1,-1,-1,-1,-1,-1,-1,-1,-1,-1,-1,-1,-1,-1,-1,-1,-1,-1,-1,-1,-1,-1,-1,-1,-1,-1,-1,-1,-1,-1,-1,-1,-1],"split_conditions":[3.176375E1,2.4311996E1,2.9132556E2,2.4195333E1,1.0484902E1,1.3555856E2,3.107993E2,1.0315115E1,9.668332E1,8.39078E0,1.2303252E2,9.897416E0,3.3847656E1,-5.371772E0,2E-1,1.998075E1,1.1525623E1,1E-1,8.500001E0,2.6739084E1,2.6599497E1,2.7449495E1,1.3797913E1,7.697417E0,2.1834179E1,1.18E1,8.500001E0,1.6441166E1,3.5676456E2,1.1507602E2,1.1162592E2,1.2854639E1,1.1966954E1,1.0208645E0,9.811283E0,8E-1,9.3E0,-3.4826398E0,3.1608663E0,2.5597418E1,2.7570333E1,6.45653E1,2.7741163E1,1.1119281E1,1.4003029E1,4.6599174E0,1.3676909E0,2.6599497E1,2.4623531E1,1.4983437E2,2.050367E1,3.739324E1,1.6032833E1,3.1909622E2,-9.2400575E-1,3.558781E2,8.2576793E-1,-1.8428472E0,5.470862E-1,-2.2574835E0,-5.3287907E0,-5.6140065E0,2.3481483E0,-1.7829403E0,1.6165346E-1,-6.708836E-1,1.6266462E0,-1.7628308E-1,-6.6317254E-1,2.10769E0,9.846479E0,1.971018E0,-2.094357E0,-2.4651891E-1,-3.1645677E0,4.4026694E0,-7.164076E-1,-2.9205575E0,2.2300863E0,-4.2697473E0,-4.1499448E-1,1.6557199E-1,-6.531315E-1,-3.5256054E0,-4.450127E-1,1.2076255E0,-1.6146696E0,-4.6379244E-1,1.292836E0,-4.1399518E-1,-2.5736687E0,-2.408793E0,-4.3269274E-1,-1.0447701E0,6.675776E-1,9.832383E-1,2.5216064E-1,-2.6500938E0,-6.781082E-1],"split_indices":[2,0,3,0,2,3,3,2,3,2,3,0,2,0,1,0,2,1,1,0,0,0,2,0,3,1,1,0,3,3,3,3,2,0,0,1,1,0,0,0,0,3,0,2,2,0,0,0,3,3,0,2,0,3,0,3,0,0,0,0,0,0,0,0,0,0,0,0,0,0,0,0,0,0,0,0,0,0,0,0,0,0,0,0,0,0,0,0,0,0,0,0,0,0,0,0,0,0,0],"split_type":[0,0,0,0,0,0,0,0,0,0,0,0,0,0,0,0,0,0,0,0,0,0,0,0,0,0,0,0,0,0,0,0,0,0,0,0,0,0,0,0,0,0,0,0,0,0,0,0,0,0,0,0,0,0,0,0,0,0,0,0,0,0,0,0,0,0,0,0,0,0,0,0,0,0,0,0,0,0,0,0,0,0,0,0,0,0,0,0,0,0,0,0,0,0,0,0,0,0,0],"sum_hessian":[2.34E3,2.275E3,6.5E1,1.745E3,5.3E2,4.5E1,2E1,1.736E3,9E0,1.8E1,5.12E2,2E1,2.5E1,3E0,1.7E1,8.5E1,1.651E3,5E0,4E0,4E0,1.4E1,1.66E2,3.46E2,3E0,1.7E1,1.2E1,1.3E1,5E0,1.2E1,6.8E1,1.7E1,8.8E1,1.563E3,1E0,4E0,2E0,2E0,3E0,1E0,9E0,5E0,9.9E1,6.7E1,4.3E1,3.03E2,2E0,1E0,7E0,1E1,9E0,3E0,7E0,6E0,4E0,1E0,1.1E1,1E0,3E1,3.8E1,7E0,1E1,3E0,8.5E1,3.3E1,1.53E3,1E0,1E0,1E0,1E0,4E0,5E0,4E0,1E0,4.7E1,5.2E1,8E0,5.9E1,6E0,3.7E1,4E0,2.99E2,1E0,1E0,6E0,1E0,1E0,9E0,1E0,8E0,1E0,2E0,5E0,2E0,1E0,5E0,2E0,2E0,1E1,1E0],"tree_param":{"num_deleted":"0","num_feature":"4","num_nodes":"99","size_leaf_vector":"1"}},{"base_weights":[5.2062715E-3,2.2678766E-1,-2.2095919E0,1.3671724E-1,1.2113167E1,-2.4234755E0,6.4700665E0,5.9138477E-1,-9.982987E-1,2.0483475E1,1.1824245E0,3.8143363E0,-3.240081E0,3.041951E-1,6.407747E0,-1.5882931E0,5.306608E0,8.457852E0,1.1395675E0,-3.5499792E0,1.4195588E0,9.965006E0,-8.227409E0,-5.326109E0,6.06717E-1,5.4635507E-1,-8.185061E0,1.1687675E1,-2.6343606E-2,-1.2679925E0,-1.227915E1,1.1689407E1,-8.522061E0,-3.1417847E-2,-2.1158495E0,2.9995883E0,2.2235006E1,-3.1901207E0,-3.0643103E0,-1.8795315E0,-7.460903E0,1.1422892E1,-1.2686013E0,-2.9900927E-2,7.040292E-1,-3.810421E0,1.9902302E0,7.038186E0,1.2469211E0,-6.513547E-1,3.7256966E0,-1.224205E0,-1.3320903E-1,-1.3221786E0,-6.5311623E0,6.478862E0,-6.1315525E-1,-4.1894417E0,1.1351312E0,-2.4761353E-1,2.334755E-1,3.4645648E0,-8.155382E-1,5.1641464E-1,7.7980366E0,-1.1039472E0,-2.5815183E-1,-2.2300403E0,9.317566E-1,-2.6764297E0,-3.0720797E-1,-1.2302571E-1,4.9658256E0,-7.113878E-2,-3.0505512E0],"categories":[],"categories_nodes":[],"categories_segments":[],"categories_sizes":[],"default_left":[0,0,0,0,0,0,0,0,0,0,0,0,0,0,0,0,0,0,0,0,0,0,0,0,0,0,0,0,0,0,0,0,0,0,0,0,0,0,0,0,0,0,0,0,0,0,0,0,0,0,0,0,0,0,0,0,0,0,0,0,0,0,0,0,0,0,0,0,0,0,0,0,0,0,0],"id":10,"left_children":[1,3,5,7,9,11,-1,13,15,17,19,21,23,25,27,29,31,-1,-1,33,-1,35,37,39,41,43,45,47,49,51,53,55,57,59,-1,61,63,65,-1,67,69,71,73,-1,-1,-1,-1,-1,-1,-1,-1,-1,-1,-1,-1,-1,-1,-1,-1,-1,-1,-1,-1,-1,-1,-1,-1,-1,-1,-1,-1,-1,-1,-1,-1],"loss_changes":[1.1493656E3,2.277675E3,1.1354578E3,1.0915304E3,1.4396787E3,1.0922509E3,0E0,2.520353E3,2.2589436E3,1.0505789E3,1.51177E2,1.933606E3,1.5118428E3,2.9647632E3,2.4122874E3,1.8814856E3,4.68943E3,0E0,0E0,4.9078423E1,0E0,1.3862206E3,5.7494812E1,8.836206E2,1.3735037E3,1.6297493E3,2.7613977E3,3.3604326E3,9.0784033E2,1.2473481E3,1.0994941E3,4.942033E3,1.1914573E3,2.5708892E0,0E0,6.179948E2,4.178518E2,1.3967628E0,0E0,1.3521362E3,6.959575E2,6.138032E2,5.300288E2,0E0,0E0,0E0,0E0,0E0,0E0,0E0,0E0,0E0,0E0,0E0,0E0,0E0,0E0,0E0,0E0,0E0,0E0,0E0,0E0,0E0,0E0,0E0,0E0,0E0,0E0,0E0,0E0,0E0,0E0,0E0,0E0],"parents":[2147483647,0,0,1,1,2,2,3,3,4,4,5,5,7,7,8,8,9,9,10,10,11,11,12,12,13,13,14,14,15,15,16,16,19,19,21,21,22,22,23,23,24,24,25,25,26,26,27,27,28,28,29,29,30,30,31,31,32,32,33,33,35,35,36,36,37,37,39,39,40,40,41,41,42,42],"right_children":[2,4,6,8,10,12,-1,14,16,18,20,22,24,26,28,30,32,-1,-1,34,-1,36,38,40,42,44,46,48,50,52,54,56,58,60,-1,62,64,66,-1,68,70,72,74,-1,-1,-1,-1,-1,-1,-1,-1,-1,-1,-1,-1,-1,-1,-1,-1,-1,-1,-1,-1,-1,-1,-1,-1,-1,-1,-1,-1,-1,-1,-1,-1],"split_conditions":[1.2900001E1,1.18E1,2.9995337E1,2.0390114E1,1.8844202E1,1.285205E1,6.4700665E0,1.9803272E1,3.4917056E2,1.26E1,1.9862083E1,2.4800001E1,2.3132626E1,1.9448332E1,2.0111729E1,3.4443384E2,1.3000001E0,8.457852E0,1.1395675E0,1.26E1,1.4195588E0,1.2245293E1,7.332156E1,2.0797415E1,2.4216522E1,1.968132E2,2.0797415E1,1.4914083E1,2.794325E1,8.382834E0,2.67565E1,1.018075E1,2.6474077E1,1.8041168E1,-2.1158495E0,2.4755747E1,1.2901584E1,3.1100002E1,-3.0643103E0,1.879255E1,2.6891169E1,1.8468252E1,2.6037708E2,-2.9900927E-2,7.040292E-1,-3.810421E0,1.9902302E0,7.038186E0,1.2469211E0,-6.513547E-1,3.7256966E0,-1.224205E0,-1.3320903E-1,-1.3221786E0,-6.5311623E0,6.478862E0,-6.1315525E-1,-4.1894417E0,1.1351312E0,-2.4761353E-1,2.334755E-1,3.4645648E0,-8.155382E-1,5.1641464E-1,7.7980366E0,-1.1039472E0,-2.5815183E-1,-2.2300403E0,9.317566E-1,-2.6764297E0,-3.0720797E-1,-1.2302571E-1,4.9658256E0,-7.113878E-2,-3.0505512E0],"split_indices":[1,1,0,2,2,2,0,2,3,1,2,1,2,2,2,3,1,0,0,1,0,2,3,0,2,3,0,0,0,0,2,0,2,0,0,0,0,1,0,2,0,0,3,0,0,0,0,0,0,0,0,0,0,0,0,0,0,0,0,0,0,0,0,0,0,0,0,0,0,0,0,0,0,0,0],"split_type":[0,0,0,0,0,0,0,0,0,0,0,0,0,0,0,0,0,0,0,0,0,0,0,0,0,0,0,0,0,0,0,0,0,0,0,0,0,0,0,0,0,0,0,0,0,0,0,0,0,0,0,0,0,0,0,0,0,0,0,0,0,0,0,0,0,0,0,0,0,0,0,0,0,0,0],"sum_hessian":[2.34E3,2.128E3,2.12E2,2.113E3,1.5E1,2.11E2,1E0,1.509E3,6.04E2,8E0,7E0,2.4E1,1.87E2,1.439E3,7E1,5.53E2,5.1E1,5E0,3E0,3E0,4E0,1.6E1,8E0,1.21E2,6.6E1,1.4E3,3.9E1,3.8E1,3.2E1,5.38E2,1.5E1,3.5E1,1.6E1,2E0,1E0,1.1E1,5E0,3E0,5E0,4.7E1,7.4E1,9E0,5.7E1,1.031E3,3.69E2,3E1,9E0,1.4E1,2.4E1,2.8E1,4E0,1.21E2,4.17E2,9E0,6E0,2E1,1.5E1,1.1E1,5E0,1E0,1E0,4E0,7E0,1E0,4E0,2E0,1E0,2.2E1,2.5E1,6E1,1.4E1,3E0,6E0,5.2E1,5E0],"tree_param":{"num_deleted":"0","num_feature":"4","num_nodes":"75","size_leaf_vector":"1"}},{"base_weights":[1.353117E-2,1.1368218E-1,-3.4403663E0,2.0177308E-1,-4.1611977E0,-2.57376E0,-5.1748195E0,1.4474529E-1,1.4265216E1,-5.8393393E0,1.49191265E1,1.0474901E0,-3.2505867E0,-3.7507005E0,-3.2589931E0,-2.4874072E-1,1.1291618E0,2.3099272E1,-3.3307962E0,3.8498085E0,-8.892106E0,5.4970846E0,7.058499E-1,-1.7784134E0,4.317997E0,-7.8685064E0,-1.9945261E0,1.5110232E0,-5.2098475E0,-6.9489465E0,-2.2044068E-2,2.642787E0,-4.8641658E-1,1.0684117E1,4.8100014E0,-1.8422138E1,1.920837E1,-1.0244814E1,-5.228066E0,-9.351843E-1,5.3655857E-1,3.2436678E-1,1.5109544E0,-8.642493E0,-3.6758995E-1,1.0371523E0,-2.2819092E0,2.8337922E0,-7.6542324E-1,-1.781806E0,5.31633E-1,-1.1211574E0,-6.563627E0,1.4643184E0,-9.904979E-2,2.7729256E0,3.74976E-1,-3.6079783E0,-1.7641384E-2,-8.872067E-1,2.515472E0,-6.5917773E0,-6.3305056E-1,7.5146194E0,-2.3750703E0,3.422023E-1,-3.7764308E0,-4.029179E-1,-2.8905666E0,-3.0106804E-1,-1.0735734E0,9.5154536E-1,2.2225343E-1],"categories":[],"categories_nodes":[],"categories_segments":[],"categories_sizes":[],"default_left":[0,0,0,0,0,0,0,0,0,0,0,0,0,0,0,0,0,0,0,0,0,0,0,0,0,0,0,0,0,0,0,0,0,0,0,0,0,0,0,0,0,0,0,0,0,0,0,0,0,0,0,0,0,0,0,0,0,0,0,0,0,0,0,0,0,0,0,0,0,0,0,0,0],"id":11,"left_children":[1,3,5,7,9,11,13,15,17,19,21,23,25,-1,27,29,31,33,-1,35,37,-1,-1,39,41,43,45,47,49,51,53,55,57,-1,59,61,63,-1,65,-1,-1,-1,-1,67,-1,-1,69,71,-1,-1,-1,-1,-1,-1,-1,-1,-1,-1,-1,-1,-1,-1,-1,-1,-1,-1,-1,-1,-1,-1,-1,-1,-1],"loss_changes":[8.101695E2,8.579311E2,8.588507E1,1.7872125E3,1.5600143E3,1.1614908E2,2.5405817E2,8.613692E2,2.273374E3,1.3061172E3,1.2801471E2,8.161628E1,2.1052115E2,0E0,1.7537311E2,2.4134014E3,1.5541018E3,1.4308591E3,0E0,4.116575E3,2.8754053E3,0E0,0E0,2.945366E1,3.8571167E0,3.0544373E1,5.80242E1,3.9472137E1,7.6739105E1,2.4116814E3,2.3251514E3,3.0038613E3,1.5191859E3,0E0,1.3586737E2,2.4320837E2,1.3072583E3,0E0,1.4205837E3,0E0,0E0,0E0,0E0,3.7783813E1,0E0,0E0,4.7794144E1,1.1875229E0,0E0,0E0,0E0,0E0,0E0,0E0,0E0,0E0,0E0,0E0,0E0,0E0,0E0,0E0,0E0,0E0,0E0,0E0,0E0,0E0,0E0,0E0,0E0,0E0,0E0],"parents":[2147483647,0,0,1,1,2,2,3,3,4,4,5,5,6,6,7,7,8,8,9,9,10,10,11,11,12,12,14,14,15,15,16,16,17,17,19,19,20,20,23,23,24,24,25,25,26,26,27,27,28,28,29,29,30,30,31,31,32,32,34,34,35,35,36,36,38,38,43,43,46,46,47,47],"right_children":[2,4,6,8,10,12,14,16,18,20,22,24,26,-1,28,30,32,34,-1,36,38,-1,-1,40,42,44,46,48,50,52,54,56,58,-1,60,62,64,-1,66,-1,-1,-1,-1,68,-1,-1,70,72,-1,-1,-1,-1,-1,-1,-1,-1,-1,-1,-1,-1,-1,-1,-1,-1,-1,-1,-1,-1,-1,-1,-1,-1,-1],"split_conditions":[3.176375E1,3.558781E2,2.9132556E2,3.5532764E2,1.5000001E1,1.4003669E1,3.107993E2,1.968132E2,7.8999987E0,5.8557506E0,1.2901584E1,3.3E0,2.1834179E1,-3.7507005E0,2E-1,4.5224166E0,3.1400116E2,1.15286665E1,-3.3307962E0,3.334916E0,6.7515836E0,5.4970846E0,7.058499E-1,1.1024501E1,4.6599174E0,2.6599497E1,2.4623531E1,1.6441166E1,3.5676456E2,4.257833E0,6.5661674E0,5.1244993E0,9.693296E0,1.0684117E1,1.4641166E1,3.585414E2,3.5925992E2,-1.0244814E1,3.585414E2,-9.351843E-1,5.3655857E-1,3.2436678E-1,1.5109544E0,1.5082832E1,-3.6758995E-1,1.0371523E0,1.5000001E1,7.297417E0,-7.6542324E-1,-1.781806E0,5.31633E-1,-1.1211574E0,-6.563627E0,1.4643184E0,-9.904979E-2,2.7729256E0,3.74976E-1,-3.6079783E0,-1.7641384E-2,-8.872067E-1,2.515472E0,-6.5917773E0,-6.3305056E-1,7.5146194E0,-2.3750703E0,3.422023E-1,-3.7764308E0,-4.029179E-1,-2.8905666E0,-3.0106804E-1,-1.0735734E0,9.5154536E-1,2.2225343E-1],"split_indices":[2,3,3,3,1,0,3,3,1,0,0,1,3,0,1,0,3,0,0,0,0,0,0,0,0,0,3,0,3,0,0,0,2,0,0,3,3,0,3,0,0,0,0,0,0,0,1,0,0,0,0,0,0,0,0,0,0,0,0,0,0,0,0,0,0,0,0,0,0,0,0,0,0],"split_type":[0,0,0,0,0,0,0,0,0,0,0,0,0,0,0,0,0,0,0,0,0,0,0,0,0,0,0,0,0,0,0,0,0,0,0,0,0,0,0,0,0,0,0,0,0,0,0,0,0,0,0,0,0,0,0,0,0,0,0,0,0,0,0,0,0,0,0,0,0,0,0,0,0],"sum_hessian":[2.34E3,2.275E3,6.5E1,2.23E3,4.5E1,4.5E1,2E1,2.222E3,8E0,4.2E1,3E0,7E0,3.8E1,3E0,1.7E1,1.588E3,6.34E2,6E0,2E0,1E1,3.2E1,2E0,1E0,4E0,3E0,7E0,3.1E1,5E0,1.2E1,5.1E1,1.537E3,3.27E2,3.07E2,3E0,3E0,4E0,6E0,3E0,2.9E1,3E0,1E0,1E0,2E0,6E0,1E0,1E0,3E1,4E0,1E0,1.1E1,1E0,4.3E1,8E0,9E1,1.447E3,5.6E1,2.71E2,1E1,2.97E2,1E0,2E0,3E0,1E0,5E0,1E0,1.6E1,1.3E1,1E0,5E0,1.6E1,1.4E1,3E0,1E0],"tree_param":{"num_deleted":"0","num_feature":"4","num_nodes":"73","size_leaf_vector":"1"}},{"base_weights":[3.2649946E-3,-6.3746057E0,5.8197875E-2,-8.527134E0,-2.0799217E0,8.594592E-1,-3.3757508E-1,-4.5340943E0,-1.0456021E1,-1.0059357E-1,-2.3902829E0,5.401181E0,3.818656E-1,-5.174265E0,-4.7407307E-2,1.1547318E0,-2.0941668E0,-4.3555298E-1,-3.460478E0,-2.7557514E0,2.374553E0,1.224562E0,2.4583689E1,-1.7133791E1,8.1919545E-1,-3.2550635E0,-1.5996191E1,8.72531E0,-1.5008554E-1,-1.7616624E0,2.705288E-1,6.251231E0,-2.2192226E1,3.4358154E1,1.4179879E1,-2.9880932E1,5.3451133E0,7.8541236E0,5.162901E-1,-6.806246E-1,-1.4607533E1,1.5177728E0,-1.8172413E1,1.4403766E1,-3.999184E0,3.0980533E-1,-1.7024578E0,-1.7544709E-1,2.2517624E-1,8.767329E-1,9.219022E0,3.6630387E0,-8.056043E0,1.6359261E0,1.1714565E1,5.3206367E0,7.0263064E-1,-1.2426763E0,-9.612172E0,-4.77507E0,5.1099896E0,-1.6068655E0,7.052653E0,-3.3014143E0,2.8062403E-1,-3.1151865E0,6.1497605E-1,-6.3260303E0,3.817321E-1,-2.5896332E0,-6.559066E0,9.840774E0,1.9211566E0,-6.1442345E-1,1.8554696E-1,-1.0195202E0,1.0391464E-2],"categories":[],"categories_nodes":[],"categories_segments":[],"categories_sizes":[],"default_left":[0,0,0,0,0,0,0,0,0,0,0,0,0,0,0,0,0,0,0,0,0,0,0,0,0,0,0,0,0,0,0,0,0,0,0,0,0,0,0,0,0,0,0,0,0,0,0,0,0,0,0,0,0,0,0,0,0,0,0,0,0,0,0,0,0,0,0,0,0,0,0,0,0,0,0,0,0],"id":12,"left_children":[1,3,5,7,9,11,13,15,17,19,-1,21,23,25,27,-1,-1,-1,-1,29,-1,31,33,35,37,39,41,43,45,-1,47,49,51,53,55,57,59,61,63,65,67,-1,69,71,-1,73,75,-1,-1,-1,-1,-1,-1,-1,-1,-1,-1,-1,-1,-1,-1,-1,-1,-1,-1,-1,-1,-1,-1,-1,-1,-1,-1,-1,-1,-1,-1],"loss_changes":[8.205516E2,1.6715277E2,7.366371E2,5.2719055E1,9.242783E1,1.6638046E3,2.1821216E3,1.4992395E2,6.0970337E1,1.7079419E2,0E0,5.8185117E3,5.345479E3,1.7756436E3,1.3236355E3,0E0,0E0,0E0,0E0,5.8176212E1,0E0,7.3189443E3,8.347964E2,5.030927E3,1.4449688E3,2.211252E3,6.876155E2,2.3211519E3,1.0371418E3,0E0,2.0814385E0,4.0659216E3,2.0918213E3,6.0052246E2,2.9518274E2,4.7872852E2,2.0107178E3,5.916436E3,3.163449E3,1.6904949E3,1.4672927E3,0E0,2.3384644E2,1.850581E3,0E0,8.171778E2,9.781949E2,0E0,0E0,0E0,0E0,0E0,0E0,0E0,0E0,0E0,0E0,0E0,0E0,0E0,0E0,0E0,0E0,0E0,0E0,0E0,0E0,0E0,0E0,0E0,0E0,0E0,0E0,0E0,0E0,0E0,0E0],"parents":[2147483647,0,0,1,1,2,2,3,3,4,4,5,5,6,6,7,7,8,8,9,9,11,11,12,12,13,13,14,14,19,19,21,21,22,22,23,23,24,24,25,25,26,26,27,27,28,28,30,30,31,31,32,32,33,33,34,34,35,35,36,36,37,37,38,38,39,39,40,40,42,42,43,43,45,45,46,46],"right_children":[2,4,6,8,10,12,14,16,18,20,-1,22,24,26,28,-1,-1,-1,-1,30,-1,32,34,36,38,40,42,44,46,-1,48,50,52,54,56,58,60,62,64,66,68,-1,70,72,-1,74,76,-1,-1,-1,-1,-1,-1,-1,-1,-1,-1,-1,-1,-1,-1,-1,-1,-1,-1,-1,-1,-1,-1,-1,-1,-1,-1,-1,-1,-1,-1],"split_conditions":[-9.63E-1,2.5922499E1,1.5379206E1,-1.6088334E0,1E-1,5.1244993E0,1.584E1,1.8678415E1,1.0944532E1,-1.6088334E0,-2.3902829E0,4.770333E0,5.459917E0,1.5778518E1,1.5941944E1,1.1547318E0,-2.0941668E0,-4.3555298E-1,-3.460478E0,3.1264673E2,2.374553E0,4.257833E0,9.668332E1,2.6785034E2,6.316166E0,2.5563274E2,7.38075E0,9.000001E-1,2.4653666E1,-1.7616624E0,3.1541312E2,1.4458382E1,3.4457805E0,4.901583E0,5.0286665E0,1.2854639E1,1.0446206E1,8.590089E1,7.049501E0,4.915182E1,1.1E0,1.5177728E0,6.573381E1,1.6112001E1,-3.999184E0,5.0286665E0,1.5690567E2,-1.7544709E-1,2.2517624E-1,8.767329E-1,9.219022E0,3.6630387E0,-8.056043E0,1.6359261E0,1.1714565E1,5.3206367E0,7.0263064E-1,-1.2426763E0,-9.612172E0,-4.77507E0,5.1099896E0,-1.6068655E0,7.052653E0,-3.3014143E0,2.8062403E-1,-3.1151865E0,6.1497605E-1,-6.3260303E0,3.817321E-1,-2.5896332E0,-6.559066E0,9.840774E0,1.9211566E0,-6.1442345E-1,1.8554696E-1,-1.0195202E0,1.0391464E-2],"split_indices":[0,2,2,0,1,0,2,2,2,0,0,0,0,2,2,0,0,0,0,3,0,0,3,3,0,3,0,1,0,0,3,2,3,0,0,3,2,3,0,3,1,0,3,0,0,0,3,0,0,0,0,0,0,0,0,0,0,0,0,0,0,0,0,0,0,0,0,0,0,0,0,0,0,0,0,0,0],"split_type":[0,0,0,0,0,0,0,0,0,0,0,0,0,0,0,0,0,0,0,0,0,0,0,0,0,0,0,0,0,0,0,0,0,0,0,0,0,0,0,0,0,0,0,0,0,0,0,0,0,0,0,0,0,0,0,0,0,0,0,0,0,0,0,0,0,0,0,0,0,0,0,0,0,0,0,0,0],"sum_hessian":[2.34E3,1.9E1,2.321E3,1.2E1,7E0,7.67E2,1.554E3,5E0,7E0,6E0,1E0,7.2E1,6.95E2,8.7E1,1.467E3,1E0,4E0,1E0,6E0,5E0,1E0,6E1,1.2E1,1.6E1,6.79E2,7.5E1,1.2E1,1.6E1,1.451E3,2E0,3E0,5E1,1E1,5E0,7E0,1E1,6E0,2.7E1,6.52E2,6.2E1,1.3E1,1E0,1.1E1,1.3E1,3E0,1.12E3,3.31E2,1E0,2E0,4.5E1,5E0,1E0,9E0,1E0,4E0,5E0,2E0,1E0,9E0,2E0,4E0,1.5E1,1.2E1,2.2E1,6.3E2,1.3E1,4.9E1,9E0,4E0,4E0,7E0,3E0,1E1,1.29E2,9.91E2,1.67E2,1.64E2],"tree_param":{"num_deleted":"0","num_feature":"4","num_nodes":"77","size_leaf_vector":"1"}},{"base_weights":[2.5708305E-3,7.108727E-2,-3.2719977E0,3.3653814E-2,8.617524E0,-4.5439053E0,1.1854961E1,3.0168787E-1,-1.0784011E0,1.6774763E1,-7.812026E0,-1.1398885E1,-2.5135248E0,4.3605576E0,5.721405E-1,2.2618096E-1,2.3369104E1,-1.2977624E0,7.012737E0,7.72341E0,3.6111374E0,-2.7017465E0,-6.345961E-1,-2.2452948E1,1.0795445E1,-6.612608E-1,-5.1498966E0,3.383889E-2,2.9779932E0,8.486311E0,9.021274E0,-8.291668E-1,-7.689883E0,-9.0652466E-1,2.5746186E0,-7.729456E0,-3.8722745E-1,-3.4449418E0,6.614806E0,4.229996E0,-6.122596E0,5.3956006E-2,-1.5149984E0,2.6846876E0,-2.1717156E-1,-4.0295795E-2,4.099869E0,-3.4253177E-1,3.5555272E0,-4.5599465E0,-7.6261014E-1,-7.962193E-1,3.8828316E-1,2.3662007E-1,9.409719E0,-3.4271798E0,-8.0230755E-1],"categories":[],"categories_nodes":[],"categories_segments":[],"categories_sizes":[],"default_left":[0,0,0,0,0,0,0,0,0,0,0,0,0,0,0,0,0,0,0,0,0,0,0,0,0,0,0,0,0,0,0,0,0,0,0,0,0,0,0,0,0,0,0,0,0,0,0,0,0,0,0,0,0,0,0,0,0],"id":13,"left_children":[1,3,5,7,9,11,13,15,17,19,21,23,25,-1,-1,27,29,31,-1,-1,33,-1,-1,35,37,39,-1,41,43,-1,45,47,49,51,-1,-1,-1,-1,-1,53,55,-1,-1,-1,-1,-1,-1,-1,-1,-1,-1,-1,-1,-1,-1,-1,-1],"loss_changes":[5.254636E2,7.336127E2,9.773923E2,6.8141205E2,1.4712427E3,5.9766833E2,7.892926E1,3.2030166E3,2.412087E3,7.3357043E2,8.152603E0,2.6957644E3,9.6571924E2,0E0,0E0,9.7220374E2,1.6823608E2,1.3145598E3,0E0,0E0,9.760768E1,0E0,0E0,4.57354E2,1.2560803E3,9.0742084E2,0E0,1.2762023E3,2.6589473E3,0E0,1.2941762E2,1.6467527E3,1.1211627E3,1.4973061E1,0E0,0E0,0E0,0E0,0E0,1.6561221E3,2.6193256E2,0E0,0E0,0E0,0E0,0E0,0E0,0E0,0E0,0E0,0E0,0E0,0E0,0E0,0E0,0E0,0E0],"parents":[2147483647,0,0,1,1,2,2,3,3,4,4,5,5,6,6,7,7,8,8,9,9,10,10,11,11,12,12,15,15,16,16,17,17,20,20,23,23,24,24,25,25,27,27,28,28,30,30,31,31,32,32,33,33,39,39,40,40],"right_children":[2,4,6,8,10,12,14,16,18,20,22,24,26,-1,-1,28,30,32,-1,-1,34,-1,-1,36,38,40,-1,42,44,-1,46,48,50,52,-1,-1,-1,-1,-1,54,56,-1,-1,-1,-1,-1,-1,-1,-1,-1,-1,-1,-1,-1,-1,-1,-1],"split_conditions":[3.558781E2,3.5532764E2,1.5000001E1,5.1E0,7.8999987E0,3.5676456E2,1.2901584E1,4.9999995E0,3.0764082E1,1.15286665E1,1.4230748E1,9.1640835E0,4.3999996E0,4.3605576E0,5.721405E-1,3.384228E2,2.0099499E1,3.3676785E2,7.012737E0,7.72341E0,1.6212E1,-2.7017465E0,-6.345961E-1,1.3000002E0,1E-1,8.703667E0,-5.1498966E0,3.318117E2,3.4545816E2,8.486311E0,2.808075E1,3.309122E2,3.4545816E2,1.4641166E1,2.5746186E0,-7.729456E0,-3.8722745E-1,-3.4449418E0,6.614806E0,8.557833E0,1.4520332E1,5.3956006E-2,-1.5149984E0,2.6846876E0,-2.1717156E-1,-4.0295795E-2,4.099869E0,-3.4253177E-1,3.5555272E0,-4.5599465E0,-7.6261014E-1,-7.962193E-1,3.8828316E-1,2.3662007E-1,9.409719E0,-3.4271798E0,-8.0230755E-1],"split_indices":[3,3,1,1,1,3,0,1,0,0,0,0,1,0,0,3,0,3,0,0,0,0,0,1,1,0,0,3,3,0,0,3,3,0,0,0,0,0,0,0,0,0,0,0,0,0,0,0,0,0,0,0,0,0,0,0,0],"split_type":[0,0,0,0,0,0,0,0,0,0,0,0,0,0,0,0,0,0,0,0,0,0,0,0,0,0,0,0,0,0,0,0,0,0,0,0,0,0,0,0,0,0,0,0,0,0,0,0,0,0,0,0,0,0,0,0,0],"sum_hessian":[2.34E3,2.293E3,4.7E1,2.284E3,9E0,4.4E1,3E0,1.841E3,4.43E2,6E0,3E0,9E0,3.5E1,2E0,1E0,1.836E3,5E0,4.4E2,3E0,3E0,3E0,2E0,1E0,6E0,3E0,3.2E1,3E0,1.717E3,1.19E2,3E0,2E0,4.11E2,2.9E1,2E0,1E0,5E0,1E0,1E0,2E0,1.7E1,1.5E1,1.67E3,4.7E1,4.5E1,7.4E1,1E0,1E0,4.02E2,9E0,1.1E1,1.8E1,1E0,1E0,1.6E1,1E0,5E0,1E1],"tree_param":{"num_deleted":"0","num_feature":"4","num_nodes":"57","size_leaf_vector":"1"}},{"base_weights":[1.2591399E-2,-4.841636E0,5.4396722E-2,-6.390755E0,-1.7191129E0,6.666197E-1,-2.69686E-1,-3.3753994E0,-7.853428E0,-2.2001538E-2,-2.039834E0,8.6788464E-1,-4.2160187E0,-2.2089686E0,1.4001882E-1,9.734288E-1,-1.6045152E0,-3.783131E-1,-8.615048E0,-2.2593098E0,2.0102773E0,-4.5356483E0,9.498054E-1,4.2811365E0,-5.2726936E0,-8.1724584E-1,-6.7525573E0,4.01213E0,-7.142302E-2,-3.0497642E0,-9.4759375E-1,-1.4201207E0,1.613369E-1,7.0924723E-1,8.090069E0,-7.6963043E-1,-7.7108965E0,-4.777214E0,1.6212955E0,-1.0981344E1,-1.5618224E0,8.644436E0,-2.417862E0,1.5572834E-1,-3.1861603E0,-1.5722352E-1,1.6935045E-1,3.2178478E0,1.7583862E-1,-3.508064E0,3.3958077E0,-1.6095037E0,4.441456E0,-5.1087537E0,-1.2951007E0,-1.7854267E0,3.0915575E0,5.44486E0,6.2057283E-2,3.9914706E0,-3.6361408E0,3.5138593E0,-1.8953968E0,3.4335074E0,-9.8651963E-1,1.9277321E0,-1.2478627E0,4.7597494E-3,2.7466075E0,-1.6546013E0,6.7554307E-1],"categories":[],"categories_nodes":[],"categories_segments":[],"categories_sizes":[],"default_left":[0,0,0,0,0,0,0,0,0,0,0,0,0,0,0,0,0,0,0,0,0,0,0,0,0,0,0,0,0,0,0,0,0,0,0,0,0,0,0,0,0,0,0,0,0,0,0,0,0,0,0,0,0,0,0,0,0,0,0,0,0,0,0,0,0,0,0,0,0,0,0],"id":14,"left_children":[1,3,5,7,9,11,13,15,17,19,-1,21,23,25,27,-1,-1,-1,29,31,-1,-1,33,-1,35,37,39,41,43,-1,-1,-1,45,47,49,51,53,55,57,59,61,63,65,67,69,-1,-1,-1,-1,-1,-1,-1,-1,-1,-1,-1,-1,-1,-1,-1,-1,-1,-1,-1,-1,-1,-1,-1,-1,-1,-1],"loss_changes":[4.7532846E2,8.5756775E1,4.6088986E2,3.0827759E1,6.882553E1,7.937529E2,1.2072057E3,9.572311E1,2.9303223E1,1.2042826E2,0E0,1.0267141E3,7.00338E2,1.6701866E3,1.027788E3,0E0,0E0,0E0,2.7123352E1,3.670199E1,0E0,0E0,1.3168513E3,0E0,3.344264E2,1.9776807E3,1.3437808E3,1.9569713E3,8.4314874E2,0E0,0E0,0E0,1.4011836E0,9.1373047E2,1.7295394E3,9.3827655E2,5.5899023E2,1.4427014E3,2.9652727E3,1.1018745E3,1.904964E3,1.3075562E3,4.5800616E2,1.3982825E3,1.0383652E3,0E0,0E0,0E0,0E0,0E0,0E0,0E0,0E0,0E0,0E0,0E0,0E0,0E0,0E0,0E0,0E0,0E0,0E0,0E0,0E0,0E0,0E0,0E0,0E0,0E0,0E0],"parents":[2147483647,0,0,1,1,2,2,3,3,4,4,5,5,6,6,7,7,8,8,9,9,11,11,12,12,13,13,14,14,18,18,19,19,22,22,24,24,25,25,26,26,27,27,28,28,32,32,33,33,34,34,35,35,36,36,37,37,38,38,39,39,40,40,41,41,42,42,43,43,44,44],"right_children":[2,4,6,8,10,12,14,16,18,20,-1,22,24,26,28,-1,-1,-1,30,32,-1,-1,34,-1,36,38,40,42,44,-1,-1,-1,46,48,50,52,54,56,58,60,62,64,66,68,70,-1,-1,-1,-1,-1,-1,-1,-1,-1,-1,-1,-1,-1,-1,-1,-1,-1,-1,-1,-1,-1,-1,-1,-1,-1,-1],"split_conditions":[-9.63E-1,2.5922499E1,1.2422416E1,-1.6088334E0,1E-1,1.2900001E1,4.4714245E1,1.8678415E1,1.0944532E1,-1.6088334E0,-2.039834E0,1.2630161E0,1.0990322E1,3.215227E1,5.8602764E1,9.734288E-1,-1.6045152E0,-3.783131E-1,3.203818E2,3.1264673E2,2.0102773E0,-4.5356483E0,1.1978665E1,4.2811365E0,4.34841E1,1.7032833E1,1.8584509E1,1.6595179E1,2.7086262E1,-3.0497642E0,-9.4759375E-1,-1.4201207E0,3.1541312E2,3.4457805E0,1.1609651E1,3.789948E1,5.1581905E1,2.9882166E1,1.7482832E1,1.2522416E1,1.6703665E1,2.7089079E1,1.413075E1,2.6474077E1,9.3E0,-1.5722352E-1,1.6935045E-1,3.2178478E0,1.7583862E-1,-3.508064E0,3.3958077E0,-1.6095037E0,4.441456E0,-5.1087537E0,-1.2951007E0,-1.7854267E0,3.0915575E0,5.44486E0,6.2057283E-2,3.9914706E0,-3.6361408E0,3.5138593E0,-1.8953968E0,3.4335074E0,-9.8651963E-1,1.9277321E0,-1.2478627E0,4.7597494E-3,2.7466075E0,-1.6546013E0,6.7554307E-1],"split_indices":[0,2,0,0,1,1,3,2,2,0,0,3,2,3,3,0,0,0,3,3,0,0,0,0,3,0,2,2,2,0,0,0,3,3,2,3,3,2,0,0,0,0,0,2,1,0,0,0,0,0,0,0,0,0,0,0,0,0,0,0,0,0,0,0,0,0,0,0,0,0,0],"split_type":[0,0,0,0,0,0,0,0,0,0,0,0,0,0,0,0,0,0,0,0,0,0,0,0,0,0,0,0,0,0,0,0,0,0,0,0,0,0,0,0,0,0,0,0,0,0,0,0,0,0,0,0,0,0,0,0,0,0,0,0,0,0,0,0,0,0,0,0,0,0,0],"sum_hessian":[2.34E3,1.9E1,2.321E3,1.2E1,7E0,8.03E2,1.518E3,5E0,7E0,6E0,1E0,7.72E2,3.1E1,2.64E2,1.254E3,1E0,4E0,1E0,6E0,5E0,1E0,3E0,7.69E2,1E0,3E1,2.03E2,6.1E1,6.4E1,1.19E3,4E0,2E0,2E0,3E0,7.45E2,2.4E1,1.1E1,1.9E1,7.7E1,1.26E2,3.3E1,2.8E1,3.7E1,2.7E1,1.11E3,8E1,1E0,2E0,8E0,7.37E2,3E0,2.1E1,9E0,2E0,4E0,1.5E1,7.2E1,5E0,9E0,1.17E2,1E0,3.2E1,7E0,2.1E1,3E1,7E0,4E0,2.3E1,1.094E3,1.6E1,5.6E1,2.4E1],"tree_param":{"num_deleted":"0","num_feature":"4","num_nodes":"71","size_leaf_vector":"1"}},{"base_weights":[1.1672969E-2,-4.5288916E0,5.077702E-2,-2.1104874E1,2.4034276E0,9.809131E0,-2.5449071E-2,-7.3414216E0,-6.4083254E-1,2.2929295E1,-4.638814E0,-4.705121E0,1.3975973E1,-5.142026E0,3.9727118E-2,1.1376282E1,-3.3068442E0,-5.587009E-1,-5.007876E0,1.129113E1,5.6205506E0,9.401636E0,-9.344791E0,2.4580867E0,-7.365174E-2,5.5908604E0,-7.826434E0,1.1477321E1,-1.7727789E1,-4.671224E-2,1.3190318E1,-8.409279E0,-2.596924E0,4.2910123E-1,2.1081842E1,-2.089888E0,5.8628894E-2,3.8108037E0,-1.7265553E0,-2.881191E0,-1.07444E-1,6.998883E0,4.1153464E-1,-6.401425E0,-1.5760804E0,1.3560677E0,-1.3770882E0,5.9927945E0,6.0236514E-1,2.63621E0,-2.7064047E0,2.7535243E0,-9.309438E-1,2.0198786E0,8.857689E0,-1.5693355E-1,-3.4636428E0,2.8769166E0,-4.978806E-3],"categories":[],"categories_nodes":[],"categories_segments":[],"categories_sizes":[],"default_left":[0,0,0,0,0,0,0,0,0,0,0,0,0,0,0,0,0,0,0,0,0,0,0,0,0,0,0,0,0,0,0,0,0,0,0,0,0,0,0,0,0,0,0,0,0,0,0,0,0,0,0,0,0,0,0,0,0,0,0],"id":15,"left_children":[1,3,5,7,9,11,13,-1,-1,15,17,-1,19,21,23,-1,-1,25,-1,-1,27,29,31,33,35,37,39,41,43,45,47,-1,49,51,53,55,57,-1,-1,-1,-1,-1,-1,-1,-1,-1,-1,-1,-1,-1,-1,-1,-1,-1,-1,-1,-1,-1,-1],"loss_changes":[4.1588498E2,2.348924E3,1.7274489E3,3.3088013E2,2.2745864E3,2.131241E3,7.6887335E2,0E0,0E0,2.4539868E3,5.80859E2,0E0,2.9516387E3,1.8604409E3,6.2451355E2,0E0,0E0,4.9069025E2,0E0,0E0,1.9811633E3,2.5119366E2,2.827312E3,3.8452612E3,5.804814E2,5.572523E2,6.2936066E1,1.2855084E3,2.3004639E1,8.299992E1,3.3929175E2,0E0,1.3957493E3,2.9026226E3,1.01279785E3,1.9791426E3,1.4649404E3,0E0,0E0,0E0,0E0,0E0,0E0,0E0,0E0,0E0,0E0,0E0,0E0,0E0,0E0,0E0,0E0,0E0,0E0,0E0,0E0,0E0,0E0],"parents":[2147483647,0,0,1,1,2,2,3,3,4,4,5,5,6,6,9,9,10,10,12,12,13,13,14,14,17,17,20,20,21,21,22,22,23,23,24,24,25,25,26,26,27,27,28,28,29,29,30,30,32,32,33,33,34,34,35,35,36,36],"right_children":[2,4,6,8,10,12,14,-1,-1,16,18,-1,20,22,24,-1,-1,26,-1,-1,28,30,32,34,36,38,40,42,44,46,48,-1,50,52,54,56,58,-1,-1,-1,-1,-1,-1,-1,-1,-1,-1,-1,-1,-1,-1,-1,-1,-1,-1,-1,-1,-1,-1],"split_conditions":[8.39078E0,5.0258965E1,8.913181E0,1.6734917E1,8.140825E1,7.38075E0,9.693296E0,-7.3414216E0,-6.4083254E-1,7.0000005E-1,6.6E0,-4.705121E0,9.047416E0,7.38075E0,1.0990322E1,1.1376282E1,-3.3068442E0,2.0736922E2,-5.007876E0,1.129113E1,2.1773427E2,9.086225E1,1.1357833E1,1.0944532E1,3.897417E0,7.928178E0,1.3220333E1,3E-1,9.534918E0,4.901583E0,2.111268E2,-8.409279E0,1.3945227E2,6.5661674E0,5.7974153E0,3.41825E0,4.257833E0,3.8108037E0,-1.7265553E0,-2.881191E0,-1.07444E-1,6.998883E0,4.1153464E-1,-6.401425E0,-1.5760804E0,1.3560677E0,-1.3770882E0,5.9927945E0,6.0236514E-1,2.63621E0,-2.7064047E0,2.7535243E0,-9.309438E-1,2.0198786E0,8.857689E0,-1.5693355E-1,-3.4636428E0,2.8769166E0,-4.978806E-3],"split_indices":[2,3,2,0,3,0,2,0,0,1,1,0,0,0,2,0,0,3,0,0,3,3,0,2,0,2,0,1,0,0,3,0,3,0,0,0,0,0,0,0,0,0,0,0,0,0,0,0,0,0,0,0,0,0,0,0,0,0,0],"split_type":[0,0,0,0,0,0,0,0,0,0,0,0,0,0,0,0,0,0,0,0,0,0,0,0,0,0,0,0,0,0,0,0,0,0,0,0,0,0,0,0,0,0,0,0,0,0,0,0,0,0,0,0,0,0,0,0,0,0,0],"sum_hessian":[2.34E3,1.9E1,2.321E3,5E0,1.4E1,1.7E1,2.304E3,4E0,1E0,3E0,1.1E1,2E0,1.5E1,2.8E1,2.276E3,2E0,1E0,9E0,2E0,3E0,1.2E1,6E0,2.2E1,1.01E2,2.175E3,5E0,4E0,1E1,2E0,2E0,4E0,5E0,1.7E1,9.2E1,9E0,1.33E2,2.042E3,3E0,2E0,3E0,1E0,4E0,6E0,1E0,1E0,1E0,1E0,2E0,2E0,6E0,1.1E1,2.6E1,6.6E1,4E0,5E0,1.15E2,1.8E1,1.5E1,2.027E3],"tree_param":{"num_deleted":"0","num_feature":"4","num_nodes":"59","size_leaf_vector":"1"}},{"base_weights":[1.2547201E-2,6.981668E-2,-2.784176E0,2.3154923E-1,-1.0064766E0,-1.0924948E1,-1.7728266E0,1.5191075E-1,9.493469E0,-2.4775603E0,2.3993921E0,-3.7058961E0,-7.8191876E-1,5.1545773E0,-4.620679E0,6.922015E-1,-3.9017254E-1,1.504278E1,1.3701482E0,-7.628137E0,-1.7719582E0,1.4201658E0,5.687415E0,-5.193177E0,1.0330599E1,-6.356676E0,1.1648977E0,1.817545E-1,7.517721E0,-3.9752882E0,-3.5604857E-2,-1.7971582E0,6.75499E0,1.2168963E1,-7.5429335E0,9.5702715E0,-9.539749E0,9.8988116E-1,-3.299219E0,1.2010573E1,-1.1119332E-1,1.4916974E-1,-6.7400875E0,4.6277328E0,1.0518551E-1,-2.6690943E0,-9.271623E0,1.2049749E0,-4.5509467E-1,1.4751972E-1,-1.1566225E0,2.5465815E0,-3.114386E0,4.188144E0,-1.4289857E0,1.1585025E-1,-9.408248E-1,1.6932187E0,-1.8476757E0,-6.7142546E-1,5.315202E0,-4.958851E-1,-2.5806577E0,-2.0585003E0,6.365123E0,-7.0849676E0,-2.3479245E0,-1.0117311E-1,4.3615575E0,-2.314285E0,-7.01719E-1,-6.457138E-2,6.6703873E0,2.2266383E0,-4.8484403E-1,-4.9568483E-1,-2.3655787E0,-8.425799E-1,6.037941E-1,-1.6082062E0,1.2162787E0,-3.407583E0,4.4136047E-1,-5.187643E-1,1.8428063E-1],"categories":[],"categories_nodes":[],"categories_segments":[],"categories_sizes":[],"default_left":[0,0,0,0,0,0,0,0,0,0,0,0,0,0,0,0,0,0,0,0,0,0,0,0,0,0,0,0,0,0,0,0,0,0,0,0,0,0,0,0,0,0,0,0,0,0,0,0,0,0,0,0,0,0,0,0,0,0,0,0,0,0,0,0,0,0,0,0,0,0,0,0,0,0,0,0,0,0,0,0,0,0,0,0,0],"id":16,"left_children":[1,3,5,7,9,11,13,15,17,19,21,-1,-1,23,25,27,29,31,33,35,37,39,-1,41,43,45,47,49,51,53,55,57,-1,59,61,63,65,67,69,71,73,-1,75,-1,77,79,81,-1,83,-1,-1,-1,-1,-1,-1,-1,-1,-1,-1,-1,-1,-1,-1,-1,-1,-1,-1,-1,-1,-1,-1,-1,-1,-1,-1,-1,-1,-1,-1,-1,-1,-1,-1,-1,-1],"loss_changes":[3.7514505E2,3.9972748E2,3.6759073E2,1.470818E3,1.5090399E3,2.719934E1,8.7213116E2,5.801776E2,7.4572925E2,7.4967737E2,1.4486118E3,0E0,0E0,7.499313E2,3.18761E2,3.4548276E3,1.2570417E3,1.2990586E3,8.617955E2,9.1321533E2,7.87823E2,1.4122769E3,0E0,4.7364166E1,4.672799E2,2.3323163E2,3.8785595E1,1.1582183E3,1.2871943E3,1.3243649E3,1.1794448E3,1.6458861E2,0E0,3.59396E2,1.6976044E1,7.1972327E2,3.6988745E2,1.2096125E3,4.906537E2,1.379756E3,8.8496704E2,0E0,1.0277008E1,0E0,2.7884449E1,2.3889209E2,3.081725E2,0E0,9.237184E0,0E0,0E0,0E0,0E0,0E0,0E0,0E0,0E0,0E0,0E0,0E0,0E0,0E0,0E0,0E0,0E0,0E0,0E0,0E0,0E0,0E0,0E0,0E0,0E0,0E0,0E0,0E0,0E0,0E0,0E0,0E0,0E0,0E0,0E0,0E0,0E0],"parents":[2147483647,0,0,1,1,2,2,3,3,4,4,5,5,6,6,7,7,8,8,9,9,10,10,13,13,14,14,15,15,16,16,17,17,18,18,19,19,20,20,21,21,23,23,24,24,25,25,26,26,27,27,28,28,29,29,30,30,31,31,33,33,34,34,35,35,36,36,37,37,38,38,39,39,40,40,42,42,44,44,45,45,46,46,48,48],"right_children":[2,4,6,8,10,12,14,16,18,20,22,-1,-1,24,26,28,30,32,34,36,38,40,-1,42,44,46,48,50,52,54,56,58,-1,60,62,64,66,68,70,72,74,-1,76,-1,78,80,82,-1,84,-1,-1,-1,-1,-1,-1,-1,-1,-1,-1,-1,-1,-1,-1,-1,-1,-1,-1,-1,-1,-1,-1,-1,-1,-1,-1,-1,-1,-1,-1,-1,-1,-1,-1,-1,-1],"split_conditions":[3.5300003E1,2.7220337E1,1.8191166E1,2.6959917E1,2.7999997E0,6.1300003E1,2.2666162E1,1E-1,6.8999996E0,2.808075E1,3.0764082E1,-3.7058961E0,-7.8191876E-1,8.007378E1,4.2914806E1,2.3722418E1,2E-1,1E-1,2.0996947E2,1.1808878E1,1.4571732E2,3.3999999E0,5.687415E0,4.15E1,2.0203021E2,4.15E1,4.34841E1,2.1376581E1,2.8322992E2,1.139842E1,2.4966164E1,2.7089079E1,6.75499E0,7.3999996E0,2.2454169E2,2.7655752E1,1.3661038E1,3.1120337E1,2.8814081E1,1.4544401E1,1.3084402E1,1.4916974E-1,2.0972414E1,4.6277328E0,3.65E1,3.91E1,1.9894551E2,1.2049749E0,2.4653666E1,1.4751972E-1,-1.1566225E0,2.5465815E0,-3.114386E0,4.188144E0,-1.4289857E0,1.1585025E-1,-9.408248E-1,1.6932187E0,-1.8476757E0,-6.7142546E-1,5.315202E0,-4.958851E-1,-2.5806577E0,-2.0585003E0,6.365123E0,-7.0849676E0,-2.3479245E0,-1.0117311E-1,4.3615575E0,-2.314285E0,-7.01719E-1,-6.457138E-2,6.6703873E0,2.2266383E0,-4.8484403E-1,-4.9568483E-1,-2.3655787E0,-8.425799E-1,6.037941E-1,-1.6082062E0,1.2162787E0,-3.407583E0,4.4136047E-1,-5.187643E-1,1.8428063E-1],"split_indices":[1,0,0,0,1,1,0,1,1,0,0,0,0,3,2,0,1,1,3,2,3,1,0,1,3,1,3,0,3,2,0,0,0,1,3,0,2,0,0,2,2,0,0,0,1,1,3,0,0,0,0,0,0,0,0,0,0,0,0,0,0,0,0,0,0,0,0,0,0,0,0,0,0,0,0,0,0,0,0,0,0,0,0,0,0],"split_type":[0,0,0,0,0,0,0,0,0,0,0,0,0,0,0,0,0,0,0,0,0,0,0,0,0,0,0,0,0,0,0,0,0,0,0,0,0,0,0,0,0,0,0,0,0,0,0,0,0,0,0,0,0,0,0,0,0,0,0,0,0,0,0,0,0,0,0,0,0,0,0,0,0,0,0,0,0,0,0,0,0,0,0,0,0],"sum_hessian":[2.34E3,2.294E3,4.6E1,1.995E3,2.99E2,4E0,4.2E1,1.979E3,1.6E1,2.09E2,9E1,3E0,1E0,1.2E1,3E1,9.91E2,9.88E2,9E0,7E0,2.4E1,1.85E2,8.6E1,4E0,4E0,8E0,2.3E1,7E0,9.23E2,6.8E1,8.8E1,9E2,3E0,6E0,3E0,4E0,2E0,2.2E1,6.6E1,1.19E2,1E1,7.6E1,1E0,3E0,5E0,3E0,1.1E1,1.2E1,2E0,5E0,8.58E2,6.5E1,6.5E1,3E0,3E0,8.5E1,7.93E2,1.07E2,1E0,2E0,1E0,2E0,1E0,3E0,1E0,1E0,1E0,2.1E1,6.1E1,5E0,2E1,9.9E1,5E0,5E0,1.2E1,6.4E1,1E0,2E0,1E0,2E0,8E0,3E0,1E1,2E0,2E0,3E0],"tree_param":{"num_deleted":"0","num_feature":"4","num_nodes":"85","size_leaf_vector":"1"}},{"base_weights":[1.4497355E-2,9.253663E-2,-1.6820506E0,2.8385196E-2,7.5866313E0,-8.97899E0,-3.1181335E-2,3.794919E-1,-7.746316E-1,-9.533531E0,1.8367853E1,-1.7307089E1,4.635534E0,1.2193377E1,-1.6392655E0,1.7839052E-1,6.9332676E0,-1.9148637E-1,-3.773438E0,-5.1099744E0,2.2244968E0,2.5329735E1,-1.8883414E0,3.7391443E0,-2.1146608E1,8.030268E0,-2.8691409E0,7.0310416E0,-3.7374108E0,1.0476697E-1,-7.698247E0,-6.283231E-2,2.2291822E0,4.063246E0,2.538954E1,-4.990235E0,2.3175868E-1,-7.6228905E0,-1.7977194E0,2.5405533E0,-2.476132E0,1.3603116E1,1.7160023E1,6.601937E-1,-1.1954657E0,-4.469602E0,-2.4355988E1,-3.6169398E-1,9.770528E0,-1.9603552E0,3.0549875E-1,-1.7953455E0,1.7505003E1,-1.3372916E1,-1.1682167E0,5.2477002E-2,-1.2984463E0,1.1349951E0,-1.4443492E0,2.4379926E0,-1.9301546E0,9.300047E0,-3.9952928E-1,-2.3602319E0,6.444574E-1,3.0720344E0,-4.3800082E-2,-6.0841334E-1,-7.441122E0,1.8417838E0,-1.7917501E0,2.3630397E0,9.001939E0,-7.201882E-2,-1.9393021E0,-1.0463791E0,-7.9585514E0,3.9801626E0,5.554337E-1,4.2046854E-1,-2.829941E-1,-2.1378994E0,5.120761E-1,7.060629E0,-1.8970689E0,-2.1009946E0,-4.61715E0,5.4235973E0,-2.7749968E0],"categories":[],"categories_nodes":[],"categories_segments":[],"categories_sizes":[],"default_left":[0,0,0,0,0,0,0,0,0,0,0,0,0,0,0,0,0,0,0,0,0,0,0,0,0,0,0,0,0,0,0,0,0,0,0,0,0,0,0,0,0,0,0,0,0,0,0,0,0,0,0,0,0,0,0,0,0,0,0,0,0,0,0,0,0,0,0,0,0,0,0,0,0,0,0,0,0,0,0,0,0,0,0,0,0,0,0,0,0],"id":17,"left_children":[1,3,5,7,9,11,13,15,17,19,21,23,25,27,29,31,33,35,37,-1,39,41,43,-1,45,47,-1,-1,49,51,53,55,57,59,61,63,65,67,69,-1,-1,-1,71,-1,-1,73,75,-1,77,-1,79,81,83,85,87,-1,-1,-1,-1,-1,-1,-1,-1,-1,-1,-1,-1,-1,-1,-1,-1,-1,-1,-1,-1,-1,-1,-1,-1,-1,-1,-1,-1,-1,-1,-1,-1,-1,-1],"loss_changes":[3.100979E2,1.0761995E3,1.240488E3,6.2649286E2,3.68206E3,2.2345063E3,1.6909282E3,2.0363499E3,1.1814253E3,7.4334546E2,1.7400857E3,1.6352388E3,4.624237E2,1.8787594E3,8.039031E2,7.426814E2,2.3334521E3,1.15276E3,8.228943E2,0E0,3.31603E2,6.9347754E2,4.3060287E1,0E0,4.7989014E2,1.242901E2,0E0,0E0,5.8538506E1,2.015172E3,6.1432556E2,1.3637134E3,1.7478132E3,1.8010935E3,9.4082275E2,9.616814E2,1.9750444E3,3.506292E3,2.4886733E3,0E0,0E0,0E0,7.1769604E2,0E0,0E0,2.3758617E1,3.154961E2,0E0,1.4157947E2,0E0,5.4284434E0,1.0390432E3,1.0110062E3,7.8762207E0,1.5671669E3,0E0,0E0,0E0,0E0,0E0,0E0,0E0,0E0,0E0,0E0,0E0,0E0,0E0,0E0,0E0,0E0,0E0,0E0,0E0,0E0,0E0,0E0,0E0,0E0,0E0,0E0,0E0,0E0,0E0,0E0,0E0,0E0,0E0,0E0],"parents":[2147483647,0,0,1,1,2,2,3,3,4,4,5,5,6,6,7,7,8,8,9,9,10,10,11,11,12,12,13,13,14,14,15,15,16,16,17,17,18,18,20,20,21,21,22,22,24,24,25,25,28,28,29,29,30,30,31,31,32,32,33,33,34,34,35,35,36,36,37,37,38,38,42,42,45,45,46,46,48,48,50,50,51,51,52,52,53,53,54,54],"right_children":[2,4,6,8,10,12,14,16,18,20,22,24,26,28,30,32,34,36,38,-1,40,42,44,-1,46,48,-1,-1,50,52,54,56,58,60,62,64,66,68,70,-1,-1,-1,72,-1,-1,74,76,-1,78,-1,80,82,84,86,88,-1,-1,-1,-1,-1,-1,-1,-1,-1,-1,-1,-1,-1,-1,-1,-1,-1,-1,-1,-1,-1,-1,-1,-1,-1,-1,-1,-1,-1,-1,-1,-1,-1,-1],"split_conditions":[3.511996E2,3.4917056E2,3.5284387E2,2.0111729E1,1.7208603E1,1.1211999E1,3.5427695E2,1.9803272E1,3.1909622E2,7.8120003E0,3E-1,1.4182502E0,2.2366402E1,1.018075E1,2.3023119E1,3.0190424E2,2.1773427E2,1.1224109E1,2.2691423E1,-5.1099744E0,2.2409914E1,2.0746122E1,4.6599174E0,3.7391443E0,1.6039202E1,1.1357833E1,-2.8691409E0,7.0310416E0,2.7086262E1,2.19718E1,2.6903828E1,2.6037708E2,1.8314081E1,1.4571732E2,1.9545332E1,2.8137634E1,1.33925295E1,2.2027763E1,2.4569832E1,2.5405533E0,-2.476132E0,1.3603116E1,2.7231804E1,6.601937E-1,-1.1954657E0,4.403666E0,2.1474168E0,-3.6169398E-1,2.484117E1,-1.9603552E0,1.6441166E1,8.2890835E0,9.000001E-1,3.5472473E2,2.7231804E1,5.2477002E-2,-1.2984463E0,1.1349951E0,-1.4443492E0,2.4379926E0,-1.9301546E0,9.300047E0,-3.9952928E-1,-2.3602319E0,6.444574E-1,3.0720344E0,-4.3800082E-2,-6.0841334E-1,-7.441122E0,1.8417838E0,-1.7917501E0,2.3630397E0,9.001939E0,-7.201882E-2,-1.9393021E0,-1.0463791E0,-7.9585514E0,3.9801626E0,5.554337E-1,4.2046854E-1,-2.829941E-1,-2.1378994E0,5.120761E-1,7.060629E0,-1.8970689E0,-2.1009946E0,-4.61715E0,5.4235973E0,-2.7749968E0],"split_indices":[3,3,3,2,2,0,3,2,3,0,1,0,2,0,2,3,3,3,2,0,0,2,0,0,2,0,0,0,2,2,2,3,0,3,0,2,3,2,2,0,0,0,2,0,0,0,0,0,0,0,0,0,1,3,2,0,0,0,0,0,0,0,0,0,0,0,0,0,0,0,0,0,0,0,0,0,0,0,0,0,0,0,0,0,0,0,0,0,0],"split_type":[0,0,0,0,0,0,0,0,0,0,0,0,0,0,0,0,0,0,0,0,0,0,0,0,0,0,0,0,0,0,0,0,0,0,0,0,0,0,0,0,0,0,0,0,0,0,0,0,0,0,0,0,0,0,0,0,0,0,0,0,0,0,0,0,0,0,0,0,0,0,0,0,0,0,0,0,0,0,0,0,0,0,0,0,0,0,0,0,0],"sum_hessian":[2.34E3,2.238E3,1.02E2,2.22E3,1.8E1,1.8E1,8.4E1,1.545E3,6.75E2,7E0,1.1E1,1.1E1,7E0,9E0,7.5E1,1.5E3,4.5E1,5.66E2,1.09E2,4E0,3E0,8E0,3E0,1E0,1E1,6E0,1E0,5E0,4E0,5.9E1,1.6E1,1.343E3,1.57E2,4E1,5E0,4.5E1,5.21E2,3.6E1,7.3E1,2E0,1E0,1E0,7E0,1E0,2E0,2E0,8E0,1E0,5E0,2E0,2E0,5.4E1,5E0,8E0,8E0,1.273E3,7E1,1.29E2,2.8E1,2.9E1,1.1E1,4E0,1E0,3.2E1,1.3E1,1.8E1,5.03E2,2.8E1,8E0,2.5E1,4.8E1,5E0,2E0,1E0,1E0,1E0,7E0,3E0,2E0,1E0,1E0,2.1E1,3.3E1,4E0,1E0,3E0,5E0,2E0,6E0],"tree_param":{"num_deleted":"0","num_feature":"4","num_nodes":"89","size_leaf_vector":"1"}},{"base_weights":[1.8374939E-2,-2.2997534E-1,5.8347636E-1,-4.3124986E0,-6.819601E-2,2.4213562E0,-1.399384E-1,-1.3643485E0,-1.43229885E1,3.9186203E0,-2.8829753E-1,-3.7750466E0,4.2726994E0,2.6263292E0,-6.1114323E-1,-2.6610758E0,9.131784E0,-4.6004963E0,-1.9213207E1,6.614078E-1,1.3348552E1,-1.728148E1,-2.0767508E-1,7.658411E0,-5.6446953E0,9.498731E0,3.3436115E0,-2.225524E0,1.4416045E1,-1.6536251E1,-1.642611E-1,3.7384424E-1,-1.4231157E1,-3.429125E0,-9.484291E-1,-2.3669165E1,-2.4115677E0,1.3278091E1,-5.662682E0,-6.135688E0,2.1551292E1,-6.987263E0,-6.9517155E0,1.5132028E1,-2.6997533E-1,5.8084636E0,-9.082982E0,1.3633935E1,2.1174161E0,2.139682E0,-1.7682053E1,4.696941E0,2.5609276E1,-6.4823127E0,5.887466E0,2.3801869E-1,-4.0823827E0,-6.745392E-1,9.777309E0,-4.9954247E0,1.1326745E0,-7.929746E-1,8.7462735E-1,-7.8692975E0,-1.2447305E0,3.828186E-1,-1.4680241E0,1.3452555E0,9.067593E0,-3.700988E0,3.6150692E0,1.4781868E0,-3.463901E0,7.6698427E0,-5.198486E0,1.0439004E0,-3.47662E0,8.690797E0,2.9131567E-1,-4.1225657E0,-4.7786947E-2,-1.4884587E-1,5.089674E0,-4.163133E0,7.9154664E-1,1.4258659E0,1.5160255E1,2.1161814E0,-4.1789453E-2,-1.3261979E0,2.7668788E0,8.9454466E-1,-7.4703965E0,-2.0442553E0,4.6611223E0,9.236834E0,-3.1518347E0,1.0053461E-2,3.4268084E0,2.4272482E0,-1.9405686E0],"categories":[],"categories_nodes":[],"categories_segments":[],"categories_sizes":[],"default_left":[0,0,0,0,0,0,0,0,0,0,0,0,0,0,0,0,0,0,0,0,0,0,0,0,0,0,0,0,0,0,0,0,0,0,0,0,0,0,0,0,0,0,0,0,0,0,0,0,0,0,0,0,0,0,0,0,0,0,0,0,0,0,0,0,0,0,0,0,0,0,0,0,0,0,0,0,0,0,0,0,0,0,0,0,0,0,0,0,0,0,0,0,0,0,0,0,0,0,0,0,0],"id":18,"left_children":[1,3,5,7,9,11,13,15,17,19,21,23,25,27,29,31,-1,33,35,37,39,41,43,-1,45,-1,47,49,51,53,55,57,59,-1,61,63,65,67,69,71,73,-1,75,77,79,81,83,85,87,89,91,93,95,-1,-1,97,99,-1,-1,-1,-1,-1,-1,-1,-1,-1,-1,-1,-1,-1,-1,-1,-1,-1,-1,-1,-1,-1,-1,-1,-1,-1,-1,-1,-1,-1,-1,-1,-1,-1,-1,-1,-1,-1,-1,-1,-1,-1,-1,-1,-1],"loss_changes":[3.2867737E2,1.0742871E3,9.509667E2,1.810229E3,1.3753015E3,2.3334067E3,6.7159314E2,2.1017925E3,5.7724097E2,2.5098252E3,2.0309082E3,2.7190623E3,3.8639387E3,4.322231E3,3.1286082E3,1.6908052E3,0E0,1.3881903E2,6.167268E2,5.02211E3,3.4885398E3,2.7261792E2,1.4175168E3,0E0,1.8248243E3,0E0,1.8890597E3,3.6812642E3,2.2730547E3,2.6247249E3,6.771534E2,3.3681316E3,4.9867834E2,0E0,4.044886E1,2.4121436E2,3.3700684E1,2.9941414E3,5.1136885E3,4.758973E2,2.7844507E3,0E0,2.3380695E2,1.1475664E3,2.1957588E3,7.8217224E2,2.0034126E3,5.003223E3,1.5272062E3,2.0389177E3,1.8643875E3,1.7280403E3,2.194315E3,0E0,0E0,8.9168225E2,1.2142341E3,0E0,0E0,0E0,0E0,0E0,0E0,0E0,0E0,0E0,0E0,0E0,0E0,0E0,0E0,0E0,0E0,0E0,0E0,0E0,0E0,0E0,0E0,0E0,0E0,0E0,0E0,0E0,0E0,0E0,0E0,0E0,0E0,0E0,0E0,0E0,0E0,0E0,0E0,0E0,0E0,0E0,0E0,0E0,0E0],"parents":[2147483647,0,0,1,1,2,2,3,3,4,4,5,5,6,6,7,7,8,8,9,9,10,10,11,11,12,12,13,13,14,14,15,15,17,17,18,18,19,19,20,20,21,21,22,22,24,24,26,26,27,27,28,28,29,29,30,30,31,31,32,32,34,34,35,35,36,36,37,37,38,38,39,39,40,40,42,42,43,43,44,44,45,45,46,46,47,47,48,48,49,49,50,50,51,51,52,52,55,55,56,56],"right_children":[2,4,6,8,10,12,14,16,18,20,22,24,26,28,30,32,-1,34,36,38,40,42,44,-1,46,-1,48,50,52,54,56,58,60,-1,62,64,66,68,70,72,74,-1,76,78,80,82,84,86,88,90,92,94,96,-1,-1,98,100,-1,-1,-1,-1,-1,-1,-1,-1,-1,-1,-1,-1,-1,-1,-1,-1,-1,-1,-1,-1,-1,-1,-1,-1,-1,-1,-1,-1,-1,-1,-1,-1,-1,-1,-1,-1,-1,-1,-1,-1,-1,-1,-1,-1],"split_conditions":[1.968132E2,4.901583E0,2.7726764E2,2.0345573E1,6.5661674E0,1.3138765E1,1.3287122E1,2.0240198E1,3.334916E0,6.197417E0,6.6432495E0,1.9894551E2,1.3684735E1,1.2522619E1,1.3722565E1,9.086225E1,9.131784E0,1.4182502E0,2.67565E1,1.6686607E1,1.9521175E1,1E-1,6.7515836E0,7.658411E0,6.105751E0,9.498731E0,7.920334E0,1.1901798E1,3.221968E2,3.585414E2,2.2530752E1,7.7941284E1,1.8816597E2,-3.429125E0,2.4696102E1,3.789948E1,4.6599174E0,1.2219308E1,8.590089E1,1.0182337E1,1.517098E2,-6.987263E0,1.675064E1,3.789948E1,7.049501E0,1.1808878E1,2E-1,6.197417E0,1E-1,1.0446206E1,4.5224166E0,1E-1,1.7922417E1,-6.4823127E0,5.887466E0,2.2166166E1,1.5509274E1,-6.745392E-1,9.777309E0,-4.9954247E0,1.1326745E0,-7.929746E-1,8.7462735E-1,-7.8692975E0,-1.2447305E0,3.828186E-1,-1.4680241E0,1.3452555E0,9.067593E0,-3.700988E0,3.6150692E0,1.4781868E0,-3.463901E0,7.6698427E0,-5.198486E0,1.0439004E0,-3.47662E0,8.690797E0,2.9131567E-1,-4.1225657E0,-4.7786947E-2,-1.4884587E-1,5.089674E0,-4.163133E0,7.9154664E-1,1.4258659E0,1.5160255E1,2.1161814E0,-4.1789453E-2,-1.3261979E0,2.7668788E0,8.9454466E-1,-7.4703965E0,-2.0442553E0,4.6611223E0,9.236834E0,-3.1518347E0,1.0053461E-2,3.4268084E0,2.4272482E0,-1.9405686E0],"split_indices":[3,0,3,2,0,2,2,2,0,0,0,3,2,2,2,3,0,0,2,3,3,1,0,0,0,0,0,2,3,3,0,3,3,0,2,3,0,3,3,2,3,0,2,3,0,2,1,0,1,2,0,1,0,0,0,0,2,0,0,0,0,0,0,0,0,0,0,0,0,0,0,0,0,0,0,0,0,0,0,0,0,0,0,0,0,0,0,0,0,0,0,0,0,0,0,0,0,0,0,0,0],"split_type":[0,0,0,0,0,0,0,0,0,0,0,0,0,0,0,0,0,0,0,0,0,0,0,0,0,0,0,0,0,0,0,0,0,0,0,0,0,0,0,0,0,0,0,0,0,0,0,0,0,0,0,0,0,0,0,0,0,0,0,0,0,0,0,0,0,0,0,0,0,0,0,0,0,0,0,0,0,0,0,0,0,0,0,0,0,0,0,0,0,0,0,0,0,0,0,0,0,0,0,0,0],"sum_hessian":[2.34E3,1.626E3,7.14E2,6.1E1,1.565E3,2.01E2,5.13E2,4.8E1,1.3E1,8.1E1,1.484E3,4.6E1,1.55E2,7.4E1,4.39E2,4.7E1,1E0,5E0,8E0,6.1E1,2E1,6E0,1.478E3,2E0,4.4E1,4E0,1.51E2,5.3E1,2.1E1,1.1E1,4.28E2,3.8E1,9E0,1E0,4E0,6E0,2E0,2E1,4.1E1,6E0,1.4E1,3E0,3E0,5E0,1.473E3,1E1,3.4E1,1.5E1,1.36E2,4.2E1,1.1E1,1.2E1,9E0,1E1,1E0,3.89E2,3.9E1,3.6E1,2E0,8E0,1E0,3E0,1E0,5E0,1E0,1E0,1E0,1.4E1,6E0,3E1,1.1E1,2E0,4E0,1.3E1,1E0,1E0,2E0,2E0,3E0,1.1E1,1.462E3,7E0,3E0,2.4E1,1E1,1.3E1,2E0,4.2E1,9.4E1,2.2E1,2E1,3E0,8E0,6E0,6E0,8E0,1E0,3.83E2,6E0,6E0,3.3E1],"tree_param":{"num_deleted":"0","num_feature":"4","num_nodes":"101","size_leaf_vector":"1"}},{"base_weights":[3.4782186E-2,-2.0048203E0,9.2990085E-2,9.467498E-1,-8.234146E0,4.336317E0,2.0963555E-2,-1.0987017E0,2.2187304E1,-1.3173246E1,6.3091474E0,1.0606711E1,-4.0333886E0,-8.334804E0,9.240307E-2,6.451029E-1,-1.1669047E1,2.6295831E0,9.368008E0,4.4795113E0,-2.1604456E1,-1.5589504E0,4.0083294E0,-2.022932E0,2.342026E1,-7.033573E0,6.595435E0,-1.1164812E1,1.8221824E0,2.0544436E0,-1.075929E-2,-4.8350477E0,8.139992E0,-8.685714E0,4.2107143E0,5.230044E0,-1.5979782E0,-2.439835E1,-1.8063866E0,3.930891E0,-3.343339E0,1.1633781E1,2.849342E1,-4.286465E-1,-1.3584919E1,-1.4229989E1,8.219242E-1,2.6732402E0,-5.873829E0,1.6655552E1,1.1637435E-1,-1.472113E1,5.9195288E-2,4.0720412E-1,-2.3445966E0,-4.0699625E0,3.662989E0,-3.101784E-1,1.8910714E0,4.9370196E-1,-1.292691E0,-8.864023E0,-4.3110867E0,-1.3838624E0,5.9124374E0,6.6283364E0,-8.1144565E-1,1.006157E1,3.176111E0,1.6345155E0,-4.1996512E0,-5.172285E0,-5.233658E-1,-1.3582755E0,-5.554573E0,2.4306326E0,-1.291652E0,-2.253915E0,-3.89308E-1,7.563139E0,2.447228E0,-1.7551442E0,1.2277014E0,-7.2786436E0,-9.830659E-2,-4.3123677E-1,4.635093E-2],"categories":[],"categories_nodes":[],"categories_segments":[],"categories_sizes":[],"default_left":[0,0,0,0,0,0,0,0,0,0,0,0,0,0,0,0,0,0,0,0,0,0,0,0,0,0,0,0,0,0,0,0,0,0,0,0,0,0,0,0,0,0,0,0,0,0,0,0,0,0,0,0,0,0,0,0,0,0,0,0,0,0,0,0,0,0,0,0,0,0,0,0,0,0,0,0,0,0,0,0,0,0,0,0,0,0,0],"id":19,"left_children":[1,3,5,7,9,11,13,15,17,19,21,23,25,27,29,31,33,-1,-1,35,37,-1,-1,39,41,43,-1,45,47,49,51,53,55,-1,57,-1,59,61,-1,63,-1,65,67,69,71,73,75,-1,77,79,81,83,85,-1,-1,-1,-1,-1,-1,-1,-1,-1,-1,-1,-1,-1,-1,-1,-1,-1,-1,-1,-1,-1,-1,-1,-1,-1,-1,-1,-1,-1,-1,-1,-1,-1,-1],"loss_changes":[2.7811224E2,1.2029045E3,6.9583344E2,1.9794707E3,1.5915587E3,2.0370725E3,1.3378977E3,7.8169763E2,2.1159717E2,2.4781228E3,5.562545E2,3.6076494E3,1.4816399E3,5.6648706E2,4.4977432E2,1.5590626E3,1.7686414E3,0E0,0E0,5.00224E2,3.3200537E2,0E0,0E0,6.955034E2,3.2625586E2,6.8651544E2,0E0,5.62818E2,